label,x_0,x_1,x_2,x_3,x_4,x_5,x_6,x_7,x_8,x_9,x_10,x_11,x_12,x_13,x_14,x_15,x_16,x_17,x_18,x_19,x_20,x_21,x_22,x_23,x_24,x_25,x_26,x_27,x_28,x_29,x_30,x_31,x_32,x_33,x_34,x_35,x_36,x_37,x_38,x_39,x_40,x_41,x_42,x_43,x_44,x_45,x_46,x_47,x_48,x_49,x_50,x_51,x_52,x_53,x_54,x_55,x_56,x_57,x_58,x_59,x_60,x_61,x_62,x_63,x_64,x_65,x_66,x_67,x_68,x_69,x_70,x_71,x_72,x_73,x_74,x_75,x_76,x_77,x_78,x_79,x_80,x_81,x_82,x_83,x_84,x_85,x_86,x_87,x_88,x_89,x_90,x_91,x_92,x_93,x_94,x_95,x_96,x_97,x_98,x_99,x_100,x_101,x_102,x_103,x_104,x_105,x_106,x_107,x_108,x_109,x_110,x_111,x_112,x_113,x_114,x_115,x_116,x_117,x_118,x_119,x_120,x_121,x_122,x_123,x_124,x_125,x_126,x_127
VAV3,0.044582088,-0.15561175,0.019630035,0.13801348,-0.1051566,0.028644252999999998,0.13062222,0.39542904,-0.59362024,-0.12714611,0.20028208,-0.19476429,0.021368805,-0.33972633,-0.27070603,0.029402627,-0.37433872,0.04940529,0.21379289,-0.35988715,-0.39555252,0.033178814,-0.13953770000000001,0.50954777,-0.4995749,0.44425157,-0.00850325,0.04232339,-0.672984,-0.104647785,-0.14443958,0.08741063,0.16989174,0.33751053,0.15085001,-0.13401297,-0.017663876000000002,0.6688642,-0.036951582999999996,0.01803699,0.27418056,-0.40331233,0.17133966,-0.18775576,-0.25421202,-0.40328404,0.41552827,0.40024355,0.14588654,0.037353437,-0.18315819,-0.39504066,-0.46724340000000003,0.37557057,0.13359341,-0.07480777,-0.42952815,-0.3930011,-0.113746785,-0.12051284,0.40091452,-0.20024768,-0.32833427,-0.78505796,-0.018542744,-0.43777096,0.22859709,-0.72646266,0.28668487,0.580114,0.6896748,0.15317805,-0.41249186,0.7077106,0.1940839,0.34288567,0.10004862,-0.5042494000000001,-0.24326332,0.03632073,-0.24715412,0.11997283,0.21291621,0.06241462,0.30356002,-0.23934172,-0.17091724,0.06139524,-0.35184675,-0.9413238000000002,0.61225635,-0.43754074,-0.54643875,-0.4370691,0.30108202,0.14701127,0.49389700000000003,-0.3408808,0.13846144,-0.17539062,0.7819431,-0.006959248,-0.12360444,0.044017013,0.17620777,0.38117397,-0.81603736,0.62575674,0.44888806,-0.8290128000000001,0.45658284,-0.6375196999999999,0.42171210000000003,0.30554970000000004,-0.08886024,0.09573689,0.3090612,0.59019107,-0.18069327,0.0829027,-0.2611524,-0.12927546,0.21015371,0.41586080000000003,-0.32038966,0.22800371,0.13881776,0.30339733
AGO2,0.22040859,0.29849395,-0.24667712,0.061452027,0.22848186,-0.36887228,-0.45958024,0.13514444,0.701699,0.15396059,-0.0751608,-0.23080787,0.089187324,0.26296014,-0.024120709,-0.29240856,0.15464257,-0.20128098,0.5716574000000001,0.3005848,0.5166739,-0.5504784,-0.47210872,0.32360953,0.12066311,-0.65622354,-0.14284985,0.31581467,-0.11575536,0.06167112,-0.4259352,0.3625926,0.690908,0.20733589,0.5466085,-0.22000134,0.047103032,0.024580032999999998,-0.64530486,-0.16270529,0.16848585,0.24003237,0.30105233,-0.24612464,0.44321009999999994,0.26579288,-0.027681557000000002,-0.056068442999999996,0.26945929999999996,0.056774948,0.23730312,-0.10561907,0.52316624,0.9685746,-0.5791457,0.5519378,-0.54226506,0.008816158000000001,-0.060520872,0.007888165,0.004767147,-0.14910320000000002,-0.07923063,0.29482645,0.38301697,-0.27894872,-0.38042420000000005,0.17398834,0.19867642,-0.034124598,0.096673645,-0.22958374,-0.32622918,-0.13766067,0.26761973,-0.55764633,0.20805722,-0.22009154,-0.09321006400000001,0.25917435,0.2972125,0.6413241999999999,0.013047313,-0.7944774,0.07817337,0.037879415,0.025607444,0.22640087,0.17356989,0.62962747,0.13116879999999997,0.34053690000000003,0.02729586,0.27588767,0.1594519,0.25189915,0.25820170000000003,0.004753183,0.50384206,-0.80581045,0.25774446,0.5346443000000001,0.8548786,-0.69293445,0.31612140000000005,-0.25127432,-0.32131618,0.22037923,0.28200006,-0.19862431,0.50059426,-0.40754703,0.6083681,0.64853334,0.47801608,-0.48504856,0.39690757,-0.45906872,-0.007197899000000001,-0.30532297,-0.48809463,0.33454618,0.06892915,0.12676273,-0.10574701,-0.106761925,0.070978515,-0.10937919
ZNF460,0.06835768,0.37749448,-0.6983536,-0.00014341,-0.35375258,0.04009998,-0.5568711,0.5837383,-0.15313305,0.56545043,-0.20475906,-0.18290198,0.10100809,0.26476505,-0.29160777,0.3064608,0.07794701,0.035798088,0.001446686,0.22275226,-0.60300696,-0.13870998,0.04437187,0.14309171,-0.3798282,0.061538382999999995,-0.6060505,-0.30335048,-0.9815243,-0.106946945,-0.009782701,0.35664958,0.5917026999999999,0.10666410000000001,-0.13492723,0.38553783,0.4565219,-0.17136618,-0.25016302,-0.038240496,-0.0459704,-0.27660027,1.0248029,0.5353967,0.22386305,0.11721753,-0.28033802,-0.32206625,0.58931077,0.16129869,0.11264599,-0.23588616,0.39017037,-0.2791582,0.4462485,-0.19316018,-0.27019733,-0.08635592,-0.40176365,0.48335168,-0.17688729999999997,0.0073792630000000005,0.10132544,-0.28166297,0.05114224,-0.20180726,0.45094639999999997,-0.05790175,0.41887820000000003,-0.20752291,-0.112516776,0.09411084,-0.6766047,-0.14363195,-0.6063742,-0.15791945,-0.5458206,-0.47069386,0.3344158,-0.29280126,0.24243386,-0.04681339,0.50492775,0.10266339,0.15561269,-0.37761655,-0.35533303,0.58853865,-0.43197492,0.024406435,0.099566534,-0.07448895,-0.113065876,0.29424232,-0.24690677,-0.45561045,-0.92120636,0.058994316,0.006720835,-0.15301804,-0.19003892,0.28414598,0.25483155,-0.37721020000000005,0.57636577,0.022123111,-0.23165820000000004,0.66092515,-0.11105579,-0.040191233,0.31158805,0.1463146,0.20060508,0.10233042,0.29567692,-0.12310476599999999,-0.5314317,-0.07222142,-0.07238428,-0.13277781,0.13959533,-0.08891503,0.026430963999999998,0.062242307000000004,-0.03978711,0.27225143,-0.3574585,-0.09891427
CCND1,-0.89479417,0.21741897,0.26071823,-0.16111611,-0.14544609,0.032757632,0.000531799,0.62162715,-0.12299805,-0.695392,-0.11990267,-0.5327568,0.5848191999999999,-0.43829480000000004,0.22683197,-0.38991827,0.17084607,0.04222202,-0.43424034,-0.12550679,0.20946717,-0.18081604,0.20704657,0.48439994,0.13524933,0.24215554,-0.0929757,-0.13414258,0.03814888,-0.40667322,-0.10864033,-0.14261600000000002,0.13795817,0.5109479,0.015521638,-0.24720652,0.75473446,0.2828632,-0.30219114,-0.43311995,-0.67572063,0.030675625,0.06924952599999999,0.10003609,-0.097196616,-0.20871985,0.08253753,-0.33714646,0.5713241,-0.25437266,-0.25322214,-0.20570102,0.5607898,0.2866671,-0.23312958,-0.24932787,0.06944929,0.20246050000000002,-0.011385653,-0.35334828,0.1898957,0.45973232,-0.12451988,-0.008294314,-0.3905015,-0.29638904,0.5164904,0.042784147,-0.6431279999999999,-1.0549856000000002,-0.046527624000000004,-0.25678554,0.22004542,-0.3021153,-0.203726,-0.17045805,0.20905541,0.21491514,0.21853313,-0.27903190000000005,0.00613333,-0.065375194,0.021424707,0.7324092,0.2559639,-0.18649532,-0.3886342,-0.02896446,0.041630276,0.108321,0.5495923,0.14398567,-0.26073992,-0.19638672,0.20191346,-0.1916749,-0.29283717,-0.18491486,-0.1819326,-0.24258885,-0.015747689,0.13008761,0.49609745,-0.719025,0.33484593,0.016592799,-0.14525305,-0.07309971,-0.13779373,0.035339475,0.17166716,-0.4138598,-0.3075478,0.04394045,-0.0015700710000000001,0.09221343,0.09523773,-0.63830966,0.19541709,0.12377648,0.20811346,-0.07923509,-0.2564243,0.15204085,0.32490653,0.3914021,0.20383099999999998,0.34503266
BTG2,-0.31761935,-0.14695323,0.43707159999999995,0.1458139,0.22958605,-0.5219066,0.27325898,-0.039610755,0.057413485,0.12859009,0.19559203,-0.13350075,0.33926007,-0.16848171,-0.45139992,-0.13274260000000002,-0.04203568,0.13337111,0.17377985,0.1069567,-0.40049285,-0.88197464,0.33766723,0.32247743,0.48486876,-0.8978574,-0.28478444,0.12675695,-0.10428738,-0.33495545,-0.34471914,0.043246828,-0.3717982,-0.05234574,-0.048554063,0.051464777,0.21706828,-0.030593822000000003,-0.1456295,-0.16010939,-0.25171408,0.34068190000000004,0.25219372,-0.30067992,0.44208756,-0.34039482,0.29055732,0.14351621,0.47101000000000004,0.34050435,-0.29302659999999997,0.5811286999999999,0.052481268,0.44862604,0.39978138,0.6262813,-0.30798400000000004,0.26331875,-0.12269599,0.36427876,0.38316974,-0.1960075,0.13815467,0.09301574,-0.21752539999999998,-0.26800177,0.060071617,0.004314887,0.2791772,-0.08732947,-0.5348984999999999,-0.35921,-0.22858,-0.090925135,0.07459786,0.15716062,-0.51914793,-0.24553270000000002,-0.30675223,0.64151204,0.7969331000000001,-0.17092597,0.20283525,0.017857084,-0.38913834,-0.65214974,0.008356609000000001,0.057483997,-0.31494182,0.27133822,0.24866924,-0.25326458,-0.63625616,0.16734438,0.30016770000000004,-0.07477726,-0.62835765,0.19260582,-0.23605967,-0.30191395,-0.46311805,0.47674802,0.11024494,-0.51997983,0.718964,0.21148568,-0.51971287,0.6420175,0.07715602,0.36695486,0.47866532,-0.36874875,0.36014003,0.05511784,0.05994286,-0.599526,-0.13678828,-0.34063804,0.04881818,0.14655761,0.19711953,0.13470013,0.026177762,0.18791501,0.37344056,0.22775747,-0.03755896,-0.48849368
KLHL15,0.5111156,-0.6238296999999999,-0.28320968,0.2575569,0.19781572,-0.06633566,0.11387409,0.07290892,-0.001718127,0.25989315,-0.013361672,0.24328315,0.2274063,0.26570463,0.14402534,-0.24804455,1.1783456,0.33385894,0.30500078,0.18447071,0.25956497,-0.5535332,-0.5542535,0.1252235,0.16454008,-0.1890615,0.12244854,0.040762596,0.020702078999999998,0.19766228,-0.11492137599999999,-0.12986514,0.126904,0.6425072,0.74178267,0.5223473,0.7156577,0.036177002,-0.42140216,0.037241645,-0.47430479999999997,0.046922467999999995,0.77915925,0.46332470000000003,0.39693028,0.03378048,0.5154695,0.023544554,0.023878233999999998,-0.089024454,0.17203161,-0.5536770000000001,-0.14272825,0.101415336,0.35954764,-0.23811665,-0.22621414,0.000679958,-0.40927508,-0.18297672,0.52665836,-0.17576717,-0.46136388,-0.21369208,0.14114404,-0.23491743,0.72598165,-0.029970745,-0.16161393,0.009386526999999999,0.44659513,-0.07929378,-0.75185776,0.40580338,-0.18989363,-0.22575568,0.21484102,-0.030247405,0.38907036,0.42405948,-0.27768338,0.13196635,-0.39094517,0.5341338000000001,-0.24387625,0.15567277,0.15532775,0.48566902,0.42557377,-0.09548444,0.6393741999999999,0.41314015,-0.3385067,0.2744428,0.041706063,0.07732687,0.31805209999999995,-0.6665897,-0.03032595,-0.41123304,-0.08307271,-0.027381394,0.1062346,-0.17343970000000003,0.036878895,-0.15280169,-0.6236722,0.20443636,0.023144504,0.35176942,0.14897320000000003,-0.26931843,-0.1369753,-0.6060435000000001,0.13289846,-0.16750301,0.1724991,-0.19702071,-0.17702217,-0.2547299,-0.068577334,0.13614184,0.48650584,-0.19964096,0.8890528,-0.05440934,0.15250418,0.55201554
GATA6,0.32087946,0.21600918,0.097205006,0.25679216,-0.42276990000000003,0.35625815,-0.42729753,0.24579223,-0.45030493,0.09329022,-0.012183946999999999,0.059701312,-0.09225036,0.16499762,-0.14327744,-0.22201246,-0.11361135,0.32997309999999996,-0.40759337,-0.082669005,-0.5325681,-0.59465045,0.51588017,0.3296402,0.13927355,-0.33281422,-0.50215375,-0.27907994,-0.04449867,0.43004647,-0.18857367,-0.8856056999999999,-0.31478992,0.26862863,-0.48043945,0.23388514,-0.4003909,-0.45031000000000004,-0.05596456,-0.15688,0.000577762,0.49354333,0.5771998,0.003686605,-0.017884811,-0.038648203,0.1857,0.059165575,0.3486234,-0.46780506,-0.031600717,0.5089277,0.1456659,-0.022322447999999998,0.33833387,0.03978926,-0.921635,-0.3324342,0.31102422,-0.33346614,-0.03709981,-0.3610657,0.3412969,-0.3975183,0.41732657,0.038149152,0.49256632,-0.76564217,-0.2272762,0.033543244,0.6607201,-0.50213575,-0.11418715,0.026388997,-0.067417696,-0.5862158000000001,-0.5268165,0.08010314,0.16274345,0.29718590000000006,0.88026613,0.26725820000000006,0.25727567,0.024270589,0.10963005,-0.25845122,-0.31251603,-0.12339080000000001,-0.001726731,-0.038029857,0.40912178,-0.5695289000000001,-0.18563795,0.11411082,0.6471266999999999,0.21369502,-0.06893545400000001,-0.05622944,-0.56342363,-0.3750438,0.15583211,-0.12684909,0.78586274,0.14936039,-0.58463883,-0.06656814,-0.12975365,0.20426238,0.7241849,0.31466478,-0.026362631,-0.41069537,-0.08201716,-0.24565564,0.08006094400000001,-0.026729472,0.63839275,0.15926191,-0.012334921,-0.44977126,0.11747073400000001,0.004644642,0.10555398,0.05886046599999999,-0.34020567,0.23787166,-0.1916019,0.33198908
CDKN1A,0.14158027,0.23564401,-0.15810455,0.1962513,0.11670732,0.43006754,0.3065093,0.051464334,-0.18190669,-0.18008977,0.2124514,0.13905403,-0.12636031,-0.15138553,-0.20056085,-0.54642916,-0.17087317,0.24277683,-0.10482491599999999,0.1340485,0.08708607,-0.52991647,-0.36934537,0.4381807,-0.39204842,0.3116664,-0.75134796,0.34625506,-0.22523023,0.101265565,0.38174504,0.19260667,0.074249096,0.45302343,0.32374862,-0.20106989,0.5694281999999999,0.20029446,-0.25972903,0.32632685,0.2944482,0.6257213,-0.19402936,0.13126469,0.10502873,-0.27606827,0.22478682,0.25064382,0.07106969,0.84112656,-0.03390205,0.06772335,0.22320056,0.38243005,0.41257688,0.7149968000000001,-0.52401465,-0.15582816,-0.29795045,0.43645844,0.21119748,0.25219098,-0.26521279999999997,0.027154277999999997,-0.061326124,-0.27337652,0.18601751,0.32544047,-0.19871621,0.28765759999999996,0.15765618,-0.4294222,-0.5039486,-0.017449882,-0.6249793,-0.25487375,0.5597813,-0.031848155,0.34593856,-0.17453232,-0.645035,0.29565559999999996,0.48451376,0.20894894,-0.71100515,0.05246925,0.13451463,-0.49864623,0.002353766,-0.24527913,0.6430376999999999,-0.5562328000000001,0.08148567,0.15950416,-0.15463091,0.026009433,-0.29025596,-0.34234315,-0.048443012,-0.32448128,-0.18332325,-0.06283023,0.7391186,-0.6648125,0.381889,0.019849265,0.047963534,-0.15341370000000001,0.27900684,0.085853286,0.6257894,0.091679014,0.06424629,0.4102595,0.13571365,0.28193823,0.07181375,-0.03778165,-0.034897983,-0.40436962,-0.08500715,-0.5912881,0.22196953,-0.06806519999999999,0.10508665,0.55498767,0.05897768,0.17648232
PPP1R15B,-0.34078136,0.13001367,-0.15070482,0.52185154,-0.017359799999999998,-0.17261028,0.47481766,0.186553,-0.09900582,-0.10825831,-0.13881415,-0.49224088,0.06801916,0.010553293,0.15208986,0.27238113,0.42803645,0.33195284,0.91899353,0.16291666,-0.3572034,-0.530449,0.11519839,0.59606504,0.34136754,0.25527945,-0.5906274,-0.56594884,-0.015160468,-0.053624425,-0.16748144,0.30995342,-0.25886917,1.2593086000000002,-0.10722930000000001,-0.012026358000000001,0.054682307,0.12257406,0.43462306,-0.30908248,-0.11972457,-0.1952409,0.3216651,0.29283893,0.35750097,0.2810033,0.49809512,0.26379362,-0.08750068400000001,-0.08930026,0.37144884,0.41241196,0.09102077,0.39340064,-0.1515504,-0.11772498,0.59433264,-0.09554941,-0.08379786,0.2605435,-0.30312902,0.08166616,0.21190734,-0.26723355,0.26558208,0.060197953,-0.17572013,-0.11688947,0.12556458,-0.004579195,0.31392259999999994,0.34524587,0.33916256,-0.042955477,0.3450317,-0.16965127,0.09539868,-0.5074337999999999,0.17376325,0.77297616,0.05050981,-0.59722346,0.36484706,0.56520003,0.16878086,-0.50168955,-0.1240931,0.40143165,-0.20841272,0.10756347,0.31327012,0.052440234,0.50584203,-0.01320129,0.15828931,0.36352503,-0.11054829999999999,-0.3019663,0.006368436,-0.027952604,-0.08940822,0.14293352,0.54916734,-0.6483194999999999,-0.044410776,0.5685708,0.11328953,-0.11525844,0.38389236,0.20313601,-0.16849928,-0.22426513,-0.36924672,0.17129068,0.33994126,0.14643766,0.64756334,-0.014988853,0.16357320000000003,-0.26289603,-0.25762796,-0.18525842,0.16368929,-0.12568235,0.48870286,0.058052182,-0.39900443,0.08106738
IGF1R,0.049624745,-0.3502869,0.46530035,-0.5460281,0.39678755,-0.07586101,-0.13330917,-0.43987983,0.08657491,0.24799785,0.048352778,-0.32897259999999995,-0.38488558,-0.001924044,0.50030255,0.16153865,-0.58423114,0.72191906,0.31269452,0.082548715,0.03190339,0.08205086,0.57404095,0.19834842,0.26111087,0.42920923,-0.23711912,-0.15341629999999998,0.09726667,-0.020530786000000002,-0.37080982,0.048885707,0.043825,0.2304249,0.22399552,-0.29500726,0.53632414,0.22146846,-0.16074839,-0.22280279999999997,-0.19314612,0.21783747,-0.03623713,-0.2777726,-0.35667350000000003,-0.22715914,-0.20362120000000003,0.056756075,0.07749767,-0.15361685,-0.35966167,-0.01008087,-0.031647567,0.03033586,0.05138536,0.16656008,0.5930696,0.22495817,0.07092479,0.19296835,-0.19259124,0.08787637,0.064898506,-0.8087287,0.19821322,0.3195406,0.18420899999999998,-0.33124888,-0.025719013,-0.5448656999999999,0.4503034000000001,-0.03061423,-0.30492872,0.07042028,0.06442517,-0.3489125,-0.1670517,-0.15751298,-0.5578725,0.31624478,-0.23031136,-0.5217672000000001,0.11775242,1.1245756000000002,0.044335607,-0.07171456,0.14047733,0.28138936,-0.013918439,-0.16199288,1.0864184,-0.044834312,0.4975983,-0.33351043,0.15995613,-0.39522016,0.23989347,-0.38950306,0.34162787,-0.5057382,-0.13776147,-0.35446998,0.0949822,-0.32279238,0.22048517,0.71877736,-0.24274217,0.14696681,0.45382366,-0.40292636,0.10164867,0.015912838000000002,-0.28982455,-0.43791535,-0.8545101999999999,-0.060228985,-0.6545871999999999,0.47934747,0.045642756,-0.13502716,-0.33963509999999997,0.23775584,0.28579167,0.30231979999999997,0.24406047,0.28818992,0.1963394,0.26393348
SOX4,-0.45558515,0.64032334,-0.39680567,-0.14407632,0.66064966,-0.038062975,-0.14772424,0.014154395,-0.027314492000000003,0.32377464,-0.33507434,0.45837609999999995,-0.5974696,-0.73388153,-0.11794899,-0.29929632,0.14994559,-0.29275229999999997,0.81820005,-0.23237613,-0.22571309999999997,-0.26863813,-0.26929405,-0.008821536,-0.49247542,-0.24482726,-0.028339437999999998,0.5617456000000001,-0.70780414,-0.79072356,-0.30566236,-0.023714948,0.24254596,0.13679649,0.17016682,0.0457793,0.11765255,-0.067836635,-0.036981225,0.8570684999999999,-0.28287399999999996,0.08337583,0.21749385,0.336609,-0.2573377,0.35447797,-0.21685985,-0.10365859,0.20975901,1.2420049,-0.14967512,-0.159887,0.40948042,-0.15118636,0.6810255999999999,0.45262006,-0.23028603,0.1109354,0.068704106,0.14834562,0.42026624,-0.40444133,0.042073928,0.56616974,0.1385619,-0.25440246,0.007046573,0.32868400000000003,0.6411268,-0.08602371,0.10079503,0.10096408,-0.22767347,0.3550072,-0.15659441,0.19463652,0.13738106,-0.38022763,-0.08602495,0.12075883,-0.13020901,-0.5048851,-0.14394635,-0.10248647,0.71660244,0.22666085,-0.063670635,-0.18800187,-0.48640287,-0.05750389400000001,0.21550776,-0.3100619,0.21985494,-0.23486385,0.13024485,0.27304217,0.2988588,-0.2889677,0.37058747,-0.12054617,-0.24724089,0.4999552,0.06937628,0.040890223999999996,0.12415551400000001,0.44154155,-0.18660757,0.49867043,0.11892122,0.13302766,0.18189138,-0.38611224,0.5383806,0.13733710000000002,-0.026403159,0.19539468,-0.14817494,0.2525018,0.17740946,-0.07007195,-0.27547953,-0.28536814,0.040619857999999995,-0.21124904,0.6275506999999999,0.26405123,-0.55434346,0.41473347
MIDN,0.13356794,0.089032255,-0.3861866,0.2708615,-0.20401362,0.066295326,0.10316137,0.96973985,-0.35213163,1.0119045,-0.42875278,-0.057848286,-0.020922301,0.05664422,0.30438963,-0.43890104,0.06037429,-0.2971647,0.17781676,0.21715713,0.20241106,-0.12775767,0.76240915,0.10427795,0.30287117,-0.033174235,-0.21471535,-0.31234547,-0.46726766,-0.033090685,-0.5339111,-0.08761335,-0.2043814,0.19764006,-0.06963452,0.038822755,0.017778222,-0.09947786,0.075022615,0.17989072,0.19017202,0.43711084,0.1463763,-0.20485460000000003,0.4806156,0.29111838,-0.5085452,-0.23765971,0.16608682,0.14799432,-0.017575247,-0.7163813,-0.06899222,0.33765915,0.16464418,-0.068962224,-0.22253391,-0.07184639999999999,-0.40897307,-0.28046963,-0.22055528,0.53320456,-0.19281712,-0.29011142,-0.16153634,0.045112337999999995,0.2703485,-0.14964835,0.07377149,-0.02001647,-0.06697527,0.36199602,-0.49379432,-0.3056772,0.14402868,-0.6955363,0.13019094,0.43867067,0.180117,0.5248058000000001,-0.110813074,-0.2509949,0.15197925,-0.32922167,0.12257673,-0.29346362,-0.1280847,0.26508263,-0.18526626,-0.014815837,0.18268536,-0.58497316,-0.25766262,-0.5843174,-0.12833554,-0.22105494,0.006944405,0.11279783,0.26288125,-0.47705859999999994,-0.49759167,0.20113578,0.081566565,0.20874701,-0.26928002,0.16421089,0.003033405,-0.12011642,0.24322112,-0.122303165,0.27872542,-0.10648183,0.50153947,0.10012360000000001,0.25983244,0.30968850000000003,0.19382478,-0.058654007,-0.18797322,0.16309196,-0.20401664,0.053271197,-0.107461914,-0.38507432,0.37436754,0.2379779,-0.594105,0.18563151
GDE1,-0.120235406,0.11906954,0.06790347,0.40471998,0.05129034,0.5691472,0.080869995,-0.09301254,-0.11084475,-0.06618582,0.20036818,-0.88205975,-0.28903803,-0.22445749,0.28342956,0.14905435,0.11240925,0.26297992,0.32482442,0.41916390000000003,0.2251857,-0.5151420999999999,-0.10852057,0.07495265,-0.4337504,0.3323563,-0.6529495,-0.24498844,-0.41990212,0.33961698,0.052350602999999996,0.029854102,0.28514233,-0.21178822,-0.26574898,-0.5806800999999999,-0.13158944,0.68335015,-0.012882293999999999,0.4583417,-0.2422349,0.10510042,-0.06711571,0.52489287,0.20961559,-0.16001962,0.07607363,0.38056332,-0.009864408,-0.18847805,0.19427316,0.32044414,0.050864022,0.44767666,0.238369,0.09471577,0.11707978,0.39463952,0.25162137,-0.40801653,-0.28585570000000005,-0.17791435,-0.59311426,0.09176702,-0.47804335,0.04595612,-0.16987231,-0.320259,-0.41624412,-0.2820223,0.5972963000000001,-0.7261141,0.10408544,-0.28861028,0.23752812,-0.26842612,0.40996359999999993,-0.0458531,0.3898833,-0.13931048,0.09587377,0.077671885,-0.003082285,-0.060212094,0.5808263000000001,0.052701387999999995,0.016544402,0.18676855,0.60380316,-0.25073045,0.15112520000000002,-0.36506915,0.3110726,0.21748893,0.17379104,-0.8198869000000001,-0.40643942,0.053248994,0.36699823,-0.0038201259999999996,-0.6573918000000001,0.34360683,0.2511493,0.0007493239999999999,0.003056135,0.2617737,-1.2312319,0.029036935,0.5703316999999999,0.41916620000000004,0.045978688,0.10292047,-0.037303027,0.03822771,0.012000735,-0.29414270000000003,0.27211466,-0.033414327,0.022360112999999997,-0.01689042,-0.5017057,-0.1705346,0.51898813,0.36194548,-0.18584347,0.75714487,-0.16089015,0.8791482
RAB5B,0.72644955,0.19424257,0.38029309999999994,-0.06677288599999999,-0.08482432,-0.25942612,0.13797124,-0.14172223,0.06000155,0.85920024,0.26413304,-0.6105522,-0.14449093,0.03489638,0.26104152,-0.15932953,-0.06870062,-0.039744575,0.21792153,-0.107975885,0.10371902599999999,-0.45019840000000005,0.3270518,-0.13138455,0.124170065,0.27017847,-0.30654365,-0.49243820000000005,-0.70539886,-0.33940056,-0.14308923,0.11048417,0.14739327,0.21382374,-0.007441721,-0.39879414,0.1856406,0.7506801,-0.23624791,0.28244948,-0.30446228,0.04203593,-0.07621893,-0.36690646,0.31431186,-0.019901268,-0.32409275,0.08061263,-0.03817571,0.16249247,0.26904556,0.13697518,0.01916103,0.21027482,-0.39994705,-0.18568408,-0.20372425,-0.673381,-0.3614085,0.26699054,-0.42061284,0.49777582,-0.1556737,-0.11159033,-0.0923608,0.5488736999999999,-0.18004976,0.2621103,-0.25422394,0.24328618,0.47971179999999997,-0.28666002,-0.5866429,0.25828514,-0.029551016,-0.12027333,0.14473818,0.0860948,0.51640934,0.24570189999999997,-0.05569505,-0.27476236,0.23628974,-0.18304963,0.39155436,-0.3199531,0.36740217,0.3354998,-0.39261788,-0.33815542,0.12724826,-0.17777917,-0.22470336,0.2750493,0.48070109999999994,0.30335498,-0.28977293,-0.18882702,-0.24520692,-0.21886799,0.037480797999999996,0.31206903,0.018834298,0.27435306,0.33397505,0.026278568,-0.25940204,0.15713282,0.58150434,0.051882606,0.20696726,-0.7325933000000001,0.02089284,-0.1743998,-0.43703917,0.14385079,0.46271354,0.6551844,-0.08973935,-0.61836094,-0.3859172,-0.05846688,0.05437352,0.06650445599999999,0.042516492,0.20423849,-0.029098695,0.3516397
SLC7A5,0.22448285,-0.004213092,0.2730038,-0.06541430000000001,0.083273456,-0.03365288,-0.27098626,-0.15213075,0.08017357,0.34424827,0.29782358,-0.46957034,0.027843338,-0.25826117,-0.22093101,0.41742340000000006,0.30083722,-0.11995953,-0.15223685,-0.11963453,0.31534508,0.03919464,-0.09309229,0.105772555,-0.5324651999999999,0.11922361,-0.29057598,0.13923478,-0.26276076,-0.39846832,-0.25471710000000003,0.032960072,0.19128699999999998,0.4494287,0.495521,-0.16986313,0.11229727,0.9063183000000001,0.17874677,0.52327186,-0.13320352,0.16684595,-0.037531506,0.14485486,-0.065212116,0.25533859999999997,0.13404115,0.45191061,-0.4897236,0.66462994,0.3649969,0.26566857,-0.05405534,0.16733724,-0.37669846,-0.35498428,0.012445115,0.14861043,0.46562245,-0.08282455,0.09877735,0.64964354,0.04582341400000001,-0.28602073,0.20838715,-0.24280947,0.19459343,-0.02395843,-0.13420056,-0.27207416,0.6758111,-0.2734919,-0.40029590000000004,0.23609024,0.16130073,-0.5180194,-0.031968996,0.011629396,-0.09799737,-0.007591272,0.64777786,-0.2012989,0.45301640000000004,0.2962756,-0.2162027,-0.51603127,-0.32176244,-0.023535272000000003,-0.8939328999999999,0.05121314,0.13623971,-0.80935353,-0.38577828,0.008634711,0.18987204,0.025470357000000002,-0.17781784,0.07108357,-0.051686104000000004,-0.23556754,0.22988328,0.51518124,-0.26450133,0.042663597000000004,0.18685465,0.31902924,0.10983475,0.48032698,0.5674323,0.019701831,-0.15637636,-0.2927612,0.04143195,0.18950148,-0.27702707,0.30333725,0.3675645,0.82689637,-0.64127606,0.51168966,-0.28656479999999995,-0.022836616,0.35708308,0.2533029,-0.1351557,0.25904920000000003,-0.10476269,0.5162575
TUBB2A,0.07156533,0.32382134,0.08079994,0.21558101,-0.6793679,0.4790044,-0.33370146,-0.08042841,-0.14293861,-0.15982085,-0.113598734,0.1348304,-0.14509520000000004,0.26642350000000004,-0.040092856,0.3453658,0.35219783,0.002174269,-0.078376375,0.1440339,0.31141257,-0.005878638,0.5242833,0.06831978,0.033934865,-0.1755901,-0.3610623,-0.32437268,-0.45806763,-0.01312821,-0.36332777,0.26734442,0.21607895,0.41385302,0.35880387,-0.15671279999999999,-0.0056701569999999995,0.27068236,-0.20591052,0.13354635,-0.33644325,0.10202914,-0.07575076,0.65958875,0.31323373,0.23669310000000002,-0.251409,-0.3915817,0.24823447,0.21465398,-0.2669723,0.36463293,-0.13466445,0.21203452,0.15936045,-0.041406695,0.49519009999999997,0.5399193,-0.26002252,-0.10395349,0.7241565999999999,-0.27750605,-0.2175821,-0.6230625,-0.34046012,0.20276774,-0.06080827,-0.15384904,-0.017904796,0.17668279,-0.32461083,-0.29282096,-0.112296805,0.1743634,-0.38921398,0.20049828,0.6208319,-0.02832741,0.45487508,0.24968508,0.6649866999999999,0.069605656,0.051715948,0.28814262,-0.15877558,-0.41082814,0.0541207,-0.06854622,0.34849507,0.023632647000000003,0.6154264,0.21750496,-0.07031752,0.39466375,0.16654518,0.11768687,0.09558385,0.027413394,0.14783268,0.10545239599999999,-0.014791034,0.31901148,0.39373043,-0.34054974,0.5000005,0.13420053,0.09113527,-0.25611398,0.02019087,-0.59013665,-0.17894472,-0.09553151,-0.47633183,0.045001965,-0.007600335,-0.12233734,0.05157648,0.14361563,-0.45846763,-0.7664616999999999,-0.38634798,-0.20371735,-0.045806367,-0.12221503,0.17681082,0.4424646,-0.11601935,-0.008985982
NACC1,-0.3212369,0.48551038,-0.14918312,-0.14563556,0.2117719,0.24875467,-0.19306028,0.27171856,0.004039955,-0.043446958,-0.064942665,-0.34851882,-0.024653865,0.18197946,-0.52889234,-0.5783621999999999,0.13831413,0.41835147,0.13337053,-0.010298917,-0.24437346,0.16823941,0.033203386,-0.17996112,0.52548194,-0.42836368,-0.64587736,-0.22112377,0.11941174,0.43921128,0.65545255,-0.09195874,-0.04443644,0.54343665,-0.41278532,0.47261685,0.5154638,0.09638203,0.2040025,0.081309535,-0.38729107,0.45201418,0.17153794,-0.22521907,0.07613791,0.21445164,-0.17668372,0.39875114,0.27456436,0.41177538,0.24925116,-0.055039935,0.36459893,-0.25276807,0.33148316,-0.068435125,-0.16020684,0.1318166,-0.5807097,-0.08263419,0.018014988,-0.17909157,-0.5948204,-0.32482147,-0.5635531,-0.29519323,0.29143593,-0.81693196,0.36680663,-0.21362524,-0.03892027,0.33439472,-0.17029086,-0.5909625,-0.7687331999999999,-0.2913303,-0.07173911,-0.17579305,0.055217195,-0.15206236,0.51249343,0.56413794,0.44291246,0.24033682,0.19469011,-0.14673163,-0.12833065,0.042159285,-0.35802847,0.08672782,0.015995651,-0.35169629999999996,-0.68126875,-0.072193176,0.09184023,0.22511329,0.030898988,-0.2043656,-0.35504913,-0.35569802,-0.01679024,0.30734986,0.2971638,-0.55511504,0.09045149400000001,0.13584828,-0.2846694,0.35166726,0.5201571,-0.15690282,-0.30100229999999994,-0.06915836,0.018979076,0.5746076,-0.24936272,0.08565868,0.0688221,0.13296284,0.3476125,-0.1864939,-0.055831276,0.19744085,0.30237576,-0.20086524,0.3394395,-0.15448779,-0.3285854,-0.25503895
TAOK1,-0.32476562,-0.10305235,0.002036425,-0.44392678,-0.021072226,0.40361723,-0.41444704,0.2847423,-0.42692623,-0.3772109,-0.19165137,-0.40483475,-0.37631923,-0.42811212,0.4464875,-0.12771153,-0.34473488,0.08454312,-0.07019519,0.002945352,-0.11828172,-1.1169419,-0.086335026,-0.17350051,0.036562618,-0.17005694,0.10179059,-0.53024936,-0.24558124,-0.11094621,-0.18330763,0.26448303,0.5807831999999999,0.37523583,-0.17054921,-0.36913409999999997,0.58719546,0.24904920000000003,-0.15853131,-0.09509336,0.5608895,-0.25909486,0.57166064,-0.3244491,0.050486557,0.05237507,0.09824675,-0.32076140000000003,0.15604627,0.009801974,0.3506117,0.056608327,0.28424978,-0.39288846,0.032634974,0.42879972,-0.4903656,0.13507095,-0.10781666,-0.12101799,0.12125229,0.11406931,-0.18189701,-0.025155785,-0.11919785,0.11199468,-0.15194394,0.16114923,0.9786488999999999,-0.6959163,0.025732245,-0.26046759999999997,-0.42337018,-0.060304485,0.30861455,0.13911863,0.34907702,-0.04939826,0.001977251,-0.09133904,0.27625248,-0.25087798,0.28511354,-0.07220867,0.5543520000000001,-0.42726165,-0.8045898,-0.018625563,0.24714325,-0.09630665,0.2543272,-0.114301994,-0.48192227,-0.34823617,0.15708826,-0.3913718,-0.22280698,-0.45770472,0.09651953,-0.3594634,-0.20407403,0.47194725,0.37397596,-0.48815699999999995,-0.5346791999999999,0.00021159599999999998,-0.36852214,0.37691024,0.32890216,0.22497359,0.106719114,0.07357185,0.24812359,0.06852963,0.27442995,0.059388197999999996,0.39179840000000005,-0.046218182999999996,0.11989046,0.09632413,-0.030764133,0.5961435,0.010712167,-0.14938465,0.22181791,-0.19303702,-0.028898224,0.50837815
KPNA2,-0.1243525,0.22523720000000003,0.28690434,0.14968339,0.077434026,0.30537659999999994,-0.32341927,0.37108466,-0.49170798,0.07206097,0.5644899999999999,-0.75095624,-0.042948727,-0.09702273,0.27427647,-0.57454556,-0.14962235,0.33380747,-0.17318794,0.24338391,-0.42681426,0.27269346,-0.05478345,-0.17338745,-0.13538508,0.034162585,-0.06374309,0.13367014,0.318106,0.2636857,-0.4050776,-0.36926264,0.023705294,-0.46769896,-0.080868766,0.14290749,-0.26011038,0.09500428,0.17926495,0.36657688,0.03418312,0.22706783,0.10847205,-0.004288985,0.5627886999999999,0.67375004,0.26119867,-0.18851134,-0.24205518,0.19663702,0.00103474,0.9393187,0.48406142,0.32213047,-0.14096525,-0.49948066,-0.40168184,-0.17196202,-0.4134831,-0.33953556,-0.19290966,0.19139735,0.34394747,-0.25586283,-0.29550740000000003,0.41655853,-0.09998153,-0.18550135,-0.08157921,-0.84564906,0.7369953,-0.11342807,-0.27496424,0.26643774,0.14756754,0.31086606,0.18022829999999998,-0.57790357,0.21926413,0.53346854,0.42126352,-0.14443658,0.4328938,0.036012758,0.44351190000000007,-0.23309633,-0.5440599,0.22406606,0.21125513,-0.9044629000000001,0.18582067,-0.16180032,-0.33184636,-0.46340770000000003,-0.333491,0.22074087,0.13833803,-0.01938221,-0.17885156,0.5600052,-0.29167350000000003,-0.24601871,0.48292097,-0.60204864,0.4148914000000001,0.58319175,-0.5668424,0.340844,-0.14557225,-0.42408282,-0.072924726,-0.46009502,0.48184457,0.13669567,-0.42979413,0.10209409,-0.07905393,-0.01768623,0.16079018,0.001261907,0.07095045,-0.39129603,0.26535997,0.06573376,0.03475451,0.16553965,-0.02977886,0.19963263
ZNF264,-0.041803695,0.29465216,0.18500046,-0.4068022,0.3837178,-0.32349079999999997,0.46908236,0.40045149999999996,0.014039833,-0.17029588,0.09656210000000001,-0.120365374,-0.32615697,0.48993233,0.10438462,-0.38319000000000003,-0.46062264,0.2982715,0.34313637,0.14576729,-0.39045528,-0.2522618,0.28622097,-0.0832559,-0.33831874,0.26480243,-0.629833,0.5308435,-0.24882337,-0.14504729,0.029840099,0.39196044,0.5844259,0.3577685,0.0275457,0.14831994,0.15148671,0.18266438,-0.19921492,0.14994307,0.39991716,-0.47159436,0.009002928,0.13828063,0.117252454,0.15676643,-0.20652877,-0.5797514,-0.31124574,0.1958901,-0.44929168,0.53801805,-0.25027984,0.52315545,0.42442223,-0.84651494,-0.9633552,0.39930624,-0.056002427,-0.60893273,-0.10597777,0.43069129999999994,-0.2626653,-0.3925171,-0.02149649,0.006063894,0.2672692,-0.038036622,0.3417631,-0.07422193,0.12762746,0.17553528,-0.05044969999999999,-0.40872696,0.1973993,-0.06632267,0.29349133,-0.013574226000000002,0.29122207,0.75802374,-0.35740918,0.7862204,0.23380323,-0.11756448,0.39847922,0.07238354,-0.36995384,0.3876945,0.14018159,0.17633414,0.40034848,0.15283229999999998,-0.16268201,-0.086812444,-0.29134926,-0.8258042,-0.104347594,0.49816382,0.18273015,-0.017102445,-0.08007039,0.033451043,0.49536875,-0.4915317,0.40085745,0.32959735,-0.35304248,0.21197824,-0.079326384,0.40692455,0.018616043,-0.26522340000000005,0.6991052,-0.16887209,-0.24154940000000003,-0.33325797,-0.16723147,-0.40719375,-0.13655008,-0.18149582,-0.004562401,-0.28312847,0.03956130000000001,0.12471375,0.36240690000000003,0.34416148,-0.3280491,-0.08154133
MAPK1,-0.16830806,0.30102104,0.18219137,0.43588424,0.22565056,-0.27720883,0.000253147,0.2917795,0.33919123,0.17974992,-0.15131077,-0.20282498,0.16201976,-0.21495554,0.25195372,-0.19432396,0.017061878,-0.09977475,0.20944506,0.10537258,0.19636732,-0.82439035,0.36605468,0.6073361999999999,0.3376485,0.028559595,-0.57828367,-0.03592794,-0.2539187,-0.59970546,0.24646355,-0.024218174,-0.40973863,0.36502075,-0.40071765,0.23033065,0.029381245,0.4731119000000001,-0.009350064,0.04273381,-0.26415062,-0.26280874,0.5521768,-0.24185535,-0.3301657,0.39383975,-0.37110797,-0.39629218,0.022377478,-0.29739276,-0.58785486,-0.46377516,0.17605703,-0.18244384,0.48984120000000003,-0.14820938,0.52179664,-0.26407418,0.5647316,-0.10121042,0.65618694,-0.37111613,0.15244108,-0.6404345,0.08999546,0.07357994,0.41788334,0.04539768,0.17098606,0.09725163,0.62051433,-0.24960442,-0.051200148,0.257344,0.020595431,-0.14080127,0.280602,-0.14064110000000002,0.49509373,-0.1776116,0.6713821999999999,-0.27609652,-0.12380656,0.21490426,0.003592143,0.4908624,0.093719974,0.16305381,-0.07340819999999999,-0.27177766,0.22694086,-0.6449165,-0.077310175,0.36433223,-0.44349307,0.15071199999999998,0.010704413999999999,-0.36786777,0.08388146,-0.11657775,-0.08022585,-0.37007093,-0.32018209999999997,-0.7551055,-0.22576858,0.0567491,0.29527393,-0.10192516,0.40326393,0.53998286,0.38057128,-0.43113402,0.09828629,-0.42481193,-0.25242326,-0.20282637,0.32466143,0.15677716,0.09862719,-0.34990582,0.06956327,-0.5284129,0.041164435,0.19935611,-0.16962972,0.053540327,-0.23144920000000002,-0.8498945
SVOP,0.13529960000000002,0.4058562,0.43006337,-0.6651195,0.43609077,-0.01847417,-0.10985838,-0.6450786999999999,-0.009863849000000001,-0.31045437,-0.25528178,0.36312687,0.03729593,0.3330008,0.39724149999999997,-0.45946637,-0.46408445,0.16088563,0.7699003000000001,0.8581245999999999,-0.40450487,0.24689147,0.59409785,0.04918313,-0.5297295999999999,-0.14309533,-0.8904219000000001,-0.18956079,-0.7006526,-0.00571907,0.22891529,0.34737638,-0.074420765,0.019262,-0.24922381,0.5128035,0.0822068,0.02681999,-0.39050743,-0.54499274,0.018402599,-0.07668646,0.34126264,-0.8515982,0.13085525,-0.372796,0.1873098,-0.35215014,0.20867491,-0.4232385,-0.39121443,0.0069911669999999995,0.090158686,0.12456980000000001,0.19161081,0.374994,0.34531596,0.10957399,0.10951919,0.36593515,-0.065284505,0.9890040000000001,-0.37283558,-0.56723404,0.10977424,0.27185002,-0.32548059999999995,0.014371888999999999,0.2555922,-0.3935979,0.15863,-0.18430660000000001,-0.03483934,0.46316013,0.79117066,-0.28998864,-0.37657344,-0.72427773,0.65718895,0.23864642,-0.17443813,-0.26939508,0.120995015,0.433875,0.05947489,-0.6052259,-0.23509254,0.524475,0.28149566,0.24112470000000003,0.38659957,-0.27453274,0.001232938,-0.07522978,0.47228196,-0.09825796,0.14339027,-0.5336988,-0.5655315,0.41858852,-0.30390978,-0.2459685,-0.17924243,-0.40981418,0.40604234,0.87381285,0.2857356,-0.15724409,-0.10495047,-0.11002497,1.0461322,0.10710752,0.06255638,0.15290771,-0.13077360000000002,-0.22405227,-0.93256265,0.065811545,0.12297234,-0.3575859,-0.0582515,0.09459026,-0.28514245,-0.18793564,0.22217058,-0.18598801,0.10757815,0.565823
CDKN1B,-0.7100398,0.19631106,-0.16005717,-0.038940854,-0.13154106,-0.13724713,0.26616195,0.69342965,-0.02980104,-0.732186,-0.53925914,-0.36182103,0.23939072,0.34473982,-0.15698057,-0.5782149000000001,-0.13441476,0.056830537,0.45740770000000003,0.09047566,0.16233738,-0.35874537,0.652569,0.3083502,0.23145700000000002,0.15584014,-0.26537013,0.26854607,0.01649979,-0.3011611,0.12334235,0.10790641,-0.10555527,0.33238295,0.25876403,-0.20109919,0.16538951,-0.02025872,-0.492252,0.15973395,-0.2988044,0.049900472,0.41300749999999997,0.6324417,-0.18130417,-0.24839035,-0.24562941,0.31291318,-0.30188537,0.07961014,-0.46671999,-0.40167108,0.83423483,0.168318,0.053258408,0.16061787,0.12879229,-0.056631195999999995,-0.04943826,0.08650406,-0.11643484,0.07664597,-0.16790679,-0.17147158,0.09467539,-0.14384039,0.19357923,-0.24481322,-0.149851,-0.18153337,0.5173962999999999,0.41700858,0.05136544,-0.6682244,-0.15855804,-0.16525681,0.21476962,-0.22675285,0.54305446,0.29176617,-0.12595178,0.030953746,-0.2585352,0.21106218,-0.6710088000000001,-0.08522262,0.37761992,-0.28567964,-0.08861846,-0.12228163,0.10984401,-0.32217140000000005,-0.15258613,0.020491317,-0.009509306,0.16358873,-0.19754976,-0.5153938,-0.31052595,-0.15500285,-0.16618043,0.05325094599999999,0.75737137,0.24230242,0.27854487,-0.01810806,0.23835938,0.28728902,0.06798259,0.1481981,0.1874567,-0.45700192,0.006859844,0.24146257,0.040911763999999996,-0.29549109999999995,0.05906726,-0.74094427,0.025896091,-0.5516981,0.026219921,-0.052035235,-0.2406689,0.3904696,-0.2627831,0.27658272,-0.1432146,-0.083569385
PAQR5,-0.03201613,0.47389996,0.24562609,0.28521574,-0.7195194,0.261548,-0.15096577,-0.0453973,0.54001915,0.36943390000000004,-0.004483392,0.02897598,0.31094533,0.28771886,0.35968223,0.023590041000000003,0.25810987,0.3055354,0.690976,-0.030361352,-0.12466075,-0.4087116,0.2343097,0.37865043,-0.564288,-0.20665583,0.1421039,-0.88599855,0.38159114,-0.2241723,0.48256895,0.37104923,0.3173333,0.22972979,-0.33145705,0.06167257,0.43964005,0.12967135,-0.017256504,0.28141987,1.0186992,-0.5109710999999999,-0.20470752,-0.47847712,0.49112868,0.10396554,0.4838157,0.43887392,-0.25606662,-0.098210104,-0.22312133,0.350088,0.12647009,0.6435470999999999,0.44702655,0.004265809000000001,-0.26109672,-0.8651949000000001,-0.17389894,-0.27552694,0.28221777,0.7582804,-0.049854904000000005,0.003624998,0.15951563,-0.27529243,0.1704621,0.20022395,0.670244,0.028815068,0.24237393,0.4159702,-0.3498142,0.4563447,0.4301692,-0.7225825,-0.15871960000000002,-0.33409807,0.31335992,-0.07397669,0.28480079999999997,0.07955741,-0.42643368,0.6943425999999999,-0.18079558,0.19997334,0.40031326,0.90550315,-0.35308117,0.36814523,0.55433416,-0.06491797,0.022176275,0.21074533,0.27637553,-0.58611196,0.3523292,-0.34136320000000003,0.22229773,-0.43643519999999997,-0.08561197,0.6679467,0.18149109,-0.47667354,-0.003999836,-0.16875333,-0.68112457,-0.0521304,-0.16899660000000002,-0.6473876000000001,0.3706268,-0.029579649,-0.078090265,-0.01042304,-0.8871823,0.29063314,-0.08296132,0.09537072,-0.03352856,0.20530273,0.027414032999999997,-0.5124217000000001,0.002593728,-0.7280072,0.34704056,-0.6085231,-0.38106102,0.23332748
FOXK1,-0.80809045,-0.053437742999999996,-0.02932662,0.36936924,-0.21535537,-0.17423055,0.058710273,0.5304629,0.221217,-0.056389004000000006,-0.6756837,0.5920671,-0.21253884,0.175734,0.38640928,-0.77203876,0.7359835,-0.08581496,0.24371032,-0.06072459400000001,0.25226158,-0.35620996,0.20812565,0.30526847,0.33657014,-0.6013586999999999,-0.07717539999999999,-0.047003555999999995,-0.46018675,-0.2608971,0.1723579,0.38923764,0.025198533999999998,-0.19579822,-0.16939265,-0.16347846,0.9056556,0.037217956,-0.6554253999999999,0.6360856,0.45364532,0.3623372,0.07557975,0.41686603,-0.05590784,0.49010990000000004,0.012526272,0.17845424,0.87256044,0.7210813,-0.0520415,-0.2515771,0.5824419,-0.05040473,-0.27327140000000005,-0.29168552,-0.16961338,-0.4523359,-0.7516338,-0.09568339599999999,0.40212232,-0.36996353,0.15024433,-0.089151375,0.118739955,0.21368489,-0.028914366,-0.49679077,0.26858062,-0.32538059999999996,0.59307307,-0.34884977,-0.07008858,0.42452356,-0.08767282,-0.42682272,-0.43311316,0.11235282,0.12506928,0.332757,-0.08029526,-0.07437341,-0.19662264,-0.01915254,-0.20574863,-0.33353046,0.014252315,-0.30932350000000003,-0.29745679999999997,0.41554612,0.32768667,-0.16867307,-0.16515334,-0.54830843,-0.098533556,-0.16989014,0.01712596,0.16386653,0.16400473,-0.3476607,-0.29710475,0.37310693,0.025902795,0.40740144,0.17696166,0.18373649,-0.024971227999999998,0.29453418,0.6530544,-0.23543632,0.01402604,0.38535820000000004,0.34372562,0.12387331,0.12581204,-0.14399351,-0.10622955,0.24229194,0.40349767,-0.07443869,-0.27421057,0.12595206,-0.2323939,0.25957972,-0.20976889,-0.26350635,-0.24049295,0.4257117
FEM1A,-0.22123955,0.43474746,-0.084665984,-0.20143265,-0.38342709999999997,-0.06782823,0.07626105,0.6844636,-0.41400707,-0.1931818,-0.74942726,-0.19272213,0.15219484,-0.10940809,-0.46643096,-0.18385881,-0.21422897,0.06804407,0.489044,0.55967325,-0.17619814,-0.8765684000000001,-0.09426223,-0.4345791,0.055880955999999996,0.17959327,-0.1316816,-0.08543702,0.010538883999999998,-0.05119143,0.18557039,0.4498811,-0.5563802,-0.088798195,0.06315311,-0.24793811,0.66467005,0.5035502000000001,0.19495878,-0.18624687,0.63301563,-0.11210722,0.40848670000000004,0.09710381,0.23719179999999995,0.4690706,-0.012697634,-0.36973518,0.18057907,0.13810736,0.23914853,0.3332704,-0.13218123,0.22321437,0.58488727,-0.1787121,0.082392335,0.2090264,0.24848983,0.12987871,-0.28811294,0.60353976,-0.21441945,0.07489091,0.29494247,0.2616075,-0.12244952,0.26888156,0.115831725,-0.29579859999999997,0.42730963,0.16238774,0.059423237999999996,-0.047166567,-0.14733991,-0.34680572,0.6035537,-0.40475762,0.19723769,0.30975622,0.15271029,-0.040592622,-0.14604649,0.11238971,0.4713378,-0.1427099,0.1269181,0.30937192,-0.17312458,0.22839949999999998,0.28915638,-0.8490768,-0.18447486,-0.40044346,0.04723845,-0.08728986,-0.2774545,-0.20048805,0.3927013,0.47377798,-0.22484083,0.46035615,0.33855966,0.09104845,0.26126766,0.27777365,0.21037357,0.20383519,0.30203786,-0.05224934,0.4269495,-0.27498704,0.029814482000000003,-0.028847712999999997,-0.0988093,-0.8182164000000001,-0.041394337999999996,0.17533869,0.044242065,-0.6905445,-0.19308564,-0.4592567,0.5554878000000001,0.2249054,0.5709618000000001,-0.3844959,-0.022253633,0.2779163
FZD6,0.20742129999999998,-0.14183338,0.1535356,0.7718255999999999,-0.34351707,0.24217553,0.27742073,-0.14640866,-0.3366922,0.65232986,0.24116267,-0.01838225,0.030722842,0.119788215,0.3265287,-0.27558562,-0.09079891,0.24263261,0.2463627,-0.14327598,0.171985,-0.19052787,-0.15930288,0.26942006,-0.33280122,0.36443156,-0.1402682,-0.60023475,-0.21459486,0.006269899000000001,0.05448597,0.4437781,-0.1049896,0.26563020000000004,-0.043504324000000004,-0.31229222,0.5583365,-0.058014177,0.72895813,0.4662928,-0.15337402,-0.25757933,0.51360136,0.013934883,0.0648126,0.10998065,0.29596418,-0.22546062,-0.024535477000000003,-0.31115556,0.16506162,0.10808279999999999,0.48111945,0.42173663,-0.06261503,0.30954036,0.40272674,-0.019563538999999998,0.09526083,-0.3625389,0.19683112,0.044480342,0.12178337,-0.30029652,0.08260539,-0.5498723000000001,0.30819216,0.09899784,-0.11798692,0.4583505,0.6035176999999999,0.30855504,-0.5476222,-0.11264156,0.5412085,-0.5266158000000001,0.20195627,-0.19699664,0.29029533,-0.13628925,-0.28161308,-0.15964338,0.056231737000000004,0.34670797,0.07519753,-0.11536464,0.21847649,0.65073234,-0.2953437,-0.18473312,0.20350008,-0.6849168999999999,-0.378783,-0.36559245,0.451824,-0.5940926,0.52769166,0.13406548,0.10221366,0.092688665,0.389935,1.047173,0.06173246,-0.008743987,0.069081575,-0.35243958,-0.45269325,0.6129876999999999,0.29201445,-0.08961788,0.6763103,-0.55250716,0.31144659999999996,0.09511575,-0.3943534,-0.2237513,0.09051078,0.89733607,0.056717757,-0.16499963,0.26295263,-0.30485073,0.21114187,-0.40126348,0.20994915,0.000786695,-0.41417208,0.56726515
MKNK2,0.04535165,0.4394153,0.16836293,0.08206775,0.29419422,0.15761937,0.13032196,0.007907679,-0.3938078,0.29451662,-0.22473335,-0.14746422,-0.07529526,0.373567,0.18441646,-0.37023473,0.031790722,0.16496842,0.08570689,0.25616664,-0.24446635,-0.07300547,0.6208741999999999,0.6073321,-0.24340735,-0.7984585999999999,0.21191669,-0.032211166,-0.39611349,-0.7007073,-0.15480164,-0.1773596,0.15013583,-0.015711001999999998,-0.4061671,-0.36357355,0.30368027,0.23130248,-0.8822515,0.28989854,-0.2927,-0.042644337000000004,0.093698956,0.1911999,0.08202135599999999,0.028595062,-0.14267524,0.10568128,0.26467505,0.08904839,-0.67419183,0.5016605,0.067881905,0.02409498,0.26406318,-0.2876007,-0.45611468,-0.42193735,-0.5003581,-0.1939585,-0.16273274,-0.17159611,-0.7340205,-0.6457294,-0.35526162,0.07820122,-0.04972021,0.011302959,0.16940424,-0.15180203,0.4350715,-0.22409429999999997,0.16622482,0.20514055,-0.24027383,0.11654182,0.25934738,-0.712429,0.47319958,0.20028296,0.12658878,0.4212049,0.14153004,-0.25265002,0.37116742,0.22856185,-0.31065652,-0.034410056,-0.028120602,0.33438936,-0.13138092,-0.8216062,0.28629652,-0.034237622999999995,-0.16580188,-0.24469578,0.078547865,-0.20722769,-0.33160084,-0.60014087,-0.109517045,-0.47515357,0.44169894,-0.22997874,0.24739450000000002,0.21964727,0.20661192,-0.28323826,0.51169693,0.1335442,0.34681416,-0.14260808,0.015015825,-0.14005166,-0.00205714,-0.06551787,0.25528365,-0.044258505,-0.4630585,-0.08385253,-0.38350958,-0.14719465,0.54158616,-0.46820897,0.009453263,-0.07643385,-0.3743194,-0.17640682
TNRC6A,-0.042673945,0.835828,-0.1253078,0.70435643,0.27115813,-0.18680154,0.4857106,0.38749057,0.44322395,-0.14008226,-0.45722613,-0.49660614,-0.056634314000000005,-0.030704536,-0.28798825,-0.021074831000000002,-0.049744163,0.10596749999999999,-0.29367578,0.3564074,0.06781649599999999,-0.56995356,0.60715735,0.04706669,0.34384328,-0.7503340999999999,0.046108276,-0.8600866,-1.0079467,0.094448246,-0.123294346,-0.110029116,-0.18274371,0.5753388,-0.17716084,0.111062706,-0.27175343,-0.07372719999999999,-0.73232895,-0.18366304,0.46649674,0.2532974,0.13845406,-0.11694052,0.13195676,0.36703175,-0.0659758,-0.25537276,-0.29468587,-0.08909498,0.09300556,-0.26861563,0.5528368,0.473837,0.25064301,0.1281115,-0.016336418999999998,0.14148131,0.19774976,0.62572473,-0.30933452,-0.20563973,-0.31122273,-0.45739300000000005,0.05792124,-0.24599947,-0.56405234,0.06753854,0.32090583,-0.0020887839999999998,0.49421537,0.114799716,-0.08269829,0.01658044,-0.04115258,-0.6751281,0.20921068,-0.31881479999999995,-0.6375562,0.2854089,0.30582786,-0.28836462,0.31607179999999996,-0.18432309,-0.20543253,-0.30668979999999996,0.32148516,0.15683931,0.061735000000000005,0.32021856,0.14647737,-0.24114859,-0.1813038,0.3563442,-0.26564303,0.16818516,0.41871762,0.29405463,0.13980868,-0.24411227,0.45722806,0.21673119,0.5502611999999999,0.004785845,0.45937434,0.7983022,-0.6731696999999999,0.71931547,0.015285719,0.17644647,-0.0017737279999999998,0.2931567,0.12341295,0.36423436,0.45930457,-0.10089398,-0.11026382400000001,0.76601887,-0.13719529,0.6830056,-0.47862464,-0.45491990000000004,-0.061541658,-0.22202548,0.12824856,0.06963695,-0.46683916,-0.2097241
BZW1,-0.21244556,0.85899323,-0.39307470000000005,0.68370277,0.37911937,-0.44947636,-0.08089788,-0.32726333,0.03712905,-0.50245196,0.3306355,-0.10495915,-0.52855265,0.011320843999999998,0.1302357,0.29696596,0.0818264,-0.108531415,-0.25317708,-0.12574433,-0.22375634,-0.18575276,0.42534750000000004,0.09321046,-0.16882941,0.14623742,-0.57547164,0.08641811,-0.330776,-1.0385247,0.065499015,0.5727014,0.20141204,-0.066229545,0.08576862,0.032204843999999996,-0.03765452,0.24699599,0.20594226,0.20092689,-0.11517368,-0.10567689,-0.31485584,0.015315073,0.10155452,0.5791666,-0.29729736,-0.22330806,0.51230377,0.25992423,-0.23622037,-0.22370614,0.034971643,0.103375256,-0.3202468,0.050232242999999996,-0.780173,-0.22657475,0.63067454,-0.40958047,0.26268402,0.058880713,-0.10572933400000001,-0.20717473,-0.03255774,0.19369029,-0.15350732,-0.4398545,0.11218147,-0.46916997,0.6754215,-0.35931677,-0.5495374,0.6181946,-0.20215650000000002,0.021512095,0.37800667,0.26417384,0.17942037,0.36673429999999996,0.016263045,-0.05656623,0.22568737,0.019716088,-0.5363357,-0.36041442,0.21623008,0.14296935,-0.12074496,0.08090902,-0.3427565,-0.07026329,0.035545513,-0.11345755,-0.23170011,-0.09350919,0.032933254,0.31987756,0.24357535,-0.3717561,0.28300115,0.7066495,0.40553284,-0.03336856,0.06304503,-0.11266620000000001,-0.20267849,-0.44586099999999995,0.37265396,-0.8074435999999999,0.61259454,-0.18661584,0.18579873,-0.37909845,-0.48324466,-0.35713834,0.44438055,-0.14966117,0.49576074,0.32483345,0.10919472599999999,0.40760803,0.002732746,0.33748016,-0.23732726,0.018571663999999998,-0.026826363,0.27221125
MDM2,-0.21813042,0.64181453,0.43007722,0.61121213,-0.080761865,-0.3529923,0.61399484,0.084180884,-0.13549228,0.5678491,-0.13615336,-0.42474777,-0.18961886,0.13445182,0.29819520000000005,-0.32687163,-0.36999393,0.5104787000000001,0.040519938,0.5319326999999999,-0.26230666,0.13308986,0.44130054,0.27692327,0.15279204,-0.33715668,-0.5737416,0.20422499,-0.40771592,-0.24325077,0.046794184,0.45180362,0.23874627,0.41784346,0.24852283,0.024679568,0.18371631,0.2198054,0.17735235,-0.22595048,0.52733546,0.108412564,0.19355297,0.1601486,0.37945306,0.25110546,-0.53181314,-0.16825904,0.2369665,0.21926188,-0.29094640000000005,-0.31636092,-0.11061320000000001,-0.31143309999999996,0.22627191,-0.20435858,-0.39039050000000003,-0.16314451,-0.11689214,0.08070256599999999,0.10988874,-0.354476,0.16142994,0.30839017,-0.12200342,-0.049192023,0.48902836,0.0016286179999999999,-0.041338,0.45574638,0.14949706,-0.49698168,-0.4786433,0.4820349,-0.47089818,-0.039908905,0.21259718,0.17675538,0.41554004,0.16728723,0.12592474,-0.19177371,-0.09705474,-0.21109647,0.13749094,-0.17022663,0.15075475,0.23104604,0.107003406,-0.15297338,-0.028329688999999998,0.15968552,0.4807416,-0.0451874,-0.22805072,0.541296,-0.25362337,-0.7210273,0.21384099999999998,-0.18930049,0.00496101,0.019333892,0.5510233,-0.32203275,-0.2940062,-0.044962946,-0.22568434,0.008705735,0.37461007,-0.14903115,0.16522162,-0.1944525,0.08164175,-0.03323651,0.36458465,-0.10841129,0.16039847,0.56514955,-0.15040147,-0.33599237,-0.30562356,0.86413115,0.5915159000000001,0.11998610000000001,-0.2566121,-0.247177,-0.11291572,-0.23099083
NFIC,-0.018774103,-0.04309664,0.17952949,0.68485117,-0.18113800000000002,-0.1360218,-0.006628396999999999,0.37363902,0.07594086,0.13093813,0.24037823,-0.39264187,0.32883856,-0.45654428,-0.053499202999999995,-0.59073126,0.52529407,0.8345428,0.40463653,0.16276218,0.43570822,-0.1916255,-0.43540790000000007,-0.034955718,-0.43553329999999996,-0.1992621,-0.66201615,-0.31755787,-0.049927264000000006,-0.058804598,-0.027767572999999997,0.49073464,-0.73061293,-0.08805694,-0.36590785,-0.37200692,0.18258829999999998,-0.057983756,-0.031604014,0.009058181,-0.7649334,0.46286386,0.12258969,-0.16201894,0.25339112,0.16882181,-0.010434246,-0.33826342,0.020397265,-0.063569315,-0.08549878,0.56177,0.45817890000000006,0.15290338,0.49754667,-0.48677295,-0.50706506,0.38692188,0.31333049999999996,0.30261388,-0.045022883,0.1379217,-0.13021497,0.13491227,-0.27185377,-0.26828653,0.54662836,-0.056398502999999996,0.55615646,-0.94502497,-0.16465501,-0.42613247,-0.3482913,-0.39282656,-0.2113779,-0.061674554000000006,-0.9732953000000001,0.09366047400000001,0.20255701,-0.5282294,-0.15032735,-0.10747611,0.32253498,0.6766966,0.3010583,0.14881977,-0.48318034,0.28977990000000003,-0.26779848,-0.027914029,-0.22503228,-0.28003725,-0.018884592,-0.23386115,-0.37709722,-0.49958279999999994,0.007411468,-0.004045867,-0.10075066,0.72281075,-0.49715770000000004,-0.09398445,-0.19712695,-0.014222331000000001,0.5624874,-0.042470377000000004,-0.43023494,0.44371772,0.37087172,-0.30460740000000003,0.536241,0.09826551,0.16679952,-0.06958433,-0.21388014,0.5075095000000001,0.10665591,-0.09530411,0.058104212999999995,-0.6085866,-0.08447199,-0.053237,0.30123195,0.22456786,0.64519346,0.31455272,0.13217168,0.0714803
YWHAE,-0.22654837,0.16549444,0.03409101,0.08615336,-0.118539006,-0.5573108,-0.7491993,0.096092455,0.19415909,0.37019327,-0.6837803000000001,0.059808615999999995,-0.08354631,0.021838764,0.15616274,-0.18753576,-0.49194115,-0.45158437,0.06071305,-0.27008575,-0.054670147999999995,-0.18552427,0.32649153,0.41346514,0.80984205,0.40003288,-0.0935301,-0.29656973,0.39210486,-0.4353652,-0.057131056,0.19092618,0.07283223,0.6458794,0.32717794,-0.1578743,0.16632323,0.035548,-0.2266386,-0.3566052,0.1810136,-0.33181268,0.8933760000000001,0.39545557,-0.055743404,0.18227261,0.08712341,0.26841262,0.1955841,-0.25548267,0.24708058,0.23354912,0.10827818,0.31142509999999995,-0.10862154,-0.18549147,0.013839012,-0.38026634,0.48069376,0.65442413,0.22926757,0.18236326,0.111215204,-0.57463425,-0.39182898,-0.15118273,0.26311904,0.08640727,-0.12054445,0.32502824,0.31298304,-0.032711875,-0.48998827,-0.59059477,0.14419636,-0.54795545,-0.005166717,-0.43797705,-0.012951242,0.674049,-0.18104401,-0.08215954,-0.31543055,0.23968706,-0.057238437,-0.26669177,0.3068764,-0.1307411,-0.16396652,-0.13627057,0.29568902,-0.12449406,-0.7128505,0.098264374,-0.062529214,0.45864978,0.0492768,-0.35219303,0.06966339999999999,0.1568244,0.10463755599999999,0.20183188,0.21848899,-0.21205983,0.41937658,0.010679391000000002,-0.01631419,0.10464978,-0.12441968,-0.055492453,-0.12364323,-0.030310793,-0.31264952,0.18312849,-0.24203026,-0.18342066,0.19848774,-0.14100806,-0.27838445,-0.7700701999999999,-0.74297905,-0.25811717,0.24880978,0.21340331,-0.15275046,-0.09409466400000001,-0.10057434400000001,0.28204650000000003
LDLR,-0.09862961599999999,-0.088120855,-0.23112539999999998,0.083594024,0.093931645,0.11075328,-0.41740382,0.52098924,-0.3758068,0.47527987,-0.47991246,-0.2658247,-0.20645231,-0.044565342,0.15498157,0.32613020000000004,-0.5428754,-0.16470452,0.2220721,0.5360464,-0.47397432,0.101125464,0.07039678,0.6311783000000001,0.1566065,-0.10320088,-0.6017603,-0.78749734,-0.3420239,-0.081137,-0.22926265,0.42724696,0.25761232,0.4734859,0.21881406,0.007411063000000001,0.34779835,0.3351952,-0.09604585,0.08965178,-0.21039360000000001,0.06810171,0.28678057,0.50052667,0.05783144,-0.17165652,-0.87233514,0.25604615,0.42043513,-0.12802413,0.013608978999999998,0.024945582999999997,-0.38057357,0.074090615,-0.10405997,-0.40842074,0.65601695,-0.36415267,-0.3464285,0.32375178,0.20271228,-0.104405254,-0.36426014,-0.67650485,0.46376055,-0.07004990400000001,0.03775519,-0.15071288,-0.5460316,0.4877263,-0.21848392,0.15855776,-0.34045216,0.020100659,-0.31310767,-0.19485207,0.117046,0.031946514,0.34695747,-0.2805249,0.13884082,0.85031533,0.025215626,0.22955108,0.18346944,-0.050557565,0.15965639999999998,0.63972944,-0.005040794,0.08044654,0.3909838,-0.07860303,-0.005266153000000001,-0.33938596,0.08263119,-0.039071567,-0.38406286,0.13935247,-0.1234142,-0.024147152999999998,-0.067152485,0.29705733,0.13082622,-0.094065234,0.31619892,0.46335173,0.08181857,-0.08882967,0.11993194,-0.12424271,-0.001622079,-0.33038402,-0.17939025,0.167409,0.10665038,-0.17761068,0.08282984,0.5917707,0.1414975,0.10722219,-0.37399486,0.27197516,0.6620499,-0.2840884,-0.48762167,-0.040585384,-0.21016198,0.3179382
CDK6,-0.4463269,0.45086172,-0.49866992,0.078197,0.5237777,0.34484434,-0.11600662,-0.085051276,-0.32779655,-0.107676424,0.39220370000000004,-0.14501525,0.43157238,-0.016158465,0.5209823,-0.4767995,0.45767444,0.37921017,0.30455393,0.11636493,0.31380752,-0.17932516,0.01677597,0.5509943,0.40111765,0.11319158,-0.2978635,0.27087197,0.40089568,0.20574369,0.6165538,0.28991365,0.2677849,0.5700949000000001,-0.059012804,0.20876102,0.71937495,0.8247779000000001,-0.5044252,-0.57597643,-0.33237740000000005,0.061726842000000004,0.14519177,0.24440467,0.082529575,-0.6434204000000001,0.19560029,-0.06786948,0.10979727,-0.40373957,0.16115727,-0.12970114,0.3518088,0.41302267,-0.14918037,0.36218286,-0.22905861,0.039627723,-0.20568757,-0.06379898,-0.1184998,0.24712384,-0.31012854,0.048243035,-0.6501955,0.22128879999999998,0.07960866400000001,0.4921353,-0.08978711,-0.27554378,0.7364214,-0.21099317,-0.46146825,-0.3677747,0.26781806,-0.5877814,-0.17098112,-0.5680034,0.085457325,-0.5203651,-0.25070125,-0.16169702,0.27826607,-0.5324033,-0.027277762,0.016331451,0.00877245,0.23346174,-0.028835759,0.50970846,0.40709147,-0.31418788,-0.25223297,0.08232552,-0.04838972,-0.59751916,0.030925317,-0.08073295,-0.007036284,0.01586133,-0.15412961,0.15690245,0.18286787,-0.46671426,-0.24173473,0.09969172,0.06460992,0.7311034000000001,0.2900009,0.258845,0.08701065,0.13562593,0.87814474,0.05768803,-0.51854235,0.07207784,-0.3219902,-0.022700737999999998,0.22012284,-0.12581833,-0.4659210999999999,0.03578878,0.14648053,0.24500509,0.6846795,-0.27648038,0.055294335,-0.2087807
PTEN,0.14931096,0.14461578,-0.2745507,-0.49049449999999994,-0.44511524,0.02018335,-0.5030359000000001,0.34914353,0.39630255,0.32447097,0.059160717,-0.33241507,-0.025586775,-0.14059079,0.042901285,0.26009652,-0.010567068,0.07106513,0.09810756,0.41825092,0.23654263,-0.8074085,0.694782,0.67314583,0.2949506,0.021779915,-0.091335975,-0.53008074,0.0920117,0.27696190000000004,0.20707756,-0.16852826,0.39278203,0.15854529,0.006399089,0.06901301,0.5656493,0.17060442,-0.6234683000000001,-0.046682025999999995,0.14439200000000002,0.11842257,0.25094712,0.09132034,-0.0639909,0.11176295,0.14015785,-0.103163086,0.000597544,-0.34613317,-0.34167007,0.29916692,0.31895694,0.061427182999999996,0.065386,0.4345782,-0.6338646,0.09943261,-0.22565657,-0.50845283,0.5331469,-0.9773466000000001,-0.25922766,-0.061734582999999996,0.001385144,-0.13146351,0.113331474,-0.0385441,-0.34356913,-0.23251574,0.07057684,-0.01604995,-0.13442554,-0.004083445,-0.58642036,-0.5203523,0.52654827,0.028891444,0.04414816,0.33304757,-0.24083231,0.24013601,-0.00518212,0.2479516,-0.19593415,-0.24169105,0.32567057,-0.21879171,0.006650476999999999,-0.13859853,-0.19058399,-0.34212685,-0.000146343,-0.56863034,0.19639748,-0.34488726,-0.031614285,0.13173829999999997,-0.5856093000000001,-0.22739483,0.06726108,0.39020726,0.48761395,0.14311692,0.03623581,0.41425294,-0.11275710000000001,0.18980823,0.08966189599999999,-0.067688644,0.04839472,-0.021383904,0.20864877,0.18483466,-0.21379778,0.002807548,0.52029395,-0.19611688,-0.5912204000000001,-0.14457516,0.42651588,0.24015570000000003,0.13428374,-0.031554922,0.33944485,-0.0036601690000000004,-0.17049617,-0.14203797
BCL2L11,-0.14195676,0.05329466,0.10917523,0.38684398,0.11998165400000001,0.21886969,0.08503805,-0.49231914,-0.23254071,0.47397979999999995,-0.35374165,0.040008195,-0.22261459,0.16938123,0.25746292,-0.30652183,-0.1222941,-0.0324147,-0.19162779,-0.36154798,-0.08506899,0.28832640000000004,-0.21482849999999998,0.2295529,-0.19598676,-0.2796796,-0.31087452,0.27776465,-0.14473982,-0.0072957809999999994,0.23058774,-0.6352174,-0.37886852,-0.45386273,0.20118898,-0.25583893,-0.032753512,0.077345796,-0.30288637,0.11562463,-0.111471385,-0.22918423,-0.018814116999999998,-0.041129038,-0.02062962,0.6926238,0.37114775,-0.4094561,0.030674133,0.17446062,0.14313741,0.5057548,0.5004898,0.39466540000000006,0.07792893,0.22572646,0.11019379,0.034830134,-0.01145226,0.22485815,0.05091971,0.54667395,-0.7958843000000001,0.14691323,0.36806659999999997,-0.07422743,-0.16360027,-0.060212314,0.3286678,-0.13753782,0.6206471,0.13924617,-0.7625659,0.11747186,0.46196413,-0.15189973,-0.040858656,-0.24548385,0.84123445,-0.069777936,0.17437546,-0.37482142,0.3865025,-0.15278809,-0.6342627,0.27653643,-0.29811817,0.26039457,-0.41792557,0.66616607,0.46945020000000004,0.33967129999999995,-0.14819078,-0.2593006,0.2752144,-0.106189825,0.46270815,-0.48261973,0.47988564,-0.22375569,0.5227278000000001,-0.33954984,0.13805962,-0.3754136,0.042710528,0.50270784,-0.24820106,-0.055971697,0.5286901999999999,-0.14402843,-0.28732923,0.13356248,0.30807779999999996,0.19769479999999998,0.21271937,-0.5247189,-0.13494276,0.05671926,-0.05492294,-0.6238146,-0.74688655,-0.07803111,0.2521712,0.18088607,-0.24839506,0.22570749999999998,-0.28684464,0.19102149999999998
AKAP11,-0.27352682,0.036421876,-0.09941149,0.39153382,0.43634275,-0.19804324,0.10613472,0.011598787,0.12188556,-0.575282,-0.3116708,-0.019327898,0.056628577,0.1482205,0.1649569,-0.59018296,0.024822867999999998,0.5675151999999999,-0.1826296,0.58435524,0.35689527,0.33430865,0.20123224,-0.11444975,0.43768100000000004,0.28565753,-0.62324214,-0.27976683,-0.27699429999999997,-0.759656,0.13125291,0.3362333,0.62916887,0.319442,0.0897705,-0.023776848,0.49254513,0.064617105,-0.30433282,-0.6112785,-0.042427785999999995,-0.27924990000000005,0.3820435,-0.07247042,-0.20276402,-0.09852039,0.11122217,-0.05727938,-0.21996637,0.3406595,-0.25942600000000005,0.24241577,-0.13914669,-0.06388014,0.15542926,-0.24311782,-0.2981573,0.049942035,-0.14714549999999998,0.143174,0.4804318,0.14166422,0.13286117,0.29489386,0.23908043,-0.03562229,-0.41086709999999993,-0.004457527,0.041172355,0.026965702,0.05517606,-0.10815379,-0.45509312,-0.60745245,-0.05406518,-0.6857231,-0.03749608,-0.49268714,0.45882156,-0.19988129,0.109084345,0.4581959,-0.09769089,0.051611304000000004,-0.1804356,-0.022693342999999998,0.41269612,0.39569107,-0.14006078,-0.41055664,0.13666195,0.06813945,-0.13887955,0.24464633,0.15000436,0.15145665,-0.12159038,-0.29280335,0.37335905,-0.15356326,0.12499214,0.14079282,0.46611372,0.03705363,0.7269894,0.16389811,0.39778325,-0.21962182,0.31651524,-0.015176364,0.33179042,-0.54382586,-0.27192283,-0.03957947,0.5030564000000001,-0.20268599999999998,0.0017660929999999998,0.5062464,-0.24164668,-0.902143,-0.40399029999999997,-0.3292742,0.7217588,-0.35340407,0.78460455,0.08685225,0.66778433,0.05018153
MAT2A,-0.000539999,0.7800134,0.09060103,0.33845428,-0.11153433,0.014159598,0.25866368,0.45904782,-0.12154917,-0.14556159,-0.020161368,0.48069334,-0.010823915,-0.6534853,-0.23950884,-0.25999904,0.18766232,-0.49822572,0.59866124,0.48631087,-0.083618715,-0.46857482,0.1850995,0.26779133,0.07260215,-0.21906953,-4.2e-05,0.10774481,0.020778865,-0.4406557,0.23253809,0.107214086,0.09612472,0.6999528,0.14128497,-0.54032016,-0.058724757,-0.44344056,-0.19510467,0.023882419,-0.23253639,0.04832577,-0.13878801,0.08321528,0.66496813,0.76380867,-0.08456543,-0.8115505000000001,-0.046812195,-0.08237024,-0.4478719,0.12863475,0.6810016,-0.25770646,0.05963321,0.35820705,-0.13284114,-0.57321596,0.023973042000000003,0.55859876,-0.19990043,-0.15266731,0.041808605,-0.8318774,-0.14521296,0.27548940000000005,0.4775188,0.041430287,0.35075888,-0.015201734,0.14438331,0.41871572,-0.34309870000000003,0.05193154,0.5130347,-0.38221186,0.18003963,-0.15848131,0.25690830000000003,-0.20261784,0.67596936,0.013304248999999999,0.014717747,-0.11243248,0.27042744,-0.11460684,0.31029525,0.09885814,-0.47925875,0.05049602,0.32911572,-0.12977193,-0.08289571,0.31478779999999995,-0.2794369,-0.12402919999999999,-0.000487197,-0.1175059,0.136282,-0.42615592,0.06039705,0.07124458,-0.03421718,-0.10086674,0.14352603,-0.05314937,-0.7844952,0.10480216,-0.06487847,0.4738344,-0.5161472,-0.001059562,0.40515578,0.22303991,-0.47618505,-0.56263053,0.1255066,-0.30594936,0.31667924,-0.2663051,0.2523374,-0.19775562,0.06903212,-0.44381836,0.17478219,0.09601824,-0.29897540000000006,0.3501355
YWHAZ,-0.41043484,0.29906222,0.012248100000000001,0.2315286,0.26861809999999997,0.28608677,-0.2614955,0.24457929,-0.121490814,0.44121748,0.1940305,-0.25903222,0.19687834,-0.005860857,0.28327963,0.09830023,-0.21102010000000002,0.1607247,-0.06932611,0.33306798,-0.074162036,-0.34794709999999995,0.34281263,0.095181435,-0.3846673,0.000166059,0.26238197,-0.5511836999999999,0.39690390000000003,0.19225992,0.16961700000000002,0.43262878,0.020402186,0.2576843,0.21225491,-0.109144635,-0.17030132,0.5880818,0.22100696,-0.11045681,0.51689297,0.26527740000000005,0.3270848,0.5543185,-0.49730176,-0.19502662,-0.036205485,0.30070636,-0.23706572,0.06492931,0.014005956000000002,0.062015872,0.09017391,0.027366413,0.038610257,-0.75693154,-0.23043989,-0.13682097,0.13845696,-0.3192782,0.102494515,1.0086462,-0.6131073,-0.44224072,0.04644043,-0.047246054,-0.15139425,0.1698819,0.001650327,-0.49253446,0.07352789,-0.3136171,-0.48661157,-0.045963377,-0.1211045,-0.30183762,-0.06839421400000001,-0.17639935,0.13197148,0.30436006,0.35988095,-0.7747104,-0.41001934,0.08671288,0.18908282,-0.31914976,-0.11026760000000002,-0.14327185,0.007033045,-0.2644494,0.15068299999999998,-0.14074257,-0.50380415,-0.15506962,-0.51525617,0.10988047,0.002038983,-0.15513846,-0.09645385,-0.3374663,-0.2286263,0.17112665,-0.42427829999999994,0.036806434,-0.016629588,0.12411355,-0.17605962,0.17309177,0.4088216,-0.16534339,0.022005359,-0.55523425,0.42527598,0.14143437,-0.016898435,-0.5933733,-0.15007308,-0.14671572,-0.48260847,-0.31244272,-0.47747326,-0.3840324,0.43195707,-0.29519036,0.22977372,0.28599378,0.20906508,0.267378
CNBP,0.28608279999999997,-0.04174418,0.14656949,0.44942474,0.18825655,0.46635705,0.17343943,-0.11497098,0.09004209,0.08791042,-0.1272439,-0.06382845,0.26456892,-0.38850429999999997,-0.35253876,0.5684760999999999,0.54322225,-0.35117233,0.2502881,-0.14089997,-0.43762109999999993,-0.2741937,0.35135272,-0.33931527,-0.16690934,-0.042497568,0.36467758,0.04334283,-0.21312454,-0.5348201,0.050223004,0.33005443,0.26784402,0.25173542,-0.10285919,-0.58820856,0.019396188,0.52502644,-0.03904166,-0.080688216,0.33530933,0.65685964,0.26699429999999996,0.41726658,0.26857692,-0.31328616,-0.37722033,-0.28059933,0.14346579999999998,0.13005672,-0.18659908,0.31303853,0.17344013,0.2332344,-0.012770548,0.14249337,0.22352971,0.31752598,-0.7200703,-0.47777188,0.15827845,0.48328203,-0.41554913,-0.01368867,-0.005547449,-0.3006847,0.2138298,-0.50346965,-0.36471963,-0.21581933,-0.10172342,-0.2681219,-0.09959671,0.46787536,-0.19514684,-0.07527346,0.12398654,-0.54711205,0.5682361,0.15913896,-0.36942375,0.28953958,0.30979517,0.52838624,0.40070844,-0.099613026,-0.29320213,0.15168448,0.79773074,-0.40935755,0.38472584,0.10771032,-0.22124395,0.1979217,0.6514722,-0.38263628,-0.48915765,-0.11153294,0.277987,-0.5338482,0.31230682,0.1879988,0.24336499,-0.06758481,-0.12859242,0.68791527,-0.41242054,0.39710107,-0.029417332,0.18823202,-0.030224761,0.50157636,0.28579804,0.36709487,0.049987406,0.45508608,0.009568399,-0.07200311,-0.12542692,-0.44037840000000006,-0.38369247,0.28103483,0.39642042,0.44521904,0.3658136,0.16540278,-0.20642136,-0.23990653
CCND2,-0.0810147,0.47515905,-0.67762655,-0.3938169,0.5939903,-0.09108307,-0.058875665,0.21131685,-0.46731377,0.013860783,0.19319154,-0.28456247,-0.21021225,-0.17836255,-0.13863948,-0.6372486999999999,0.5383140000000001,0.6511631,0.3490585,0.1805942,-0.08353719999999999,-0.60323465,-0.00918315,-0.109052636,-0.21505585,0.30887370000000003,-0.6470456,0.24739802,0.6001736999999999,0.3007321,-0.23720992,-0.30551848,0.19636331,0.3070402,0.32266809999999996,-0.11081241,-0.21797135,-0.03330457,-0.27327392,0.2564491,0.14366625,-0.12241612,-0.10318096,0.45104662,0.33689737,-0.1627614,0.18060814,-0.013454955,0.30081448,-0.13644855,-0.09732324,-0.314919,0.22381060000000003,0.35736364,0.06966946,0.4327602,-0.06775983,-0.049595367,-0.08437744,-0.060297452,-0.02570342,0.4855016,0.20709693,0.20191415,-0.12601951,0.26849735,0.1955114,0.02686793,0.15975189,-0.17625922,0.31272492,0.016515099,-0.34508932,0.17515992,0.5808648,-0.62682647,-0.20761436,-0.011663471000000002,0.6434331999999999,0.48886997,0.21725245,-0.21245389999999997,0.002791955,0.014253448,0.08722522,0.42264143,0.21364927,0.22437398,0.29671267,0.21684437,0.20673819,-0.060843325999999996,-0.61365837,-0.007608065,-0.16253228,-0.54276085,-0.27141750000000003,-0.2679043,0.29834375,0.12466276,0.25868458,0.37042236,0.7510498000000001,-0.47117436,-0.0304649,-0.4487291,0.075995445,0.099272706,1.0951897,-0.19068022,0.14366038,0.000974302,0.80302054,-0.033651687,-0.29384097,-0.30919209999999997,-0.29675108,-0.45281214,0.47741553,0.07142353,-0.65396297,-0.7207946999999999,-0.30077708,-0.06915022,0.08124076599999999,0.46127912,0.04925802,0.23988923
TMEM189-UBE2V1,0.16361347,0.24018729,-0.027006347000000003,-0.4097441,-0.14203048,-0.31299838,-0.4038772,0.05637087,0.020097252,0.005151823,-0.18909523,-0.413471,-0.21686262,0.37284762,-0.014301078,-0.26697063,-0.4135005,-0.25600865,-0.12237074,0.13259520000000002,0.1127272,0.10758183,0.04078454,0.53292793,-0.40738603,-0.13292286,-0.34591955,-0.3637198,-0.017460955,-0.041063547,-0.10141718400000001,0.011989992,0.014847627,0.34362134,-0.61238325,-0.35058433,0.37049493,-0.19532958,0.010918064,0.51289326,-0.3593195,0.17302179999999998,0.31388608,-0.42930138,0.42595070000000007,0.3741797,-0.33942676,0.42591932,0.53242457,-0.14130603,-0.81979704,-0.07517564,0.46039903,-0.009433093,0.096295685,0.28857192,-0.10650975,0.10350864,-0.3146409,0.010044684,-0.7271411,0.26214904,0.28363794,0.4447349,0.5466108000000001,0.32811853,-0.23693782,-0.19834842,-0.075718224,0.28497824,0.6216669,-0.5540411999999999,0.028480908,0.44367212,-0.192001,0.28435040000000006,0.42078869999999996,0.27326626,0.25194225,0.53274965,0.006538581,0.15859374,0.24153017,0.521279,-0.098149195,-0.01919064,0.000813756,0.35856940000000004,-0.39737272,-0.2919251,0.16461752,-0.24517109,0.08256517,-0.26381317,0.5457181999999999,0.12246985,-0.1560719,-0.6338090999999999,-0.037738837000000004,0.3603699,-0.22849183,0.34399834,0.76772326,0.054226328,0.5775465999999999,0.59455776,0.083518565,0.017370299,-0.29414162,-0.12176946,-0.011191672,-0.61755353,0.3148174,-0.08368185,-0.7815844,-0.069539644,0.23576917,-0.072552085,0.11836102,-0.11159222,0.038529363,-0.16853741,0.703412,0.6391519,-0.24395445,0.55439055,-0.51039326,0.2832157
ARPP19,-0.35952163,-0.011217844,-0.29855204,0.06113309,0.07862994,-0.2773855,-0.23721837,0.6674353,0.29517695,0.06533658,-0.14514337,-0.21632549,-0.16681163,0.08027065,-0.35474527,0.48062676,-0.0648444,0.57184154,-0.11768743400000001,0.19946973,0.23692364,-0.005315461,-0.008553166,-0.7059648000000001,-0.31601524,-0.17132501,-0.5915324000000001,-0.65504676,0.017645868000000002,-0.009588834000000001,0.14479594,-0.2847441,-0.10284219,-0.42449537,-0.9741599,0.01980173,0.027972542000000003,0.095305994,-0.3871437,0.11067080000000001,-0.35200307,0.16241434,0.13930883,0.000480744,-0.19907215,-0.02395155,0.23669516,0.06308273,0.9492143,-0.082929075,-0.38658553,-0.114607856,0.07029911,0.31758615,0.44946152,0.18076088,-0.53174484,0.21531388,0.000695383,0.20080078,0.11692864,0.7705949000000001,0.35239349999999997,-0.58536464,-0.24087328,-0.19972694,-0.26011854,-0.22777905,-0.24867393,-0.19129923,-0.38485956,-0.5347132,-0.087316535,-0.009014273,-0.30354288,-1.0743173000000001,0.26856804,-0.0940568,0.23000196,0.45320925,0.31708583,0.27239716,0.18045335,0.44474664,-0.05850864,-0.42853630000000004,0.47672307,0.053614937,-0.31607902,-0.45481990000000005,0.19769384,-0.51975936,-0.6039376999999999,0.12420266,0.5283746,0.6817475000000001,-0.028299672999999997,-0.5116821,-0.10875698,-0.20202145,0.47327065,0.16303049,0.14665441,-0.06406539,0.24481998,0.40820897,-0.47689864,0.23186776,-0.11186753,0.13963133,0.44912553,-0.3554811,0.47238493,-0.16924241,0.21350595,0.10003954,-0.07091309,0.25056788,0.38030517,-0.20815441,-0.33257556,-0.016342875,0.77404827,-0.17287408,0.65909016,-0.065509826,-0.19060504,0.062420856
PER1,-0.33041313,0.075898014,-0.17715378,0.8669474,0.27850378,0.49206227,0.22072193,0.062273327,-0.012166715,-0.2439863,-0.33018875,-0.3601228,0.15074816,-0.19276783,0.16020758,-0.041023206,1.0224046999999998,-0.083937295,-0.17647159,-0.003600794,-0.265309,0.048560686,-0.20873490000000003,0.06900665,0.097320005,0.24982329,-0.5684383000000001,-0.08890835,-0.0008093439999999999,0.057758603,-0.29557198,-0.15332012,0.29161,0.36355865,-0.52444327,-0.060581792,0.43454903,0.3197067,0.40686609999999995,-0.5911784000000001,0.11193689999999999,0.15594958,-0.22539885,-0.08557748,0.06929055,-0.006676522,0.30682823,-0.48637890000000006,0.27952350000000004,0.3472376,-0.47192112,0.46163696,-0.15026484,0.73330986,0.13872446,0.060299233,0.07252967,0.14143486,0.14345112,-0.03485009,-0.022158043,-0.010065092,-0.27316034,-0.17273247,0.38774934,0.24744222,0.5219774,-0.31033233,1.0325605,0.50111735,-0.39175326,-0.15765701,-0.4951463,0.21817271,0.2915209,-0.45120558,-0.041965577999999996,-0.043038037,-0.12253533,-0.15136985,0.11073765,-0.017175599999999996,0.34794885,-0.2925758,0.28620866,-0.32401347,-0.53567404,0.6559826,-0.5912437,-0.050201065999999996,0.23733242,-0.22827412,-0.052333012000000005,0.46622349999999996,0.09135875,-0.40908822,-0.29423255,0.14969146,-0.3331563,-0.24335511,0.31177527,-0.27545294,-0.26045918,-0.08683384,0.6043857,-0.07560995,-0.34410062,-0.19898441,0.28992617,-0.6939307,-0.24587053,0.19208096,-0.098078094,0.12872688,0.07794996,0.16657622,0.061582852,-0.26185125,0.49563378,0.3064535,-0.6427024,-0.38123542,0.15162805,0.12215635,0.1810289,0.027844131,-0.10717128,-0.45311999999999997
PTBP2,-0.26573527,0.28518847,0.54378116,0.43608993,0.59026754,-0.026510453,0.3135656,0.014286423000000001,-0.1840994,0.25079703,0.04337251,-0.100980006,-0.018237593,0.12320954,0.39569893,-0.04619193,-0.36697140000000006,0.2649395,-0.10532792,0.22253434,-0.25607046,-0.14367169,0.36900786,0.2559864,0.34362173,-0.25488916,0.038810685,0.13417171,-0.36368063,-0.01906591,-0.2955222,-0.041955900000000004,0.13522497,0.052809313,0.012385298000000001,-0.37555659999999996,0.3150206,0.74207854,-0.26237816,0.6112978,0.64971244,0.19796528,0.26934709999999995,-0.32236665,0.15055652,0.21106063,0.08603744,0.25138247,0.03606759,0.42653019999999997,0.024465594,0.09378963,0.2667691,0.00401993,0.21811303,0.03849429,-0.36085972,-0.6072195,-0.25896183,-0.13858779999999998,-0.7581041999999999,-0.07428143,-0.20111278,-0.5291196,0.3420114,0.28052083,0.03252287,-0.5866604999999999,-0.23822166,-0.30625957,0.23271473,-0.71644664,-0.7844661999999999,0.066177964,0.003993918,-0.26915386,0.47677556,-0.11054188,0.33079225,0.793836,-0.21301405,0.023034018,0.3686492,-0.19241583,0.19228543,-0.124817885,-0.39248008,0.35554114,-0.13454098,-0.24195334,-0.27615120000000004,-0.14722238,-0.14502153,0.34753105,0.093880534,0.061739728,0.040282674,0.19018476,-0.19223039,-0.101819165,0.27177826,0.17789319,0.27046323,0.006285879,0.45584220000000003,0.082507476,-0.28107098,-0.26589158,0.3945534,-0.31547132,0.28889742,-0.15924294,0.14435403,-0.16145012,-0.39242327,-0.030470043,-0.41060612,0.23346905,-0.08787423,-0.114666305,-0.408821,-0.08909443,0.06745956,-0.018814217,0.11081729,-0.21632814,-0.28493609999999997,-0.03237594
INHBA,0.35603377,-0.58597845,-0.11805728,-0.12990461,0.44015855,-0.17299895,-0.07256116,0.03600102,0.21461883,-0.1905781,-0.23019719,-0.56401587,0.17141786,-0.6623557,0.15078725,-0.47382578,0.23597237,-0.058003757,0.21627334,0.25264224,-0.01202473,0.34640893,-0.0046692190000000005,0.36382923,-1.2552752,0.47460258,-0.17236455,-0.37335409999999997,0.16914138,0.334013,0.5653279999999999,0.8466716000000001,0.4631252,0.40936384,-0.5294745,0.62178093,0.4154214,0.42016432,-0.14022478,-0.069358155,-0.28999627,-0.40658706,0.42902678,0.30455047,0.9317131,0.10285905,-0.27994448,-0.051144898,0.5910018,0.16568226,-0.5505985,0.047614295,-0.03457501,0.15581653,0.7026895000000001,0.15828198,-0.54132366,-0.32949454,-0.11591224,0.5699411,0.14586383,0.06915106,-0.61060023,-0.43997768,0.21900158,-0.4021361,0.022682566,-0.18216708,-0.13923311,0.045234147,0.06996884,0.05385427,-0.3834849,0.20219178,-0.5133833999999999,-0.49825257,-0.013429918999999998,-0.27582622,-0.27846190000000004,-0.35680237,0.19336553,0.4377112,-0.059091076,0.051995307000000004,-0.04591354,-0.86640865,-0.4217161,0.038542703,0.48253733,0.15266122,-0.046328247,0.17719135,0.010513587,0.17287283,0.5312489,0.49486464,-0.09094974,-0.23549247,0.5783927,0.04159771,-0.14794639,-0.35945934,0.28032598,-0.17601918,0.6328428,0.040179804,0.15816787,-0.18218705,0.31542462,-0.26278707,0.011892136999999999,-0.04816721400000001,0.14516892,0.040463623,-0.13220471,-0.30066445,0.14966746,0.020531384,-0.30367172,0.3044133,0.3493369,-0.36768457,0.08546667,-0.17677361,0.20736106,0.15705879,-0.31886056,-0.18842557
DDX3X,-0.088946186,-0.25285283,0.07134743,0.13585728,-0.1858763,0.15043102,-0.1239961,0.058829862999999996,0.063710615,0.29842870000000005,-0.22481126,-0.4201553,0.31214446,-0.0756182,-0.16538042,0.08424391,0.8137194999999999,0.026177006000000003,0.056758552999999996,0.20311788,-0.43785506,0.05926715,0.036630300000000005,0.17847812,0.5648376,-0.05052414,0.14970483,0.15943062,-0.321769,0.090554774,-0.21775295,-0.45407784,0.23173852,0.19456401,0.13976361,-0.09081422,-0.024099864,-0.13125093,0.23028160000000003,0.06490159,0.08676129,-0.3622484,0.11020440599999999,0.44257793,0.43204403,0.11119828400000001,0.18988436,0.39717677,0.35347277,0.30353713,-0.11264203,-0.15290278,0.783077,-0.26646504,-0.05236998,0.12225006,-0.19433671,-0.10306449,0.15771794,0.2860419,0.061503965,0.24633989,-0.011989575,-0.34019190000000005,0.04328556,0.23150797,-0.16680802,-0.74448043,-0.36024442,0.004723937,0.12157898,-0.25405407,-0.09011210000000001,0.12845479,-0.26337853,-0.41847209999999996,-0.042153507,-0.18286838,0.22180822,0.10030375400000001,-0.09359789,0.26242778,-0.015966495,0.8156408,-0.40077835,0.09101296,0.29074204,0.17446537,-0.24114077,0.36473432,0.49286824,0.29028183,-0.081385195,-0.5197795000000001,0.13532774,0.09150608,0.5227307,-0.012652554,-0.18521805,-0.32290307,-0.052111782,-0.20143668,0.24432547,0.048188827999999996,0.44871229999999995,0.40249813,-0.080130845,0.32536423,-0.19968794,-0.1860744,0.10980673,0.021302875,-0.167228,0.29364005,0.37978238,0.087822855,0.7935307,0.14347777,0.22446842,0.5236867999999999,0.03852427,-0.28430279999999997,0.055593573,-0.19978885,0.05213459,0.49974385,-0.2828738,-0.17968233
SKI,-0.22974384,0.30057573,-0.20273295,0.22933670000000003,-0.07387393,0.16528676,-0.021636054,-0.5362649,0.4263673,-0.69929445,0.08603541599999999,-0.20588182,-0.014403871,-0.10621921,-0.12979423,0.36808947,0.27041578,-0.026774867999999997,0.35593233,0.16747591,-0.37854877,-0.26403823,0.33487740000000005,0.581813,-0.33287174,-0.46408599999999994,-0.057821732,0.11332396,-0.2609842,-0.42397785,-0.07497836,-0.031634476,0.044331074000000005,-0.2508388,0.46299407,-0.1747527,-0.13153316,-0.2824472,-0.118230395,-0.20811954,-0.34475932,0.16381678,0.4992254,0.09031223,0.094900094,0.6724036,-0.40181290000000003,0.23646449,0.6341114999999999,0.32311493,-0.18601705,0.30146474,0.43761024,0.5988701999999999,0.26824552,-0.37670302,-0.034384492999999995,-0.41510853,-0.31533712,0.5271273,0.46127394,0.1449648,-0.16425765,-0.38450012,-0.28302643,-0.39958376,-0.2826714,0.15291034,0.79512036,0.665567,0.71021163,0.005581757,-0.1293077,0.32716924,0.13863133,0.05294069999999999,0.5183567,0.1649256,0.14753018,-0.14885513,0.42174217,-0.029934957999999998,0.09036712,-0.38379833,0.149954,-0.20658377,-0.005443740999999999,-0.10877073,-0.32491574,0.023272356,0.3119446,0.12054999,-0.19589306,0.28630406,0.21724167,-0.13340658,-0.34559107,-0.38623609999999997,-0.11193608,-0.14155273,0.24497136,-0.111441575,0.31864205,-0.16719715,-0.26242554,0.03727468,-0.5830116,-0.042193747999999996,0.18433946,0.22709417,0.24531806,-0.39353687,0.54267085,0.11415636,-0.4650322,-0.13254397,0.010814346,-0.0032439870000000003,-0.19333039,-0.029314116,-0.14425422,0.15199189,0.79155993,-0.60064477,0.31664932,0.075311,-0.16353595,0.1071942
ZMAT3,0.12410751,0.36486956,-0.16245902,0.45041987,0.30296677,0.41859215,-0.28786474,0.18993266,0.37174782,0.5229982,0.25493473,-0.20618767,0.40979099999999996,0.22619228,0.36562786,-0.41974750000000005,0.14694078,0.25964567,0.15965514,0.02634663,-0.31426479999999996,0.36573666,0.15784827,0.20107448,0.08009862,-0.48092934,0.04605653,0.5602087,-0.6157566999999999,-0.11243193,0.025823422000000002,0.33740783,-0.45450690000000005,0.33995748,-0.27510834,-0.39750126,0.26964265,0.11233687,-0.24666135,0.42012823,0.59501606,-0.17989236,-0.07417744,-0.10501502,0.24112865,0.61978585,-0.1713357,-0.014383266,-0.15752229,0.14977042,0.3624863,0.41504574,0.49296162,0.35495695,0.3648209,-0.5263833,-0.4327572,0.19275811,-0.61868507,0.06421529,0.32570177,-0.39992028,0.16535865,-0.43540242,-0.17844403,-0.15601338,-0.20016457,0.2791735,0.07863303,-0.63542765,0.030002175,0.06634882,-0.19635405,-0.33535529999999997,-0.032818682,0.1959109,-0.32203108,-0.5033631,0.035400018,0.47293633,0.09355383,0.05394563,0.1778207,0.15341763,-0.039608147,0.42382583,-0.28458320000000004,-0.24376659,-0.1429924,0.6245001,-0.22093943,0.34567633,0.24355093,-0.11488104,-0.10151257,-0.26953605,0.19049846,-1.0556733999999999,0.21621561,-0.77678293,0.19871517,0.65695155,0.5066832,-0.23775697,-0.2736343,0.40067634,-0.21671511,-0.25474152,0.097977,0.14099605,0.50150955,-0.23804778,0.5616396,0.06667922400000001,0.1434838,0.517153,-0.54960364,0.16692495,-0.17937607,0.21688391,-0.6830198000000001,-0.25852403,0.18144877,0.28003722,0.4504571,0.350907,-0.66390836,-0.23671298
HMGA2,0.009957117,0.19890758,-0.07964875,0.48228773,0.40522516,-0.061740487999999996,-0.23975055,-0.08406687,0.5122749,0.6044636,-0.23083991,0.18928799,0.12429862,-0.47639275,0.20850334,-0.6266475,-0.23470770000000002,0.1658127,0.4369557,0.61155564,-0.68804127,-0.085370824,-0.39478457,0.19595146,-0.01273606,-0.23062272,-0.3241821,0.5877031,-0.33980387,-0.25507832,-0.35919252,-0.19769761,0.16321437,0.19978665,-0.22101213,-0.11716333,0.07177628,0.029425088,0.33711883,0.18364862,0.17491299,0.089002684,0.26589012,0.015201468999999999,0.66948164,0.13622683,0.052540555999999995,0.07580516,0.06446642400000001,-0.3346785,0.12927045,-0.3391809,0.77630657,-0.53104395,0.28125209999999995,-0.034296427000000004,-0.36739266,-0.14745474,-0.28646520000000003,-0.18121263,0.38188893,0.39235282,0.18903291,-0.4013656,0.3835338,0.23003261,0.20343634,-0.18298368,0.56850815,0.5548793000000001,0.3094288,-0.6748988,-0.26690778,-0.5958333,-0.08851326,-0.042961404,0.002115586,0.12780595,0.037312936,-0.011729618999999998,0.08216225,0.24031116,-0.36933413,0.029428951000000002,-0.08768773,-0.35460666,0.003296083,0.43969035,0.004182494,-0.28804463,-0.15925688,0.022464632999999998,0.047785907999999995,0.37330842,0.11053596,0.24695789999999998,-0.046128377000000005,-0.4022104,-0.13605091,-0.32960314,-0.20417085,0.12478120599999999,0.310519,-0.26520762,-0.12863205,0.092267245,-0.19845858,0.20298335,0.2937861,0.10507493,0.16284913,-0.2680861,0.30544570000000004,0.017469335,-0.047738857999999995,0.12868617,0.5581581999999999,-0.17489274,-0.24235871,-0.07895241,-0.19236624,-0.09425138,0.35660879999999995,-0.19419795,0.36714712,0.18774563,-0.043390244,0.04801981
PAFAH1B2,-0.27881736,-0.1852348,0.41561440000000005,-0.23343049999999999,0.08982888,0.000662684,-0.39072248,0.44762218,-0.28818637,0.44455406,-0.96112245,-0.13897188,0.26262759999999996,0.17428263,0.29036412,-0.23675908,0.08446234,0.09407793,-0.28400552,0.00419491,-0.13243729,-0.4433653,0.232692,0.38440663,-0.23857671,-0.36225674,0.31131834,0.17680004,-0.42483306,-0.5405181,0.23480879999999998,-0.29295725,0.071093485,-0.48471522,0.23939470000000002,-0.86830634,0.58117604,0.13410853,-0.04269535,0.08563757,-0.15326606,0.44523364,-0.20852812,0.13916828,0.44738877,-0.21793778,0.075755045,0.26468435,0.19012657,0.12195128,0.028999982,-0.40054765,-0.14709598,-0.25590256,0.19076529,0.28860015,-0.2191433,-0.09769525,-0.016091576,0.25548008,0.1429008,-0.14954352,0.24847484,-0.5214194999999999,0.6308242,-0.03825213,0.31377614,-0.30481336,0.077138156,0.38510847,0.58208543,0.008555001999999999,-0.10067095599999999,0.38630202,0.40158263,-0.56547564,-0.32516155,-0.75551707,0.060646072,0.30188509999999996,-0.17340945,0.049887147,-0.46488833,-0.08292013,0.44857636,0.07350426,-0.21687354,-0.03558883,-0.40006432,-0.07250993,0.26839226,-0.06671036,0.3561311,0.29758897,0.07679409,0.04425317,0.5851021,-0.85924166,-0.49265796,0.057674027999999995,-0.22091973,0.030421881,0.6192105,-0.3276323,-0.059001528,0.5232089,-0.21875836,0.09936289,0.32969052,-0.2485786,-0.4671245,-0.14496295,-0.28240094,0.12076021,0.5153729,-0.041848805,0.6484529,0.24435319,0.21367070000000005,0.11104593,0.5178382,-0.046729732,0.37517864,-0.12830955,-0.006805426,-0.14588691,-0.42345828,0.67690754
DAZAP2,-0.48773986,0.50586575,0.28103814,-0.19073287,-0.41396257,-0.13691093,-0.028820492000000003,-0.05836006,-0.01960774,0.33015758,-0.22295410000000002,-0.5276276999999999,-0.3326047,0.37328255,-0.24066521,0.12778936,-0.07886712,0.27836900000000003,0.35803294,-0.14701715,-0.16103208,-0.58702713,-0.10786207,-0.35241088,-0.031434897,-0.35937557,-0.09693556,-0.1261615,-0.048883893,-0.046437785,-0.1324409,0.22239134,0.7454708000000001,0.43311432,-0.472789,0.123401314,0.19448146,-0.41416955,0.28194588,0.29740494,0.210562,-0.10439262,0.17288621,0.17281146,0.23705457,0.27246383,0.113479674,-0.71440357,0.3142574,-0.08947011,-0.6329304,0.5133318,0.043509003,-0.17628047,-0.07370544,0.39170778,-0.20562398,0.041126966,0.17214516,0.06054927400000001,0.095146336,0.015279632,-0.69234157,-0.14860594,-0.26356313,0.22345299,0.36898997,-0.4025724,-0.27733302,0.13850617,-0.044451077,-0.33518356,-0.33477363,-0.09940876,-0.11258218,0.25893492,-0.2609619,-0.40892459999999997,0.08221616,-0.45054620000000006,-0.15260483,0.41669586,0.46352175,-0.19854598,0.22829245,-0.26521152,-0.19522896,-0.035375025,-0.32188123,0.33280486,-0.25947106,-0.117121845,-0.4047386,-0.33561018,0.37940192,0.37952745,0.024884447,0.11979794,-0.27821356,0.2710353,-0.27644482,-0.13426827,0.42510673,0.31224009999999996,-0.030318499,-0.086657085,-0.19831213,0.41764954,0.040743417999999997,-0.32723588,0.10756587,-0.35710770000000003,0.226789,-0.105532736,-0.2633788,-0.18619987,0.13950041,0.26894559999999995,0.46068853,0.6153048000000001,-0.1282107,-0.03650028,-0.13006039,0.20640849,-1.0741862,0.1259791,0.40341609999999994,-0.450719
PLAGL2,-0.106008135,0.23064211,0.39076248,-0.8035153,0.022086092999999998,0.63152874,0.27318972,0.11270809,0.06470171,0.38608533,-0.47676359999999995,-0.59675765,-0.23672628,0.25632006,0.33669844,-0.026471881000000003,0.12444870000000001,0.47209403,-0.009286552,-0.7228861,-0.74508244,0.30945203,0.33053157,-0.15841779,-0.5002649,-0.24391598,-0.8079890000000001,-0.4391306,-0.35899833,0.35044575,-0.37305033,0.32146302,0.10883109,0.82882077,0.16943401,0.1770352,-0.095294975,0.47661918,0.106128074,-0.2496655,-0.06697339999999999,-0.22584668,-0.011310495,0.5446989999999999,0.10122916,-0.58629304,0.004445847,-0.13595723,0.0036283879999999998,0.46285477,-0.57569957,-0.053769500000000005,0.39523745,0.18485424,-0.026741128,0.03436827,0.22323593,-0.31170097,-0.46066450000000003,0.4240859,0.89534706,0.3522437,-0.58691746,0.8073475999999999,0.0013859039999999999,-0.017483488000000002,-0.13237259,-0.10760748,-0.33923495,0.19283417,0.30030555,-0.52278084,-0.090160854,0.016983008,-0.4123597,-0.12685704,-0.46258777,-0.05137459,0.00864321,0.7147906999999999,-0.09416374,-0.12955207,0.12187591,0.1632786,0.15959792,0.027523912,-0.44141296,-0.11982904400000001,0.064981215,0.14202683,0.25309837,0.02054687,0.05115546,-0.2763863,0.36521703,-0.048041042,-0.20873779,0.04883815,-0.01545549,-0.040395346,0.17681894,0.45643583,0.06314796,-0.4833429,-0.18840009,0.008066933,-0.38191578,-0.27069590000000004,0.5888573,-0.26922840000000003,-0.25503927,-0.22497225,0.51613057,0.05651698,-0.13170342,-0.06586785,0.06625129,0.11600824,-0.31151685,-0.49226806,-0.07453727,-0.024441518,0.5014841,0.0694943,0.37154114,0.2998708,-0.41136312,0.60715735
KHSRP,-0.67705494,0.52674097,-0.014702083000000001,0.067576505,-0.10847673,0.48200318,0.16269137,-0.06968978,0.19425054,-0.23407504,-0.059977047,-0.36010159999999997,0.6278482,0.050668895,-0.04019174,-0.05555103,0.16925555,-0.10605895,0.20825535,0.09050725400000001,-0.39006448,-0.23101577,0.22262971,-0.0869702,0.17881185,-0.4235456,-0.47362566,-0.3780268,-0.22624677,-0.17021114,0.20532346,0.16798867,0.05557327,-0.38979959999999997,0.21345164,-0.021721877,0.58849144,0.09138426,-0.4179226,0.50426906,0.2436669,0.7285068,0.01216428,-0.11960457,0.42930537,0.5172699000000001,0.009398625,0.27350759999999996,0.29223812,-0.11985241,-0.002720336,0.24863595,-0.051454913,0.52883214,-0.062217765,0.16861911,-0.31010094,-0.2209654,0.11333776,-0.5806908000000001,-0.11061039,-0.08715017,0.06383888,-0.46757555,-0.21191537,-0.0317538,0.11623151,0.13335451,-0.14481275,-0.17494956,0.25028238,0.21323791,-0.27327229999999997,-0.27694952,0.15360520000000003,-0.13000274,0.33314145,-0.8140018,0.25173858,0.38265055,-0.37773603,-0.1373761,0.06740251,0.68982893,-0.0009677069999999999,-0.22360341,0.3785354,0.5427054,-0.28584158,0.26982245,-0.43389598,0.113907665,-0.5073713,0.28940335,-0.13327226,-0.47304168,-0.001133114,0.0646532,-0.22554503,-0.33058828,-0.28877687,0.04869445,-0.08988334,-0.020793537,0.037686467,-0.01693211,-0.3103915,0.37424609999999997,0.07756539400000001,0.58732164,0.25550556,0.25370464,0.25520524,-0.51486844,-0.1580435,0.40161648,0.79218674,-0.25678083,0.21470365,-0.08514024,-0.11589773,-0.03310752,0.6714227,-0.35456344,0.40914655,-0.16368662,-0.24699539999999998,0.1813236
SMCR8,0.041698944,0.086243734,-0.032542884,0.5142637,0.19576132,-0.30141965,-0.23101331,0.01218171,0.09679410000000001,-0.15054296,0.13207264,-0.017169436,-0.039095487000000005,-0.218452,-0.02385825,0.36457774,0.35248086,-0.28425872,0.49251726,0.055953435999999995,0.09707645,0.7413998,-0.00449813,0.14184566,-0.43472144,-0.04793265,-0.15912333,-0.07032247,-0.7693395000000001,-0.23925419,-0.16880405,0.35715863,0.28428873,0.27902335,0.6434269,0.1176471,0.41685790000000006,-0.07507647,-0.07153767,0.45854095,0.5734069,0.008604503000000001,0.50299317,-0.22770949,-0.23538159,-0.3306995,0.11770541,-0.30154309999999995,0.13190639,-0.47791547,0.42427440000000005,0.29353154,0.80893975,0.012820197,-0.5805883000000001,0.1407825,-0.07729436,-0.16247788,0.46204670000000003,-0.5846906999999999,0.36066094,-0.000983836,-0.41606867,-0.7269651999999999,-0.27549627,-0.36750248,-0.031733416,-0.17016502,0.37505057,-0.5207626000000001,0.10526089,-0.045037895,0.033607144,-0.2566865,-0.08421695,-0.24943878,0.33530194,-0.000968094,-0.2558286,-0.17995845,0.18935938,0.32090799999999997,0.29866275,0.381346,0.22052598,-0.25320729999999997,-0.41312057,0.003505494,0.11134568,0.36794916,-0.057527814000000004,0.34074473,0.095626764,-0.37395748,0.42281994,-0.34768265,-0.22712100000000002,-0.44284670000000004,0.0711455,-0.16583967,0.028126089,0.025738146,0.6466604,0.5177399,1.182663,-0.26618046,-0.5235599,0.100410715,0.7322175999999999,0.38015503,-0.2393326,-0.29864976,0.22711773,-0.093162164,-0.29532385,0.16367723,0.05111259,0.31090927,-0.5429026,0.21022879,-0.44509342,0.38546090000000005,-0.18414494,-0.13196571,0.033721797000000005,0.057688977999999995,-0.08249204,-0.12987232
WEE1,-0.32841948,0.18280855,-0.55111504,0.04567324,-0.000563789,-0.016872901000000003,-0.13760982,0.42131618,-0.029492407999999998,0.24821156,-0.43894008,-0.49088427,0.385617,-0.7300757,0.34154806,-0.08389582,0.1995388,-0.013898756000000002,0.17545451,0.33543012,-0.65288246,-0.32023138,0.12522596,0.18477531,-0.3572597,-0.28404197,0.09383017,-0.020349733999999998,0.24176411,0.22757773,0.052494667,0.05010088,-0.04200744,-0.22481754,0.27431700000000003,0.22779869,-0.08084768,-0.027087977000000003,0.15416595,-0.1918124,-0.026422558,0.48294380000000003,0.6475141999999999,-0.024924903999999998,0.21279,0.44272056,-0.10967801,0.117011264,0.13616773,-0.060295463,-0.19339621,0.08010835,0.513652,0.56966186,-0.32152423,0.120920286,0.24392955,0.38690412,0.38305125,-0.05995225,-0.043098334,0.28798997,0.05668144,-0.030567112999999996,-0.26827267,0.5808609,0.44300565,-0.3323738,-0.016681103,-0.41261572,-0.32157529999999995,-0.63407785,0.018931735,0.29946947,0.0038770370000000003,-0.39832547,0.08588377,0.24002208,-0.09287959,0.34504044,-0.41300109999999995,-0.09098655,0.5445399999999999,-0.38792005,-0.24069294,-0.13784307,0.24669747,-0.5719404,0.07622405,-0.40149450000000003,0.6886966999999999,0.26149404,-0.23662534,0.09594561,-0.045387633,0.40928245,0.11470067,0.1142866,0.29074407,-0.25183216,-0.30310306,0.3773867,-0.061500266,-0.20309937,0.21170054,-0.001164865,0.49383274,0.42264456,0.41635948,0.36313490000000004,-0.38221702,-0.023077786,0.42632222,0.89290094,-0.11623503,0.24577865,0.14047942,-0.16151921,0.25351557,0.059004992,-0.22685885,-0.09626268,-0.18760742,0.21552935,0.31568670000000004,0.30355906,-0.80497146,-0.24218437
YY1,0.047736537,0.27827552,0.15438177,0.1349261,-0.08290034,-0.43831134,-0.035808697,-0.14205632,-0.26699045,0.18025602,0.057248004000000005,-0.22010367,-0.47817442,-0.5248335999999999,0.16464068,-0.0726984,0.56653273,0.24492049,0.40935802,-0.08691218,-0.058975032999999996,-0.023701634,0.36707446,0.12003620000000001,-0.44858217,-0.069842696,-0.8898792999999999,0.012653123,-0.038210846,-0.111687146,-0.16997902,-0.014819677,-0.43677908,0.5396988,0.13243365,-0.107045054,0.4153309,0.20118538,0.08469421,0.031431243,-0.35217917,-0.13028891,0.70470124,-0.47640255,0.38025934,-0.15941805,0.14140135,-0.0391309,0.24615723,-0.31793818,-0.6036319,-0.32440713,-0.5360214,0.45490858,0.9951281999999999,0.521127,-0.42454556,-0.21445489,-0.07427201,0.32253462,-0.29311970000000004,0.22282442,-0.36191526,-0.4071043,-0.15359293,-0.32327488,0.4241574000000001,-0.18011166,0.6432623000000001,-0.1824569,0.17603853,0.15008064,-0.23117217,0.16248989,-0.37586388,-0.2855638,0.05317692,0.13506112,0.26410583,-0.77435607,0.18960084,0.10346448400000001,0.29346335,-0.056502458,-0.41854262,-0.31579643,-0.15523048,0.39542645,-0.2855773,-0.33399266,-0.11969391,-0.08517582,0.1364918,0.34996498,-0.2833427,0.016737873,-0.08665012,0.082650244,-0.44703388,-0.10482769,0.17822297,-0.023209415,0.25231874,-0.009513671,-0.36061412,0.04021286,0.16786216,0.23344605,-0.5133909999999999,-0.5488049,0.5517634,0.14950510000000003,0.19381206,-0.38849285,-0.29423636,0.22310118,0.14009622,0.31046572,-0.19866443,-0.18125181,-0.11691251,0.50518733,0.093863845,-0.08644742,0.36301809999999995,-0.30782482,-0.05706439,0.57425064
CELF1,0.38395336,0.6831645000000001,0.07865357,0.24169622,0.024668725,0.09764093,0.12863038,-0.011768356,0.14239398,-0.023713643,0.14428692,-0.36326498,0.3580315,-0.42829686,-0.10475474,-0.32943845,0.110746086,0.04322065,0.73239297,0.2870683,0.34242845,0.47981188,0.48889520000000003,0.26392856,-0.45406187,0.09731503,0.07267407,-0.28484929999999997,-0.20074642,-0.66006476,0.13665448,-0.10036122,0.29860133,-0.5398774000000001,-0.45524484,0.08447619,0.50009304,0.13489321,-0.5041270999999999,-0.16194887,0.027911792999999997,-0.22263047,-0.001864025,0.37740734,-0.21591674,0.07200722,-0.25949466,0.35633665,0.08198726,0.5262259,-0.000202328,0.5270781,0.22933064,-0.12933122,0.5704543000000001,-0.50300413,-0.34870163,0.111299194,0.16367267,0.08674762,-0.47394186,-0.09837959,-0.47770715,0.032220013,-0.5287156999999999,-0.029180609,-0.25711423,-0.044166925999999995,-0.16361062,-0.41987470000000005,0.19494359,0.09861072,0.23083232,0.3028267,-0.31237578,-0.42650554,0.24321184,-0.60860956,0.29133546,-0.032884125,-0.4030041,0.38228490000000004,0.33768973,-0.35594362,0.24582995,0.13454470000000002,-0.14434856,0.07299778,-0.3950358,0.14200552,0.28385052,0.16027629999999998,-0.334726,-0.7705506999999999,-0.3708574,0.047025107000000003,-0.24644348,-0.17285712,-0.24845529,-0.18804201,-0.3193812,0.23525752,-0.10682462,0.18475088,0.37479159999999995,0.8252619000000001,-0.120656304,0.7927244000000001,0.8292116,-0.024485778,0.6501130999999999,-0.2134962,0.112892464,0.20728299,-0.61167103,-0.24195029,0.34278962,0.36513117,-0.07330966,-0.14484844,0.02860022,-0.36975583,0.008174249,0.49545646,0.02856564,0.59089446,-0.13700779,0.41583732
SKIL,-0.5061281,0.11705437,0.16528524,-0.13222921,-0.37918252,-0.054621097,-0.17656596,0.39989728,0.052540414,-0.04690349,-0.21425160000000001,-0.48216742,0.44065553,-0.6679229999999999,0.49903458,-0.019832762,0.51368695,0.54189384,0.5272300999999999,0.221108,-0.13412142,-0.13288116,-0.307019,0.30986047,-0.12915854,0.026581276,-0.8453843000000001,-0.24049859,0.046390343,-0.1866507,-0.09540471,0.18585393,0.13427988,0.17089286,0.265407,0.2409368,0.27198049999999996,0.48721185,-0.15325369,0.44015437,0.24135092,-0.08721344,0.11338158,0.6386486,0.5567946,-0.3493317,-0.5144392,0.20727661,0.42138094,-0.14430322,0.34332517,-0.22759373,0.21943595,0.31850502,-0.10154327,-0.16203503,1.04e-05,0.21703501,-0.33792296,-0.38365373,-0.06748900599999999,0.32196084,-0.3169534,-0.13452294,0.19826591,0.013003068000000001,0.23429051,-0.0877112,0.07795578,0.23888420000000002,0.15878698,-1.1396263999999998,-0.15592685,-0.32566845,0.20720856,0.03423762,0.38777173,-0.43708919999999996,0.05980909,-0.31195402,0.41897879999999993,0.22063173,0.07067875,-0.4335313,0.51885587,0.001341244,-0.097441025,0.63827854,-0.011021594,0.3406366,0.14358176,-0.0840576,-0.30578979999999994,-0.17653432,0.19355418,0.39446726,0.028525524,0.20821038,0.56859475,-0.25868174,0.18098992,-0.49615297,0.40054205,0.28814504,-0.684723,0.5193204,-0.08902581,-0.059253965,0.03133938,0.24371453,0.17118329999999998,0.058678456,0.24659243,0.015606778,0.1033421,-0.18834388,0.38941815,0.32426372,-0.37818432,0.37503794,-0.007031442,-0.5932257,0.6974424,-0.6062996999999999,-0.19389674,-0.22220029,0.19482294,0.3533631
C5orf51,-0.37668145,0.11626036,-0.33657750000000003,-0.37605563,0.14174828,0.11724956,-0.004171487,0.035742007,-0.633155,0.21421087,-0.89221984,0.31843457,0.21742016,-0.039877407000000004,-0.09104659,-0.40301929999999997,-0.038118694,-0.04713451,0.12598033,-0.28509778,0.10499386,-0.43852425,0.41229899999999997,0.551048,0.26782444,-0.40748602,-0.603367,-0.26631079999999996,-0.022116552999999997,-0.33578843,-0.09598167,0.27356994,0.09895222,0.2044941,0.19947004,-0.22874539999999996,0.10130208,-0.06416249,-0.43110418,0.35863668,0.24550329999999998,0.03194935,0.2325782,0.15395856,-0.03453991,0.13300687,0.31449590000000005,-0.33421722,0.23039131,0.41943872,-0.27040094,-0.2131573,-0.29876786,0.60875016,0.5876855,0.07505575,-0.7502484,0.45275328,0.4438368,0.25697124,0.14943728,0.03510718,0.33500022,-0.039794505,-0.19946670000000002,0.49801567,-0.17090312,-0.5062011,-0.28853703,-0.37157524,0.17251025,-0.012857603,-0.32556435,-0.0496665,0.09918001,0.13404557,-0.30171764,-0.115237825,-0.29266995,0.38816184,-0.17178184,0.43217084,0.38855500000000004,-0.6528064,0.20801324,-0.3184552,-0.10980412,0.17359938,-0.1947025,0.10938232,0.21839544,-0.36095694,-0.014135607,-0.21848764,-0.10155444,-0.5823957,-0.44244049999999996,-0.26794037,0.11203566,-0.01294602,0.49086678,0.10622982,0.52110076,-0.19583224,0.029211873,0.88438404,-0.5845491999999999,-0.03514565,0.47498474,0.27116343,0.2639388,0.11278847,0.20014875,0.15723813,0.3355416,-0.15012208,-0.06951613,0.23382205,0.41025209999999995,-0.16455516,-0.2016723,0.024930282,0.44770843,-0.08424322,-0.08424996,-0.1447273,-0.21056879,-0.023670148
ZNF703,0.31623920000000005,-0.1807299,-0.36459625,0.45962155,0.26405266,-0.09821743,-0.71652365,0.21418801,-0.26983005,-0.5036238000000001,0.37550086,-0.13499047,0.35732916,0.13940893,-0.81544065,-0.048746224000000005,-0.2109956,0.37710035,0.35685809999999996,0.3446884,-0.5055167,-0.14020254,0.009346583,0.53931874,0.3200534,-0.04571557,-0.5597904,-0.13297558,0.046021297999999995,-0.018281462,0.29014394,0.28285038,-0.09335655,0.08959994,0.5216824999999999,0.5240670000000001,0.042239964000000005,0.5640286,0.14893875,0.17875923,0.07235526,0.19010805,-0.016062788999999997,-0.18569246,0.43475035,0.39895895,-0.27828518,-0.16464183,-0.20397216,0.041397914,-0.40936595,-0.23606287,0.14329156,0.2560391,0.24112529,0.45891723,-0.46553388,0.56418914,0.50360554,-0.23087296,0.09120115,-0.02708481,-0.3734658,-0.5996739000000001,0.60070056,-0.16557474,-0.12179787,-0.09817653,-0.22519314,0.29670176,0.418809,-0.06034727,-0.06415482,0.46022147,0.30171079999999995,-0.23970956,-0.3144774,-0.002010335,-0.33941633,0.27938756,-0.04305151,-0.07417658,0.39437340000000004,0.20832308,0.46537134,-0.33264324,0.12612239,0.31416497,-0.21387756,-0.00474412,0.49782428,-0.34919859999999997,-0.11935672,-0.69296294,-0.17936353,-0.09929112,-0.7191104,0.33315554,0.08416834,0.19782205,0.14796832,0.10029814,0.34420922,0.039517008,0.26975527,-0.3240267,-0.5588173000000001,-0.45105097,0.46079212,-0.1278577,0.23663776,-0.015989063,0.018249214,0.63984287,-0.2662874,-0.55650645,-0.13530561,-0.54932207,0.26251644,-0.54899025,-0.045640662,-0.29556492,0.8098723000000001,-0.32502929999999997,0.74770117,0.27958518,0.25897908,0.19658370000000003
