label,x_0,x_1,x_2,x_3,x_4,x_5,x_6,x_7,x_8,x_9,x_10,x_11,x_12,x_13,x_14,x_15,x_16,x_17,x_18,x_19,x_20,x_21,x_22,x_23,x_24,x_25,x_26,x_27,x_28,x_29,x_30,x_31,x_32,x_33,x_34,x_35,x_36,x_37,x_38,x_39,x_40,x_41,x_42,x_43,x_44,x_45,x_46,x_47,x_48,x_49,x_50,x_51,x_52,x_53,x_54,x_55,x_56,x_57,x_58,x_59,x_60,x_61,x_62,x_63,x_64,x_65,x_66,x_67,x_68,x_69,x_70,x_71,x_72,x_73,x_74,x_75,x_76,x_77,x_78,x_79,x_80,x_81,x_82,x_83,x_84,x_85,x_86,x_87,x_88,x_89,x_90,x_91,x_92,x_93,x_94,x_95,x_96,x_97,x_98,x_99,x_100,x_101,x_102,x_103,x_104,x_105,x_106,x_107,x_108,x_109,x_110,x_111,x_112,x_113,x_114,x_115,x_116,x_117,x_118,x_119,x_120,x_121,x_122,x_123,x_124,x_125,x_126,x_127
hsa-miR-335-5p,0.07094077,-0.073423475,-0.51428425,0.4026984,0.3163681,0.07477157599999999,0.11870847,-0.048465114000000004,0.096179135,0.063292995,-0.80752325,0.28016690000000005,-0.2190846,-0.026546672,-0.67574906,0.2968295,0.45323592,0.15242791,-0.49117425,0.30333298,0.26186857,-0.00926563,0.020867031,0.13560662,0.22816457,0.31129625,0.36695886,0.15852198,-0.24062364,0.13511458,0.3858012,0.15558049,-0.12159089999999999,-0.32036158,-0.40407002,-0.11465897,0.19800743,-0.098124936,-0.39000928,-0.08374593400000001,0.4656755,-0.74429095,0.11490462,-0.41623887,-0.21177201,0.34755759999999997,-0.22592359999999997,-0.30141222,-0.5126384,0.47841606,-0.053457335,0.60567725,-0.5288556999999999,0.16730767,-0.009474939,0.5438034,-0.16527579999999997,0.6432241999999999,-0.15516031,-0.43292394,0.94043964,0.22340749,0.22633757,0.24515364,0.6792619000000001,-0.45976102,0.43695056,-0.11334838,-0.2237913,-0.21373899999999998,-0.59052813,0.71325094,0.12491655,-0.20443894,0.10967289,0.35784182,0.1316477,-0.6037986,-0.42602559999999995,-0.2227243,0.10283856,-0.30139467,-0.12762535,0.109454334,-0.5633121,0.42455474,0.16184014,-0.43833297,-0.27535623,-0.21890226,-0.032023136,0.41356054,-0.11539008,-0.21751378,-0.96614915,0.048769772,-0.16341236,-0.3934811,0.35911742,0.21506414,-0.28786936,-0.040998902000000004,0.29042435,0.31464875,0.18277042,-0.11761421,-0.11554073,0.008896474,0.11273053,0.25041965,-0.3019809,0.13039334,-0.07701727,-0.001590236,-0.30078235,-0.30341807,0.064299546,-0.00575641,-0.012347914,-0.06786944,0.43116662,-0.302043,-0.15866143,-0.26169899999999996,-0.47531372,-0.7990662,-0.22252746,0.067160785
hsa-miR-16-5p,-0.059770584,0.08590148,-0.20841998,0.5534787,0.29592140000000006,-0.5273479,-0.014825851000000001,-0.16554958,0.06628783,-0.32161126,0.005475818,0.021901976,0.66317844,0.35572457,-0.49646455,-0.04596264,-0.07590957,0.53769565,-0.13101599,0.20031206,0.110507116,0.064828284,0.022299211,0.47972655,0.23664737,0.0681632,-0.37125388,0.15824889,0.32412753,-0.017011203,0.10619324,-0.11820431,0.18314809,-0.07342778,0.062067736,0.12609223,0.074480996,-0.60000277,0.053900699999999996,-0.33129653,-0.15554868,-0.29867676,-0.24134457,-0.06352194,0.1984235,0.8211598,0.26165083,-0.062206514000000004,-0.5500404999999999,-0.509158,-0.42961925,0.28544159999999996,-0.40081483,0.36444405,-0.36225122,0.30848444,-0.07005337,0.26162362,0.13348198,-0.07298463599999999,0.13659179999999999,-0.000337326,0.45118630000000004,-0.05629905,-0.4662687,0.045968086,0.13002439,-0.18386336,0.12655996,0.060491387,0.08725567,0.12943825,0.5596929,-0.12781253,-0.14070193,-0.007085571999999999,0.0630881,-0.34675908,-0.1959158,0.3252009,0.38856593,0.39240205,-0.33723053,0.0818042,-0.07320021,0.6141798,0.33106422,-0.24734299999999998,-0.7084165,0.532447,0.14950751,-0.27846754,-0.3917421,0.056625746,-0.30899656,-0.29715908,-0.51411486,-0.19493487,0.65413946,0.5120182,-0.14191869,0.31841022,0.11937839,0.25056842,0.22830348,0.16428214,-0.17608501,0.6600194,-0.07293150000000001,0.32413822,0.00475387,-0.06841711,-0.05415795,-0.19771989,-0.5500651999999999,0.16759402,-0.5460204000000001,-0.34702557,0.15360506,-0.08367797,0.06520185,-0.22348337,-0.34773904,-0.03571745,-0.6182462,-0.1061846,-0.54165936,0.23399223
hsa-miR-8485,0.31304008,0.29973832,-0.10490061,0.5761775,0.10164821,0.039491344,0.054584287,-0.1330964,-0.34120320000000004,-0.09409684,-0.02516783,-0.009168888,-0.14625455,0.034736674,-0.5022986,-0.06957356,0.057095304000000006,0.48700878,0.02808255,0.10897655,0.31652808,-0.32565546,-0.31860745,-0.21396258,0.20676920000000001,0.62213844,-0.58610934,0.17161831,-0.06588627,0.15110189,0.14599356,-0.12897065,-0.34791327,-0.34171358,-0.5613638000000001,-0.13054074,-0.13942383,-0.0014884529999999998,-0.3422929,-0.23639995,0.033493727,-0.2556555,-0.4377365,0.014254112,-0.22342637,0.32416815,0.39078215,0.038222045,-0.45888606,0.09181622,-0.26630285,0.35882473,-0.15548897,0.5329932,0.1280648,0.04957656,0.12683524,-0.04504794,-0.38986397,-0.09771496,0.14774804,-0.23457883,0.25341220000000003,-0.18294623,0.3591281,-0.42124295,0.09628159,-0.6276038,-0.34598726,-0.08395637,-0.3110476,0.25463223,0.3517415,0.15593086,-0.19448042,0.19383870000000003,0.05230194,-0.12489335,-0.4947322,0.03887493,-0.08207105,0.36164784,-0.31561533,0.38888374,-0.32024008,0.051202763,0.46811947,-0.013579451000000001,-0.20159392,-0.07226595,0.36484692,0.11899472,-0.34238032,-0.09867551,-0.074371226,-0.1307441,-0.49153063,0.07581729400000001,0.21546768,0.46696329999999997,-0.017798461,0.23821376,0.351706,0.49311715,-0.18733260000000002,-0.020036664,-0.03110578,0.55735296,-0.050163228,0.9137413000000001,0.17435957,0.29562062,-0.38737223,-0.29760066,-0.5343215,-0.064233385,0.13291475,-0.516944,0.043857846,-0.06580524,0.5070498999999999,-0.53953826,-0.4404871,-0.013082403999999999,0.011944281999999999,-0.46735713,-0.31699342,-0.07789793
hsa-miR-26b-5p,0.5380946999999999,0.3309585,-0.15862128,0.09072554,0.32479823,0.08607218,0.09802733,0.14104149,0.31215358,0.10645387,-0.49207714,0.021051161000000002,-0.003074206,0.322326,0.10220944,0.5285361999999999,-0.23766282,0.10402768,0.09532744,-0.042340808,0.14799613,0.071105875,0.20340417,0.67825043,0.29471690000000006,0.41731158,-0.009859475999999999,-0.2726918,0.008340323,0.023595609,-0.09120891,0.5260238,0.052448317,-0.44254914,-0.19600415,0.2213025,-0.03451319,-0.24933217,-0.18235278,-0.85581154,-0.30134859999999997,-0.37825388,0.32162535,0.37943405,0.0830575,0.3333756,0.30280063,-0.36895636,-0.04049173,0.06308302,0.21502710000000003,-0.3184743,-0.1675978,0.20458923,-0.33581802,0.3832014,-0.73341066,0.15800843,-0.09265863,0.00570923,-0.015192773,0.19572459,0.34578153,0.12850332,0.36566883,-0.10797148,0.03337592,0.29189554,0.09291581,-0.24654736,-0.18633814,0.32672495,0.68020034,-0.19027203,0.019408956,0.11905182,0.31029454,-0.35687387,-0.51979655,0.50857323,0.08048284,-0.35182092,-0.17334932,0.10822226,-0.16137812,0.31106117,0.44967476,0.14693141,-0.06962710000000001,-0.057738975,0.016485449,-0.112469085,0.18362409,0.008067025,-0.55307996,-0.30691564,0.26948896,0.21455549,0.47080779999999994,0.29543048,0.040199738,0.23054546,0.50116146,0.4390024,-0.18036175,-0.21116295,0.37719828,-0.09011992,-0.41491637,0.66583633,-0.31492618,-0.0928199,-0.7789,0.21575908,-0.6173648,0.007700306999999999,0.007522191,-0.25922979999999995,-0.14215854,-0.16687027,0.60611564,0.06572725,-0.4503460999999999,-0.16650943,-0.41804028,-0.5919182,-0.20026952,0.13305096
hsa-miR-93-5p,0.59653556,-0.11819794,0.12508948,0.26980424,0.06118272,-0.24686696,0.060196333,0.03592135,-0.16865118,-0.028241089,-0.2792947,0.19963984,-0.034992922,0.035511247999999995,-0.14913468,0.62252563,0.35014290000000003,0.5420109000000001,-0.13840938,-0.04963119999999999,0.28485858,0.26310188,0.23654428,-0.14040159,-0.18990654,0.25313379999999996,-0.23269586,-0.36670887,-0.28304088,0.10404762,0.23751706,0.49572322,-0.107120365,-0.454768,-0.44781336,0.05289449,0.33826014,0.021445056,0.08226989999999999,-0.40634948,-0.1599414,-0.624499,0.13506325,0.22031439999999997,-0.026355267999999998,0.30951026,0.5487129,0.00174113,-0.6430664,0.23799987,-0.17579344,0.36579096,-0.23944123,-0.15024625,-0.348825,0.26336679999999996,-0.40121412,0.026809503999999998,-0.021195645,-0.27811623,0.35341457,-0.006474759,0.7045038,0.085957445,0.1779874,0.053054914,0.17455187,-0.13379571,0.15618387,-0.32249168,0.11699993,0.1436188,0.40149325,0.16991986,-0.17989446,0.13800871,0.14399855,-0.5681019,-0.2944987,0.3008436,-0.41487676,-0.15196656,-0.6067292,0.031349927,-0.027588436,0.45251320000000006,0.4551831,-0.11138564,0.45469916,-0.10708129400000001,-0.052567842999999996,-0.17055674,0.034289874,-0.001136276,0.19470145,-0.08823242,-0.55433035,-0.28862596,-0.063319266,0.27226263,-0.073200904,0.508726,0.5199433,0.30410326,-0.10792309,0.06975002599999999,0.28851363,0.35672129999999996,0.07462139,0.07312958,0.22242932,0.05091631,0.31231284,0.023408032999999998,-0.27902016,0.026762192999999997,-0.036826365,-0.26614282,0.07525163,0.000850662,0.45249090000000003,-0.2183748,-0.519778,0.5494653,-0.48372600000000004,-0.38034084,0.020025788,-0.22321816
hsa-miR-17-5p,-0.20199461,-0.36042985,-0.5339253,0.36732277,0.008661466999999999,-0.29808626,-0.04386806,-0.029619811,-0.10068931,0.28786257,-0.54888964,0.13874753,0.06539381,0.14428815,-0.39886805,0.06483216,0.26687598,0.037227493,0.06948932,0.19750969,-0.19992127,0.06069517,0.11478163,0.29211587,0.10217113,0.508563,-0.42951104,0.04935859,0.019006746,0.085615836,0.39211565,-0.060353447000000005,0.18814415,-0.16168305,-0.18335158,-0.17506911,0.31572703,-0.19556603,0.35312885,-0.07025367,0.13822621,0.08791273,0.010684721000000001,0.3480547,-0.03389499,0.3431336,0.16067575,0.37654840000000006,-0.64556533,-0.059450800000000005,-0.43354560000000003,0.046506304000000005,-0.57371044,-0.07092681,-0.11549521,0.099884674,-0.27154595,-0.045404735999999994,-0.110887155,-0.03697377,-0.0181014,-0.29599234,0.22655335,0.124440804,0.11350072,0.12611338,0.23509094,-0.3798282,-0.5112764,-0.2945589,-0.30027404,0.42431584,0.18706313,0.19964556,0.35665917,-0.44305944,-0.019518621,-0.09549923,-0.39177817,0.66523194,-0.18900517,0.45490482,-0.1526533,-0.4304302,-0.3424256,0.33619285,-0.20026778,0.13220873,-0.37835553,-0.08922718,0.11502493,0.09039328,-0.003680306,-0.21419138,-0.29308394,-0.20110442,-0.16339892,-0.033742536000000004,0.398044,0.034689683,-0.053439855999999994,0.0892539,-0.07349451,0.03019184,-0.3510995,0.34450617,0.6288643,0.46956417,-0.36793968,0.21381879,0.11585271,-0.34104142,-0.23329239,-0.2598644,-0.52349776,-0.23584139999999998,0.3404687,0.5298513000000001,0.50163364,-0.28815177,0.3619733,-0.3745865,-0.36651725,0.30010894,-0.6980643,-0.7769439,0.13298365,0.23829912
hsa-miR-92a-3p,0.05954115,-0.04670102,-0.5155,0.19961479999999998,0.44358876,-0.098138385,-0.050312363,-0.15435347,-0.10936719,-0.11771858,-0.68424547,0.5893251,-0.01184845,0.3319667,-0.14561209,0.27173907,-0.22814712,0.46473116,-0.39847118,0.44024709999999995,-0.00850928,-0.16829656,-0.16057113,0.07165046,0.3105559,0.38891715,-0.13273089999999999,0.022207405,0.046737693,-0.18204354,0.38627148,-0.006063742,-0.4842188,-0.63207465,-0.24534845,-0.04253628,0.05258664,-0.42709363,-0.10052736,-0.3513921,0.0037099409999999996,-0.13751549999999998,-0.19228858,0.086639754,-0.057584500000000004,0.5377373000000001,-0.39307636,0.06708655,-0.70550436,0.19156344,-0.46804650000000003,0.27195954,-0.51167756,-0.07880656,-0.09046781,0.26441076,-0.12612477,0.04090023,-0.33013505,-0.21299405,0.91923183,0.1259153,0.04513367,0.21007007,-0.073860385,0.039472148,0.5490444999999999,-0.23252979,-0.4387455,0.21077706,0.2947984,0.41402426,0.5269332,-0.006168066,0.43860699999999997,0.771858,-0.20731062,0.055015173,-0.42045456,-0.08523936,0.26876578,-0.05946406,0.12501198,-0.34420192,-0.30698746,0.29363522,0.14001082,0.11036386,-0.06397664,-0.2156654,-0.043113372999999997,-0.048455905,-0.33920527,-0.34414974,-0.26713356,-0.3826134,-0.10766429,0.02032164,0.1309454,0.5431222,0.034932945,0.27703592,0.3921942,0.51140314,-0.24601912,0.099684805,-0.07659153,0.33598778,0.06709048,-0.10436977,-0.5936154,0.52508503,0.026578084,0.08413316,-0.38580814,0.3969798,-0.21599482,-0.22253028,-0.10873945,-0.039211337,0.49212510000000004,0.27131248,-0.46318084,-0.12928112,-0.96257997,-0.4736393,-0.22725551,0.06418748
hsa-miR-124-3p,0.27140886,0.08062364,-0.12628494,0.38351524,0.059679415,-0.18760054,0.108641885,0.17902878,-0.5005632000000001,0.3307507,-0.7177439,0.42340374,-0.34425083,0.40886614,-0.075661376,0.22747251,0.64885837,0.32460877,-0.22084723,0.23504971,-0.11203204,0.059297632,-0.34660605,0.003623812,-0.45483720000000005,0.83489436,-0.5559034,0.16367002,-0.32098952,-0.096186906,-0.053092055,-0.051411383,0.032915913,0.05264842,-0.51057804,-0.13631265,-0.2602947,-0.672822,0.21711533,-0.32568172,0.46214423,-0.119321436,-0.6663323,0.36311245,-0.6510286999999999,0.39170685,-0.5192815,0.51924485,-0.31759440000000005,-0.046877052999999995,-0.0793327,0.28593916,-0.48007444,0.14411171,-0.20505168,0.61939234,-0.35420257,0.369278,-0.40938386,0.0797382,0.5589714,-0.009086495,0.5983995,0.5890333999999999,0.35063259999999996,-0.045259487,0.17842267,-0.050868403,-0.006602416,-0.26624164,-0.23569089,0.062156100000000006,0.41579499999999997,-0.2191702,-0.51627475,0.07978607,0.38845524,-0.617799,-0.3211054,0.7238775,-0.06793916,-0.11927739,-0.54621965,-0.11841575,-0.34374099999999996,0.31935078,-0.26866305,0.2251429,0.29149252,0.18049414,-0.26289108,-0.08874444,0.07336811,0.37754723,-0.48670158,-0.5755140999999999,0.48140085,0.7842631,0.03063282,0.6002603,0.23038404,-0.4266402,0.13811886,0.23716988,-0.38449794,-0.059158444000000004,-0.0009259919999999999,0.3367991,0.04594544,0.5079965999999999,-0.012213136000000001,-0.38716209999999995,-0.68133587,-0.28281649999999997,-0.34472743,0.2007259,-0.11179575,0.07666776,-0.08217563,0.39994135,0.18224347,-0.6362744,-0.10074355,0.16859049,-0.19670333,-0.3845118,0.07309506,-0.120192125
hsa-miR-106b-5p,0.19862022,0.12434939,-0.60627633,0.15652218,-0.22155008,-0.07294958,-0.6692001000000001,0.11291184,0.17354587,-0.10745782400000001,-0.5526198,-0.05116703400000001,-0.32197797,-0.27450195,-0.5760502,0.04211256,-0.03915213,0.09754669,-0.39938638,-0.43672848,0.30025703,0.08982727,-0.7366776999999999,-0.049632944000000005,-0.23694734,-0.074341565,-0.11218137,-0.28632602,0.44668314,-0.26956603,0.22858629,0.35604367,-0.14573398,-0.34018967,-0.11241378,-0.37381262,0.043356112999999995,-0.21693943,-0.272444,0.09130522,0.5390206999999999,-0.43689066,0.050653473,0.42756876,-0.10950499999999999,0.5225153,-0.18795133,-0.02665265,-0.20971535,0.06747627,-0.39427143,0.29223709999999997,-0.30158445,0.18760209,0.37827137,0.35310790000000003,-0.44125329999999996,-0.05001451,-0.44523096,0.008373618000000001,0.010783698999999999,0.52788794,-0.18582495,0.57504046,0.040437106,0.19917910000000003,0.18596715,-0.22030976,-0.47411096,-0.66912276,-0.12522559,0.013485852,0.4872616,-0.28422284,-0.012048555,0.82370013,-0.28812522,-0.024991592000000003,-0.12334959,0.39878422,0.53643125,0.11799205,-0.5144637,-0.14255168,-0.10854748,0.40242255,0.22425340000000002,0.43692020000000004,-0.33096787,-0.04463342,-0.033101693,-0.3114438,-0.32814395,-0.1448715,-0.94696057,0.2888733,-0.56434816,0.3862835,0.6544327,0.20608866,0.007311407,0.5489335999999999,0.07003148,0.33516958,-0.14511661,-0.37531683,0.55714065,0.024103213,-0.31173334,0.45129830000000004,0.25265995,0.019605303,-0.11818982,0.05417360400000001,-0.05851707,0.119163625,0.039358877,-0.29043978,0.40497140000000004,-0.16724539,0.56303924,0.10117555,-0.09126013,-0.14234418,-0.77337366,-0.55109316,-0.32249525,-0.076705605
hsa-miR-20a-5p,0.38021386,0.40977916,-0.32082304,0.11538683599999999,-0.30079597,-0.26143613,-0.34001648,-0.38268358,0.54351383,-0.10983743,-0.22079780000000002,-0.2942261,0.44069874,0.5981725,0.21200109,0.34906992,-0.47767070000000006,0.8417446,0.108248174,-0.15892741,-0.24713038,0.31791466,0.097648524,0.23820063,0.54451036,0.06257851,-0.6477991999999999,0.013011264,-0.3451585,-0.3842547,0.15737267,0.056025352,0.27061456,-0.15706186,-0.6841904000000001,-0.04846464,0.27238476,-0.62380683,0.05683988,-0.536091,0.012489257,-0.23736887,0.013733123,0.35493866,0.23570879999999997,-0.02094835,-0.11455217,0.6243914,-0.21166721,0.41922283,0.3637335,0.4309415,-0.33864203,0.23900712,-0.29360956,0.6706754,-0.13840565,-0.07499674,-0.05725115,0.033463165,-0.10466020599999999,0.4646542,0.20773295,0.4621843,-0.08828217,0.21062134,0.40255687,-0.44661137,-0.30324203,-0.08606886,-0.29227838,0.15860738,0.20734924,0.1452259,-0.049642794000000004,0.24914789999999998,0.10633939,-0.07740278,-0.2517379,0.35190040000000006,0.17077295,0.3544137,0.23398662,0.12841676,0.04090518,-0.22872037,0.26129220000000003,-0.055421486,-0.29650572,0.30760446,0.052919574000000004,0.32187328,0.16028336,-0.0045296270000000005,-0.36229825,-0.1361753,-0.37471214,0.30749685,0.39322188,0.7779517,0.029322874,-0.10534549,0.22087029,0.14660126,0.10959076,0.13038167,0.07202064,-0.18956965,-0.09822482,0.44386628,-0.53743035,0.1800654,0.10932509,0.20729662,0.024077516,0.012235417,-0.24243089999999998,-0.26471433,-0.11933416,0.23022968,0.6665061,-0.46623936,-0.7318146,-0.09947701,-0.73337907,-0.0995692,0.19582488,0.5114512999999999
hsa-let-7b-5p,0.5167361,0.43847293,0.16340059,0.57163113,0.43584449999999997,0.17483099,0.17480810000000002,-0.033275787,-0.27082437,-0.13636865,-0.50984323,-0.13780841,0.08678461,0.07634627,0.017136518,0.24957779,-0.0658885,-0.1317026,-0.040067237,0.11861225,0.33064798,-0.3922933,0.001930955,0.15341234,0.07075452,0.58724856,0.18326674,0.2247699,0.25133878,0.1998531,0.5281134,-0.31525040000000004,-0.43459073,-0.30519468,-0.66551054,-0.091461234,0.07759117,-0.12556674,0.14907803,-0.35006824,0.07381678400000001,-0.61724836,-0.10755816,0.21032842,-0.47890404,0.25884524,-0.015298619,-0.14405407,-0.30777859999999996,-0.005572723000000001,-0.14214332,0.5548930999999999,0.11001257,-0.009890386,-0.14177057,0.028251546000000002,-0.43365398,0.26634485,-0.47952378,0.10211572,0.41826054,0.18102282,0.5128437,0.39622074,-0.105065614,-0.34934232,0.09006221,0.1793971,-0.313521,-0.24147438,-0.09276286,0.13095826,0.21267445,0.26206884,-0.18858315,0.22833501,0.11784837,-0.08881933,-0.19271123,0.11462472,0.18157917,0.36705485,0.42227656,-0.07727885,-0.4640541,0.30219746,0.3248709,0.20208962,0.021496728,-0.22638139999999998,-0.27008653,0.017567744,-0.15662052,-0.10278966,-0.16634387,-0.37211344,0.37551516,-0.053924557000000005,0.31061313,0.6497345999999999,-0.21987101,0.048739082999999996,0.84277564,0.16757761,-0.03898391,-0.14514358,-0.35848168,0.06292488,-0.22498384,-0.044301648,-0.41349885,0.4297323,-0.458204,-0.45514047,-0.18551672,0.08637269,-0.027629200000000003,-0.31346753,0.33602497,-0.32867613,0.21638417,-0.35106388,-0.80156,0.21193977,-0.6023177,-0.7282166,-0.06723528,-0.22595893
hsa-miR-190a-3p,-0.05764249,0.21681967,-0.7917632,0.69635105,0.16440025,-0.30198216,0.27417344,0.027594208999999998,0.03193244,0.45761016,-0.32067508,0.4944396,0.025216356000000002,-0.010638778,-0.10265817,-0.12142089,0.018662749,0.023722105,0.032654915,0.44599774,-0.06582007599999999,-0.087512635,-0.16034874,0.12474712,0.11784665,0.38485359999999996,-0.042833492,0.021884859,-0.40009037,0.23988204,0.39409518,-0.25007764,-0.448395,-0.45676893,-0.28855455,-0.016777228999999998,0.14548902,0.03657617,-0.09695551,-0.60947317,-0.014224859,-0.33143464,0.23405118,0.013137695,-0.06810246,0.92588764,-0.23657764,-0.01222282,-0.16621335,0.13231008,-0.32057804,-0.006501466,0.04925726,-0.045633238,-0.33850208,0.68161076,-0.13945335,0.29328063,-0.06579853599999999,0.150444,0.31193066,-0.13194498,-0.09636753,-0.08381788400000001,0.33236048,-0.09559873,0.16446775,-0.21212868,-0.32760575,0.43662494,-0.14903109,0.5250215,0.71121114,0.07371391,0.17116703,0.49974409999999997,0.13639718,-0.16214113,-0.52216506,0.04745816,0.19486111,0.012018339,0.44676322,0.12712145,-0.13158396,0.40666628,0.5093145,0.6140435000000001,-0.50466853,0.1644412,-0.35181946,0.27140892,-0.07296839,-0.3269216,0.015897028,-0.20114307,-0.56027055,0.15069345,0.2684033,0.14087208,0.3331084,0.070563555,0.34695679999999995,0.020104276,0.1317713,0.099249475,-0.079194784,0.38620913,0.31324124,-0.2161087,-0.37381276,0.38139376,-0.05862119,-0.25293106,-0.3933208,-0.15561865,0.1561345,-0.38733658,0.10792929,-0.22930907,0.66045296,-0.20401633,-0.43993940000000004,0.29714704,-0.49302864,-0.4124401,0.26709643,-0.016989673
hsa-miR-20b-5p,-0.20069220000000002,-0.7517285,0.08325436,0.10742001,0.27520087,-0.28602538,0.52805245,0.053745594,0.0939461,-0.7712589,-0.26972747,0.010511668,-0.107421294,-0.09323441,0.34875926,-0.014640981,-0.48352444,-0.6032092,-0.19573194,-0.5751411,-0.002186231,0.5375603,-0.24268137,-0.45689827,0.32584727,0.28900015,-0.46722087,-0.17777276,-0.36861109999999997,-0.43848708,-0.1479306,-0.13331619,-0.14587143,-0.21951061,0.20125422,0.41886935,-0.422671,-0.0041192,-0.19633344,0.19185844,0.45448422,-0.2529027,0.16857909,-0.011037175,-0.06487712,0.1663709,0.12101633,-0.14337625,0.15122193,0.36593765,0.17625298,0.147984,0.27207327,-0.20916145,-0.18991335,0.05044228,0.21766931,0.33149123,-0.08089356,0.18491106,0.263346,-0.4849313,0.62472034,-0.05968224,0.024719656,0.70698065,0.5396382,-0.45419902,0.08884735,0.35105145,-0.40256202,0.057754185,0.19031581,-0.26799265,0.7167361,-0.31552494,-0.7773581,-0.21725886,-0.006453544,0.5941199,0.118586466,0.05486206,0.2024101,0.07418308400000001,0.28451812,-0.15034346,-0.7412263000000001,-0.014310921,0.35984275,-0.17234303,0.34842542,-0.24529637,-0.42983657,-0.17050159,-0.67361844,0.014698267,0.18678527,0.060179412,-0.029568572,0.3444219,0.014032541,-0.18335672,0.21594273,0.27421454,-0.37662628,-0.088315554,-0.46397656,0.074610114,-0.14308067,0.17121047,-0.05682105,0.07366858,-0.11600492,-0.16629079,-0.50218594,-0.28633252,0.14270659,-0.130143,0.35649106,-0.11950112,-0.22394925,-0.07697662,-0.06713398,0.30121729999999997,0.72145724,0.012751311000000001,-0.037406699999999994,0.22545925
hsa-miR-1277-5p,-0.49814415,-0.062877975,-0.025072409,0.330531,0.12663521,-0.34384128,0.20667696,0.46114913,0.16661341,-0.58833516,-0.16552077,0.46179658,-0.37530193,-0.51794314,0.15097462,0.46904898,-0.5954965999999999,-0.37703273,-0.091089875,0.21814367,0.35695267,0.5112322,0.13259877,-0.17481595,0.05279942,0.25684202,-0.45342714,-0.027815942000000003,-0.13500093,-0.97094345,-0.13670239,0.038334027,-0.27165347,-0.12572612,-0.19419062,-0.50577474,-0.24360111,-0.052331425,0.023794687999999998,-0.021900164,0.05236581,0.18336860000000002,-0.020589616,0.27125722,-0.14751354,0.6599141,0.46722186,0.124072425,0.07125932,0.67811435,0.25919735,-0.16505160000000002,0.43661565,0.2977695,0.13306789,0.402895,0.4707081,0.27070355,-0.12300104,-0.042224374,0.27110785,-0.5701841999999999,0.21947047,0.09419542,-0.058608573,0.84814423,0.6155684,-0.073820285,-0.10668278,-0.18407395,-0.5444255,-0.17908835,0.046295352000000005,-0.28210407,0.41682939999999996,-0.2916522,-0.69252574,-0.56138504,-0.19015998,0.30793682,-0.19339953,-0.013175309,0.01322247,0.08872195,-0.44078237,-0.2547895,-0.8887579,-0.25803444,-0.3824708,-0.23392063,0.5446347,-0.038995147,-0.82351536,-0.07727277,-0.11802984,0.05412864,-0.14012069,-0.11668759599999999,-0.3484967,0.10100827,0.28475642,0.6035941,0.034325417000000004,-0.003422548,-0.30892456,0.0901222,0.04878318,0.33174616,0.5380709,-0.4617282999999999,0.06901986,-0.13310695,0.44798225,-0.26045892,-0.572342,-0.38189554,-0.033259887,0.32793784,-0.27012047,-0.27069274,0.47705859999999994,0.098567,-0.13319935,-0.47784168,0.5805591999999999,0.32565686,-0.2086743,0.18895595
hsa-miR-519d-3p,0.08161732599999999,0.16913365,0.38990235,-0.23955497,-0.36914998,-0.045956187,-0.18586104,0.3345059,-0.2928486,-0.30479290000000003,-0.29637712,0.030952979,-0.16813761,-0.23826592,-0.33581778,0.03450908,0.0896949,0.0658098,-0.17232995,-0.046891185999999994,-0.5779678,0.3488487,-0.38569283,0.0017097389999999998,-0.20505077,0.28604785,-0.46826106,-0.036957875,-0.5297284999999999,-0.6352419,0.21861869,-0.11027059,0.44645318,-0.1937259,-0.60176706,0.028806797999999998,-0.3343793,-0.53431374,-0.30859435,-0.35377192,0.498592,0.07614121,-0.21825461,0.5071656,0.28264892,0.4792156,-0.3133954,-0.18938455,-0.00256588,0.32926837,0.61700594,-0.10996246,0.19827774,0.44569105,0.6215828,0.58489776,0.58519447,0.114825234,-0.09233808,0.05759296,-0.48060927,-0.6050981,0.0854068,0.16974895,0.1438144,0.64485085,0.5938498000000001,-0.37413213,0.014242323000000001,0.22842035,-0.8309076999999999,0.22660391,-0.45818156,-0.29825419999999997,0.07807151,-0.28664523,-0.43227676,-0.18404704,-0.30863324,-0.25305262,-0.03815599,-0.046200726,-0.057788566,-0.04547164,0.17115544,0.45010559999999994,-0.47491009999999995,-0.031351816,-0.45296142,-0.3069922,-0.22647089999999998,0.5241377,-0.5749496999999999,-0.15039539999999998,-0.009552285,0.5112575,-0.20103051,-0.35868832,-0.34148496,0.5053350999999999,-0.11400973,0.4835424,0.41291409999999995,-0.34750690000000006,-0.22776439999999998,0.18364452,-0.046690512,0.60440356,-0.18195316,-0.20229109,-0.17579144,-0.13577671,-0.043683715,-0.23697726,-0.051352777,-0.2257895,-0.22323400000000002,-0.44155982,0.17643568,-0.19073291,0.22067176,0.1461284,0.16365652,-0.72969055,-0.15997338,-0.061293855,-0.25070515,-0.011288092
hsa-miR-15b-5p,-0.21941525,0.30295593,-0.10109883,0.3550353,0.15613003,0.10431702400000001,-0.15129879999999998,-0.17266971,0.2821643,-0.063191086,-0.47115046,0.061547887,0.09217289999999999,0.25463992,-0.14902797,0.21687534,-0.393848,-0.08059888,-0.12883219999999998,-0.13778208,-0.17200074,0.37622482,0.18567175,0.14606062,0.12862563,0.49779847,-0.5957269000000001,-0.03693422,-0.23832601,-0.21859659,-0.01767946,-0.0496671,-0.33912525,-0.49679455,-0.6101194000000001,-0.11941189999999999,0.25753403,-0.6951468000000001,-0.13767971,-0.11052698,-0.108490944,0.07493736,-0.3171675,0.07208231,-0.3700083,0.18687245,0.06300974,0.47134670000000006,0.1014002,-0.0070313680000000005,-0.03083869,0.73994756,-0.22130476,-0.18451029,-0.008388356999999999,0.38828063,-0.32664338,0.77719855,0.19098994,0.30697697,-0.060806848,-0.08200215,0.16686116,0.3663611,-0.029682332999999998,-0.35776734,0.7443949000000001,-0.19718613,-0.26503056,-0.5901808000000001,-0.60009843,-0.14705117,0.1348616,0.13832322,-0.21759155,-0.29611409999999994,0.26855308,-0.19718765,-0.07273652,0.32381776,-0.17807336,0.30507514,0.053599678,0.100121744,-0.30010190000000003,0.03467013,0.23968154,-0.4593242,-0.7347616,0.40746656,-0.2617747,0.00304504,0.14727774,-0.05468008,-0.15589496,-0.16968906,-0.069427654,-0.6373719,0.17940448,0.64822173,0.5365278,-0.05223754,0.53868973,0.81908584,0.17230879999999998,0.21772817,0.19781323,-0.16664213,0.030661521,0.35276732,-0.24813415,0.7974305,0.12434257,0.15690422,0.03648109,-0.45715618,0.05418961,0.14199144,0.29904506,-0.12936467,0.480725,-0.44114637,-0.16336653,0.12250101,-0.82545775,-0.44085854,0.14367732,0.38306665
hsa-miR-15a-5p,0.44782358,0.12866846,-0.8159816999999999,0.45178370000000007,0.40607134,-0.19248676,0.45981988,0.031569738,-0.39990115,-0.07065827,-0.3741483,0.34204477,0.6714640000000001,-0.14680637,-0.3174137,0.62651443,-0.007839976,-0.037323497000000004,0.4285133,0.2999799,0.6459723,0.15347929999999999,-0.095093384,0.14256446,0.22268422,-0.02861829,-0.25578707,-0.18227275,0.088341385,-0.011918631,0.5015791,0.15186968,-0.4208504,-0.14641643,-0.38984945,0.22450024,-0.08086416,-0.59899807,-0.2866301,-0.1700594,-0.19661547,-0.17515872,-0.02540544,0.4509944,-0.5563781,-0.08040344,-0.15232742,-0.20713915,-0.59829944,-0.14644392,0.17022699,0.63934326,-0.17569496,-0.11400710000000001,0.05448228,0.75788355,-0.26309672,0.16252892,-0.08819529400000001,0.17752420000000002,-0.059332162,-0.9216243000000001,0.28675237,-0.25134197,0.37635136,-0.26785883,-0.048050515,-0.121833615,-0.07682234,-0.091478705,-0.011525153,-0.019182486000000002,0.3321259,0.23519252,-0.08756280000000001,0.1427167,0.29034224,-0.115616955,-0.12205414,0.25309828,-0.38576332,0.12584963,-0.27730587,0.06833144,-0.1282461,0.581328,0.37086815,-0.1269109,-0.35501313,-0.020258563,0.12951383,-0.31612596,-0.10516518,-0.10523812,-0.103657715,0.15706576,-0.14798329999999998,0.17213681,0.4267404,0.35454014,-0.11355075,0.2241882,0.09336639,0.3024524,0.2278455,0.09221588,0.028450599999999996,0.1086894,-0.120439634,0.20416020000000001,0.40892866,0.20647253,-0.16326855,0.20854314,-0.5389694,-0.42179300000000003,0.2577334,-0.10631575,0.5379499,0.144318,0.41154408,-0.030846903,-0.45199773,-0.21910106,-0.4079426,-0.22983968,-0.26256633,0.3458946
hsa-miR-19b-3p,-0.09466512,0.23817694,-0.29044822,0.61494553,0.12619129,-0.10197122,0.17021279,0.13868307,-0.5077704000000001,-0.2515183,-0.9719540000000001,0.048124127,0.14719138,0.5824772,-0.1308641,-0.14339575,0.08963519,0.073940575,0.18952660000000002,0.13359137,0.18310836,-0.21550202,-0.4090388,0.12761746,-0.031007115,0.7352420999999999,-0.48335007,-0.3667295,0.24562143,-0.07815521,-0.34045407,-0.37006079999999997,0.11082422,-0.43758637,-0.07936807,0.4032136,0.24590865,0.04996608,0.032895482999999996,-0.12651499,-0.006176963000000001,-0.47311845,-0.30674323,-0.13307281,0.30641842,0.45718485,0.20169778,-0.019008886000000003,-0.6791344,0.21927784,0.14102225,0.092213176,-0.1326138,0.20295933,0.21028006,-0.07220422,0.001489151,0.46271577,-0.26697740000000003,0.009725721,-0.08960195,-0.17385158,0.5088767,0.09589857,0.21274120000000002,0.0638764,-0.02535148,-0.2616989,-0.3659639,-0.45777583,0.25597015,-0.19791187,0.63859046,0.12688667,-0.12719022,-0.06453205,0.27264607,-0.26307034,-0.100668095,0.36738735,-0.66687936,-0.024540252999999998,-0.5313296,0.07412173,0.11941202,0.6226716999999999,0.13999920000000002,-0.16213305,0.110017054,0.06917203,0.16443139999999998,-0.08346809,0.37219778,0.007112661,-0.054132827,-0.21406938,-0.26948667,-0.048224937,0.30941445,0.31618837,0.45575148,0.002426551,-0.042905424000000005,-0.32487667,0.29020070000000003,-0.13464738,0.28015238,0.6976964,-0.14133522,0.32169095,0.643163,0.47631365,-0.22711723,-0.23581205,0.014393201999999999,-0.08636328,0.010748887,0.25783306,0.58817095,-0.36416903,0.40867373,-0.25806737,-0.038088985,0.08261423,-0.2566833,-0.8391704,-0.21138783,-0.24168654
hsa-miR-106a-5p,0.40601498,0.071909554,-0.44499713,0.6923720999999999,-0.001610028,0.064805835,0.18425608,-0.06131796,-0.20743755,0.06711213,-0.77138966,0.19226432,0.2846618,0.06437656,0.01951435,0.47784254,-0.022978615,0.51029646,0.20965029999999998,0.34860295,-0.18211576,0.29002467,0.17350435,0.1914299,-0.009354393,0.6546095999999999,-0.84408265,0.016611734,0.31183618,-0.05226806,-0.08536073599999999,0.05883434,0.42949709999999997,-0.37660074,-0.15439196,-0.05831227,-0.055564206,-0.2458094,-0.015397217,-0.33344555,0.45737895,0.19872276,-0.13831058,-0.13498752,-0.033481758,0.42882466,-0.11088926,-0.17977232,-0.2304596,0.13796383,-0.32902038,0.44604385,-0.17738734,0.12808846,0.28692399999999996,0.27816474,-0.041405983,0.23275259,-0.28619727,-0.1257406,-0.010555458,0.16074964,0.003854377,0.32139429999999997,0.0068344569999999995,0.26767442,-0.21945633,0.010515538999999999,0.09783856,-0.47873947,-0.08756312,-0.15851127,0.43269235,0.1331435,0.0006494059999999999,0.33977488,0.29687518,-0.14435738,-0.5449089,0.47141075,0.02292717,0.17674571,0.12789077,-0.17151353,0.013485958999999999,-0.01513475,0.03785439,0.38075632,-0.18043374,0.26565936,-0.12270914,-0.05530291,-0.33059907,0.1365933,-0.6941729,0.07151766,0.23041460000000002,0.03903997,0.12372246,0.07183753,0.14449918,0.09274161,0.006941207,0.7971545999999999,-0.35755906,0.029438553,0.18990077,0.35460472,-0.28414398,0.0999213,-0.24983670000000002,0.25034029999999996,-0.11139251,0.14244469,-0.26575834,0.26007440000000004,0.113556266,0.5681019,0.5116571,0.11228532,0.335517,0.10713082,-0.5867114,0.06519466,-0.29141006,-0.28186458,-0.28613642,0.32421723
hsa-miR-155-5p,0.10958463,-0.03608567,-0.21721756,0.6199974,-0.08670274,0.15690103,0.43566844,-0.03597679,-0.05643946,0.06822503,-0.003162817,0.54289293,0.11372649,-0.25981554,0.017271776000000003,0.63891035,0.11278255,0.5276681,0.03353003,0.24174745,0.16576709,0.21068865,0.15566482,0.60761905,-0.25389615,0.17795396,0.18406484,-0.09547173,0.44639856,0.4811407999999999,0.10423423,0.23430228,-0.090376675,-0.4185745,-0.28921086,-0.08361112,-0.22898892,-0.08821447,-0.38456586,-0.17739764,0.10121681,-0.6016698,0.12462307,0.30187207,-0.47795817,0.19251797,-0.09851448,0.010363234,-0.73185784,0.38314041,-0.18769288,0.1448175,-0.12779184,0.008513624000000001,-0.24617808,0.37229872,0.010314349,-0.24064225,0.15324426,-0.37588784,0.1563296,-0.36480656,0.30847833,-0.111219175,-0.26115320000000003,-0.50199324,0.10422802,-0.23180294,-0.0836583,-0.32803127,-0.24401431,0.0985747,-0.030527223,0.04479868,0.08338034,0.5660615,0.31427288,-0.70273197,-0.9498018,-0.26934955,0.053710658,-0.06214925,-0.11549526,-0.22811823,-0.42977065,0.011823031999999999,0.65059716,-0.43862426,-0.08130658,0.019727258,-0.34533,-0.09645139999999999,-0.4720861,-0.43700320000000004,-0.13162692,0.32391566,-0.21430862,-0.14566603,0.34255975,0.23672435,0.33029240000000004,-0.114289895,0.9031331,0.001764181,-0.528295,0.019228923999999998,-0.01720476,-0.16962785,-0.11530626599999999,-0.21736504,0.22335191,0.7356176,0.14345022,0.46321523,-0.34733734,0.15618868,-0.06284542,-0.2757775,0.11673752,-0.110954,0.40139472,-0.37474394,-0.63273335,-0.34684294,-0.6725125,-0.15331174,0.08461439,-0.072970174
hsa-miR-1827,0.2750804,-0.16476884,0.40500847,-0.043452553,-0.4921858,0.049278703,-0.091812745,-0.1379113,0.7665771,-0.33146253,-0.49953967,-0.45663592,0.40044009999999997,-0.4012335,-0.15273374,0.6269176,-0.11299199,0.14660826,-0.5853976,-0.21156134,0.26578927,0.048841264,-0.10277571,0.03358375,0.3609929,0.32667488,0.22087932,-0.33401814,-0.31496304,-0.40959229999999996,0.20640068,-0.11071233,0.4519852,0.29137929999999995,0.1389039,0.3182759,-0.32747903,0.05610386,-0.011707177,0.16553287,0.009954426,-0.3014666,0.11342585,0.31110713,-0.37937385,0.40447387,-0.14558086,-0.011864372,0.09959498,0.32370767,-0.17817172,-0.39149672,-0.038970344,-0.070613965,0.095422044,-0.04491632,0.2985946,0.33088747,-0.020823585,0.047623597000000004,-0.5045907000000001,-0.32825753,0.008930877,0.16393122,-0.27167973,-0.23644875,0.007569571,-0.08362958599999999,0.1815852,0.41862467,-0.6282666,-0.13876729999999998,0.060724564,-0.51628643,0.3024436,0.062160254000000005,-0.2619942,-0.06239316599999999,0.35941595,0.20875952,-0.23076034,0.26228,-0.029876042000000002,-0.066843204,0.1284194,-0.34716672,-0.43930727,-0.12841488,-0.19514905,-0.38055184,0.31221005,-0.5135867999999999,-0.67687213,-0.030522581,-0.37640858,0.37809545,0.25697973,-0.060178913,0.27599406,0.07582163,-0.07200264,0.41255295,0.12655014,0.47764447,-0.20510830000000002,0.11244877,-0.11603599999999999,-0.32746387,0.35605848,-0.27220386,-0.06797334599999999,-0.06627419999999999,-0.31712925,-0.37630165,-0.95803314,0.21476345,-0.11225374,0.08727335,0.034613818,0.1361591,0.28342485,-0.30067396,-0.005824777,-0.06651956,0.2795867,-0.4517017,0.5839837,-0.3325666
hsa-miR-1-3p,0.106851846,0.17587437,-0.3685245,0.28190708,-0.16929315,-0.37414584,0.04646253,-0.049216628,-0.19182634,-0.18591589,-0.38885412,-0.34585348,-0.01708519,0.12446736,-0.31516215,0.64553905,0.18713310000000002,0.09781153,-0.015500166999999999,-0.11848732,0.45684373,0.10804133,-0.62235254,0.031488392999999996,0.14839059,0.00491778,-0.58872575,-0.22998433,0.12885651,-0.15997289,-0.030167613,0.58349866,-0.15274128,-0.4216509,-0.14226024,0.09126702,0.58042645,-0.90974456,-0.06699496,-0.5292448000000001,0.2872498,-0.5731227,-0.062544316,0.09178181,-0.06881481,-0.16804673,0.36395723,-0.11453601,-0.053428542,0.22165129,-0.12135559,0.7203688,-0.5134143,0.31455675,-0.08837892,0.49654213,-0.11160089,0.6274195,-0.44849744,0.07431669999999999,-0.10438304400000001,-0.43619353,0.25428382,0.21228418,0.23506077,-0.11646518,-0.000874087,-0.4914993,-0.24161845,-0.60712224,-0.18636607,-0.10740903,-0.013510194,-0.18318066,0.3553364,0.04380682,-0.041846726,0.014370311,-0.28193387,0.3962401,-0.6067339,0.11150252,-0.26388259999999997,-0.061865687,-0.12523888,0.29509577,0.23934132,-0.15959635,-0.25529668,0.20997362,-0.23465225,-0.34536633,0.16665995,0.10485097,-0.11406869,0.54599416,0.006361581,-0.1677126,0.55483437,0.22349381,-0.21826261,0.29014125,0.32217193,0.40762859999999995,0.32445574,0.27890563,0.4854469,0.16725515,-0.259255,0.22431327,0.13938421,-0.3280395,-0.69059885,0.3728506,-0.05013292,0.21287094,0.39956054,-0.06584332,0.53195614,0.18056129999999998,0.1864772,-0.18579523,-0.29104117,-0.09749665,-0.269972,-0.24802102,-0.18508232,0.042700958
hsa-miR-195-5p,-0.10906501,0.184529,-0.7558362,0.29451212,0.6224363,-0.50285554,0.27913790000000005,-0.035478316,0.34869418,-0.23905645,-0.68085766,0.3149663,-0.37552243,0.12587443,0.034038816,0.27179444,0.14799544,0.6620560000000001,0.053725712,0.27227023,0.063530356,0.119664825,-0.1645554,0.18015365,0.21195288,0.45146329999999996,-0.8453269,0.29945487,-0.13902459,0.14949289999999998,0.001905646,0.23677443,-0.096256435,0.03605243,-0.46615922,0.08856156,-0.1986878,-0.21660168,0.27953058,-0.04822345,0.04178428,-0.12653556,-0.057742015,0.33514154,-0.2656458,0.20004937,-0.23317842,0.4438805,-0.40728128,-0.13919035,-0.25676152,0.4403762,-0.6000382,0.48580024,-0.41753343,0.7927984,-0.37459302,0.33370885,-0.58252096,-0.21084349,-0.09678466,0.41858009,-0.21895024,0.33012587,-0.019979177,0.15303189,-0.069998175,-0.3657823,0.007690518,-0.39730182,-0.50795895,0.051244177,0.15844165,-0.10694709,0.06782425,-0.06906736,-0.01427057,-0.055770400000000005,-0.6597028,0.36670396,-0.00038638699999999997,-0.21297070000000004,-0.66463923,0.018812798000000002,-0.4349992999999999,-0.008910154,0.21604264,-0.02243697,-0.18791601,0.33748135,-0.26480198,0.20037965,-0.14279278,0.24583061,-0.122300036,-0.2287817,-0.23917565,-0.07652377,0.053182244000000004,0.17841583,-0.30589187,-0.067905895,0.43782088,0.10133885,0.005349171999999999,0.014645933,0.057578795,0.5108931,0.38872212,0.21919970000000003,0.03435788,0.09303919,-0.043901287000000004,-0.059059615999999995,-0.14861977,-0.25789925,0.13976562,-0.17172271,0.23030329,-0.38319677,0.5096452,0.0809584,-0.24452412,-0.12237477,-0.31756094,-0.42199045,-0.52978176,-0.035424523
hsa-miR-4728-5p,0.19891679999999998,-0.18286997,-0.92585975,-0.19031252,0.4887764,-0.57404715,0.62434804,-0.3033574,-0.19252753,-0.28526515,-0.16759886,-0.40976304,0.089510694,0.32946777,0.40395412,0.21510140000000003,-0.1021805,-0.6966305,-0.20839985,-0.6431045999999999,0.13236141,0.39385015,-0.47799018,-0.11472474,0.27246190000000003,0.54944247,-0.44071722,-0.021403792999999997,-0.6188276999999999,0.015765352,-0.25776923,-0.05306667,-0.31687015,-0.29169768,-0.12889716,0.40354145,-0.42636523,-0.09201611,-0.098635375,0.13532649,-0.15500346,0.037485924,0.04534915,-0.04284398,-0.4838383,0.50075006,-0.5371299,-0.4303468,-0.2829615,-0.034470536,-0.096557416,0.05194954,0.26074135,-0.34399617,-0.18623663,-0.18086074,0.14448865,0.5779528,-0.63892245,0.2036883,0.33607509999999996,0.22728936,0.21695635,0.27370182,-0.21042348,0.051186707000000005,-0.026623400000000005,-0.15818165,0.59020454,0.25318965,-0.34170659999999997,-0.22252981,-0.44802737,-0.45409045,0.15213555,-0.25305414,-0.11329653,-0.051036555,0.42309058,0.42349082,0.33141336,-0.11980961,-0.40517542,-0.20352769,0.002615126,0.103442214,-0.43417165,0.2560902,0.44298276,-0.24113028,0.31092846,0.08194511,-0.27283090000000004,-0.055897586,-0.7211544,0.41159722,-0.28890824,0.30764648,-0.045205917000000005,-0.24174255,-0.04666647,0.23923269,-0.05174008,0.1813092,-0.36715066,0.2524561,-0.27568346,0.37573385,-0.20819718,-0.0947853,0.41654659999999993,-0.69934493,-0.09039019999999999,-0.002634022,-0.6540115,0.30999422,0.05738485,0.22769749,0.23911293,0.3205461,0.45532259999999997,-0.16252142,-0.1258257,0.23361886,-0.14446276,-0.09322101599999999,0.31057027,0.013772553
hsa-miR-149-3p,0.79322827,-0.29124759999999994,-0.33244744,0.12711458,0.06608586,0.2858004,-0.28269213,-0.20146683,-0.29151714,-0.0692854,-0.32449237,0.1401067,0.13991217,-0.028320123,-0.5649702,0.38463452,0.3618902,0.46956006,-0.68034726,0.09101588,-0.004433679,0.09244045,0.18658812,0.28435034,0.10261477,0.28065813,0.10590618,-0.27207813,-0.13922846,-0.33411577,0.09722319,0.08135973,0.1883969,-0.35245067,-0.1652794,-0.34430920000000004,-0.25136410000000003,-0.6220896,-0.5191195,-0.36750123,0.17316312,-0.100473225,0.17226946,0.18684663,-0.14004548,0.19511032,-0.40178204,0.013355845,-0.39412922,-0.17548269,-0.2350635,0.38181138,-0.24596179,0.16925293,0.31507936,0.47042143,-0.45838290000000004,-0.20171924,-0.14173333,-0.050346237,0.27293959999999995,-0.3059935,0.31011373,0.32164037,-0.384886,0.2687826,0.35860068,-0.17675288,-0.6177479,-0.41383857,0.44288406,0.09804467,0.4069811,-0.5588679,0.21503487,0.1968541,-0.529288,-0.06671569,-0.7747361999999999,0.02895981,-0.0034107190000000004,0.019071246,0.17176889999999997,-0.33862817,-0.16734087,0.032808334,0.40179446,0.15749651,-0.002147001,0.17618385,0.42988843,-0.35683656,-0.37142733,-0.12051651,-0.30985942,0.065101184,-0.22080295,-0.40478387,0.6407833000000001,-0.12432138,0.44656634,-0.3965488,0.19561337,0.058110435,-0.6624685,0.034094013,0.010735638,0.02049993,0.21201779999999998,0.02968771,0.58320826,-0.3372354,-0.28781173,0.07974322,-0.23756576,-0.06563301,0.041930858,0.28255796,0.17454277,-0.3892546,0.64281327,0.07325243,-0.4686274,0.2173821,-0.7130999,-0.30836199999999997,-0.13314427,-0.058852967
hsa-miR-329-3p,0.54586214,-0.11551171,0.37049094,0.42082240000000004,0.6101064,0.48918933,-0.10783633599999999,0.18247667,0.44379202,0.049651957999999996,-0.7885445,-0.25733635,-0.29704949999999997,0.22832973,-0.09326641,0.17558178,-0.14418654,0.033263557,0.09779426,0.16181038,-0.37605120000000003,0.32908200000000004,-0.016577654,0.22375798,0.26372004,0.06759682,0.17917083,-0.15667821,-0.6549012,-0.06906194,0.23719768,-0.13546292,0.40681540000000005,0.0048652059999999995,-0.38177302,0.25082946,-0.2327399,-0.062928505,0.075565316,0.3129383,0.30586199999999997,-0.30362278,0.34323618,0.2147869,-0.28431216,0.7005477,-0.28311694,0.24099049,-0.11627676,0.43466055,-0.07302819999999999,-0.2934622,-0.25131529999999996,-0.27320707,-0.021819234,0.17833745,-0.43206579999999994,0.09726889999999999,-0.50483614,0.33024547,0.06944861,-0.42466995,-0.07826262,0.042077564000000005,0.104090534,0.27687815,-0.17283556,-0.6752165,-0.07182947,0.48673734,0.120732546,-0.21689507,-0.012523741000000001,-0.25352255,0.6939238,-0.22685045,-0.5541088000000001,-0.27392185,0.15006891,0.5033397,0.08751394,0.43793452,-0.27799588,-0.37464390000000003,0.35462332,-0.04346073,-0.64036596,-0.5376486999999999,0.10143919,-0.17336956,0.07161678,-0.5199853,-0.35450655,-0.13604358,-0.30271378,0.115522385,0.051446535,-0.08140653,-0.46081585,0.4403485,0.3490261,0.32913858,0.24670321,0.29671454,-0.46769170000000004,-0.04382444,-0.50502515,0.49586959999999997,0.025052255,-0.85143757,-0.34621653,0.30102779999999996,0.5220234,-0.33525154,-0.735394,0.047374494,0.29274659999999997,-0.5871542,-0.21040182,-0.50058603,0.11043913,-0.7065051999999999,-0.07480293,-0.11827628,0.34306747,-0.1952568,0.044300564,-0.09576132
hsa-miR-362-3p,0.3907256,0.09030021,-0.69893897,0.07949396,0.29622334,-0.23011929,-0.27400318,0.14781131,0.07030856,0.03318601,0.10126308,0.4722307,-0.061154865,0.10571227,0.23580416,0.16338825,-0.27470097,0.45004222,-0.24225332,0.13063796,-0.17982738,-0.043042752999999996,-0.16183965,0.15446572,0.4107686,0.46470594,-0.27841502,0.08095905,-0.37636214,-0.075571224,0.17322737,-0.16958492,0.3755597,-0.3041125,-0.61149216,0.39843202,0.22947934,0.06292537599999999,0.41598383,-0.24122173,0.12444338,-0.297925,-0.049074575,-0.11027419599999999,-0.34904566,0.44901472,-0.09837518,-0.41676409999999997,-0.33978927,-0.35005575,0.23377444,-0.08722545,0.12033888,0.33322979999999996,0.14647235,0.7120086999999999,-0.103361174,0.29843473,-0.22026727,0.17763029,0.5283465999999999,-0.16191001,-0.040828045,0.8541584000000001,-0.088262215,-0.16851772,0.30987272,-0.43252692,-0.24021374,0.3082634,-0.25935504,0.07556638,0.3702654,-0.31300712,-0.027536415,0.26826662,0.021114372000000003,-0.20711002,0.09032165,0.06716658,0.41241700000000003,-0.14819908,0.13012761,-0.52010787,-0.18023576,-0.23458543,-0.16029415,-0.13449399,-0.24515446,0.44464946,0.000103832,-0.046615902,0.62037027,0.12273566400000001,-0.14844106,-0.099976815,-0.19376601,0.10120814,0.3546393,0.2705796,0.41372466,-0.06893164,0.068473555,0.56373215,0.07462758,0.10167213,-0.18744576,0.6171165,0.23117673,0.3651781,0.16423853,-0.1308111,0.30643332,-0.7559664,-0.6169872,0.55493337,-0.38454297,-0.27047405,-0.10565217,0.07657652,-0.10812535,-0.39697808,0.039948523,0.4054933,0.02939076,-0.6232395000000001,0.12493323,-0.13835302
hsa-miR-6785-5p,0.23028125,0.28665674,-0.36395702,-0.30128196,-0.2511989,0.16476153,-0.17319821,0.025848238,0.06538679,-0.23550107,-0.6751026,-0.02565225,-0.24057403,0.5122957,-0.25489828,0.38883543,0.017123152,0.20318615,-0.03905355,0.13958466,-0.022645107999999997,0.060358997000000005,0.22125782,-0.085457206,0.16339915,-0.35671467,0.21002555,0.11356329,-0.48051244,-0.08938061,0.48183534,-0.07153701,0.5406154000000001,-0.11628756,-0.11152011,-0.25005406,-0.42605305,0.074209444,-0.6250679,-0.26367399999999996,0.12646972,-0.05749337,0.3121702,-0.07880418,0.1487996,0.30167988,-0.28403452,-0.19225328,-0.17355649,-0.40343112,-0.049145795,0.91496235,0.17223799,-0.033105545,0.2704669,0.2950308,0.12230086,-0.1112173,-0.07537746,0.10403477400000001,-0.49809337,-0.07718771,0.084486954,0.12992461,0.24394919,0.054395936,0.57533413,0.18427079999999998,-0.1903713,0.11583966,0.043270275,-0.111756675,0.15853903,-0.07088539999999999,0.12173097,0.10563004,-0.16849118,-0.36757612,0.08639706,0.8330105999999999,-0.019430095,0.22387929999999998,0.12309518,-0.76825696,0.2367519,0.027139526,-0.52990067,-0.35679618,0.05753822,0.0023647860000000002,0.034420352,-0.17140022,0.0027378790000000004,-0.5468859,0.4171379,0.38210762,0.39506832,-0.04862878,0.37121314,0.037547752000000004,0.31203645,0.12478252,0.25709993,0.101373546,-0.035803586,-0.18857179999999998,0.5730036000000001,-0.05511247,-0.34655595,-0.21858197,0.37573186,0.15587364,-0.27514282,-0.33663064,-0.06866259,0.18823592,0.22947915,-0.45579103,0.36537296,-0.016265376,0.60523784,-0.01667716,0.14550839999999998,0.42948326,-0.2741324,-0.45639929999999995,0.9169265,-0.24957585
hsa-miR-6883-5p,0.18712083,0.3171067,-0.5882951999999999,-0.10000975,1.0403165,-0.2963086,0.41963518,-0.24236608,-0.34367442,-0.34845892,-0.23954888,-0.051422097,0.09463287,0.087966494,0.03914167,-0.41264683,-0.052691508,-0.10897756,-0.36496708,-0.7196694,0.34219345,0.36821917,0.022121567,0.18467160000000002,-0.17828624,0.2907281,-0.23051544,0.16420953,-0.12710863,-0.14953709,0.08640221,0.22965942,0.56130445,-0.088330895,0.17074414,0.31138134,-0.032262415,0.20067175,-0.37489265,-0.24367838,0.051121652000000004,0.14483806,-0.24643497,0.10131475,-0.021624902,-0.23394954,-0.329536,-0.17286496,0.10920036,-0.21865803,-0.12482187,-0.11843991,0.090109535,-0.03176405,0.30198544,0.49372166,-0.3599953,-0.22059725,-0.13612828,-0.036832955,0.044460155,-0.06374309,0.23960575,-0.10206128,-0.34195390000000003,0.6460241999999999,-0.03894307,-0.068112195,0.38900313,0.15048338,-0.36278692,0.09194477,-0.16573471,-0.062744126,-0.021438822000000003,-0.09905543,-0.4954446,-0.08923810000000001,0.042625017,0.09192254,-0.5667489,0.12758163,-0.32757258,-0.17242412,0.44651359999999995,0.45702988,-0.11032793,-0.12271968,-0.20169218,0.27987102,0.12899135,-0.310042,-0.6934013000000001,-0.30204222,-0.048450828,0.37715566,0.07443057,-0.11944009,0.6175243,-0.44674185,0.22657551,0.39602596,0.098022155,0.23793301,0.7052623,0.50199646,-0.06049531,0.60289246,-0.0741451,0.052773528,0.23193306,-0.35605395,-0.33815852,-0.18194005,0.31756786,0.18745929,0.44019052,0.09534314,0.3199489,-0.28674337,0.16195542,0.102359936,0.08127113,0.10767031,-0.715178,-0.14256087,-0.07868068,-0.21191022
hsa-miR-455-3p,0.003864153,-0.06734946,0.16101463,0.07854786,-0.33847868,-0.11698287,0.22723569,0.46719682,-0.005921895,-0.14363955,0.019944746,0.10727999,0.09594379,0.07766869,-0.11918644,-0.15733135,-0.30353227,-0.24872836,0.14211126,-0.11507938,0.1930876,0.6684422,-0.30427283,-0.019836666,-0.03414895,0.5660889,-0.7392534000000001,-0.024256146,-0.34354576,-0.6422706,0.35748157,0.00981692,-0.028763458,0.12569793,-0.74795115,0.22727488,0.08122021,-0.35240108,-0.20170708,-0.34468257,0.21547456,-0.43445328,-0.6417959,0.45088059999999996,0.24663207,0.2269922,0.10575095,-0.12962626,0.08973643,0.770461,0.07651629,-0.022706628,0.32699275,0.5119509,0.012103114,0.6015216,0.38000409999999996,0.30116338,-0.28976017,-0.08380486,-0.47992706,0.24867292,0.42067847,0.22661243,0.2866782,0.24846233,0.7795376,-0.18084173,-0.027730038,0.03226994,-0.06219147,0.036510557,-0.40059713,-0.5800868,0.5049621,-0.31921214,-0.5068401,-0.39815858,-0.27553883,-0.028264353,0.26111543,-0.043444734000000006,-0.10205134,0.13736293,-0.10491491,0.77448624,-0.28967893,0.58089495,-0.2298129,-0.3714813,-0.020577116,0.0046366770000000005,-0.5043622,-0.33206740000000007,-0.17030558,0.41190466,-0.047799114000000004,-0.47370100000000004,-0.18744393,0.5350955,0.03840261,0.35826024,-0.067905016,-0.18891609,-0.27748725,-0.18533356,-0.2728079,-0.017101789,0.3608118,-0.29152554,-0.18143420000000002,0.50579476,-0.089891344,-0.14634760000000002,-0.07252461,-0.24364579,-0.31778547,-0.8258840000000001,-0.20237385,-0.6696357,0.4036885,-0.017119385,-0.20275332,-0.35962543,0.3393055,0.19875218,-0.15713786,-0.1048555
hsa-miR-603,-0.106093794,-0.20957804,-0.21272786,-0.09910907599999999,-0.13165805,0.31931567,-0.042828705,0.44094044,0.42909949999999997,-0.45789146,-0.37666026,-0.024547916,-0.116932414,-0.31184763,-0.14341836,-0.05321332,-0.5092568000000001,0.020655336,-0.23452142,-0.52000296,-0.00889133,0.028052967,-0.040015094,-0.37175733,0.08597125,0.66625464,0.040114712000000004,0.5081333,0.32236964,-0.40695825,-0.19165611,-0.068599075,0.12610175,-0.18031847,-0.6327010999999999,0.24695465,-0.26646435,-0.77119327,-0.044125773,-0.39368775,0.6500096,0.1741937,-0.35303128,0.6514291,0.087852165,0.14603013,-0.22777799,0.21551990000000001,-0.040847406,0.3397742,0.005886424,0.26259917,0.5574941999999999,-0.09332298,0.32747504,0.5925123000000001,0.41906726,0.6141039,-0.25011479999999997,-0.21284798,0.44102183,0.019285705,0.4911670999999999,0.3906862,0.45955396,-0.24568558,0.247959,0.37226808,-0.17883575,0.7815019,-0.26580527,-0.30547327,0.35786498,-0.42936108,0.16215685,-0.0754744,-0.66293037,-0.31869093,-0.54516864,0.03104384,0.064401366,0.3318018,0.18971522,0.080444515,0.33986259,0.29321003,-0.62537074,0.20169072,0.3976112,-0.122633405,-0.046709087,-0.04015065,-0.3519425,-0.37149835,-0.19350521,-0.08542253,-0.002844519,-0.6342026999999999,-0.54949576,0.17610016,0.24374312,0.10240106,-0.20170453,-0.357059,-0.08859199999999999,-0.30518526,-0.39827582,0.3754447,-0.024596002000000002,-0.5382166,-0.29670759999999996,0.20403992,0.7051505,-0.25053915,-0.38436532,-0.23815423,0.38617995,-0.38355204,0.37566832,-0.5745054,0.6135085,0.33879122,-0.3465241,-0.25777656,0.06316674,0.050905287,-0.27919132,-0.18100323
hsa-miR-526b-3p,0.017919077,0.11196093,0.21377766,0.36540300000000003,0.09831111,-0.07369588,-0.11305871,0.15798992,0.42952463,-0.35915783,-0.09839468,0.12106153,0.020612307,-0.44604892,-0.30377263,-0.11863718,0.012682141000000001,-0.052899715,-0.47859702,0.032768615,-0.17304854,0.052598115,-0.4398444,-0.18844546,-0.07988114,-0.18335441,-0.4233564,-0.16871783,-0.23683426,-0.8054098000000001,0.07058851,-0.10158193,0.35291538,-0.000967163,-0.05821377,-0.09699997,-0.43904963,-0.40379688,-0.152915,0.15808599999999998,0.060011134,-0.006146395,-0.02557606,0.29207690000000003,0.31874332,0.25867406,-0.03558219,0.06976377,-0.19545278,0.69021845,0.29010564,0.10004096,0.27538824,0.6338391999999999,0.24764557,0.092828386,0.6489924,0.5609258,-0.22692202,-0.29126588,-0.46737920000000005,-0.19208303,0.18770117,0.20055538,-0.2542989,0.3736697,0.6885293,0.046223145,-0.09714925,0.12395026,-0.7255003000000001,0.32563909999999996,-0.14407904,-0.008093962,0.35284272,0.13707338,-0.48237082,-1.2063267,-0.05644361,0.1933672,0.12749417,0.30213755,-0.38844913,0.089133486,-0.31462908,0.39824104,-0.2620749,-0.4157112,-0.07508273,-0.002268772,0.29707307,0.034260012,0.27343917,-0.16050556,-0.33183184,0.28370008,0.18737939,-0.050606715999999996,-0.00071629,0.3077112,-0.44009274,0.32272199999999995,-0.001231111,-0.10030468,-0.59388185,-0.45823595,-0.67781675,0.06638799,-0.2625731,-0.98120326,-0.010036836,0.7531972,-0.04728001,0.0365858,-0.20573631,-0.19447759,-0.09735625,-0.16280906,-0.016262144,-0.31159568,0.19155689,0.14608419,-0.23698418,0.029567827,0.20965096,0.39698726,-0.42108834,-0.41887840000000004
hsa-miR-192-5p,0.15545394,0.36733016,-0.43038279999999995,0.19195911,0.3335652,0.28430688,-0.35239366,0.26182747,0.000499674,0.21438116,-0.4505803,0.100472145,-0.10657219999999999,0.33405754,-0.3903112,-0.12431734,0.09760740400000001,0.2537723,0.04526,0.14905529,0.055505738,0.38079894,0.27876285,-0.12599595,0.23813063,0.13644761,0.062441014,0.25255308,0.2061578,-0.2580825,0.010768876,0.122824796,-0.42683417,-0.20550068,-0.37868837,-0.027994013999999998,-0.17859276,-0.3113688,0.043564957,-0.15038519,0.50001854,-0.36673376,-0.40550873,0.35791808,-0.03581911,0.6841351,-0.094779305,0.08114344,-0.3587714,0.02592485,-0.023838377999999997,0.25194436,-0.29906487,0.03250429,-0.17413974,0.51245594,-0.079838045,0.56450474,-0.42253083,-0.28688905,0.06952782,0.43666917,0.3721158,0.51832277,0.22107935,-0.42844388,0.27495673,-0.49160105,-0.85444033,0.0585626,-0.2351958,0.37420008,0.03700124,0.032779607999999995,0.05819968,0.17586121,-0.19376205,-0.11500125,-0.31794897,-0.015285933,0.11404642,0.040568177000000004,-0.59682107,-0.13194324,-0.2545722,0.5098039000000001,0.09529398,0.018790795,-0.5798376000000001,-0.27750929999999996,-0.061699915999999994,-0.46654916,0.116665475,-0.575113,-0.45909673,-0.022939572000000002,-0.09138447,-0.12386111,0.5043105,0.21781115,0.18424447,0.11660102,0.29547054,0.97580636,0.32530567,0.267677,-0.23134823,0.3363041,0.047691002,0.12997894,0.33731344,0.38122576,-0.0066979119999999994,0.33517763,-0.6128292,0.27696124,-0.2010264,-0.032452893,0.5622804,0.008069333,0.5570262,0.021948494,-0.06933264,0.01493205,-0.39963195,-0.8820713,-0.18778235,-0.40860799999999997
hsa-miR-98-5p,0.41535637,0.24178779,-0.18636848,0.34442997,0.24548414,-0.49139193,0.35594007,-0.29857993,-0.3253229,-0.020602815,-0.44021720000000003,0.31622168,0.27046287,-0.022891935,0.32895017,-0.05394807,0.0033593390000000002,-0.15189336,-0.09312848,0.18410021,0.15399037,-0.42740086,-0.018629545,0.15513095,0.105883375,0.07007745,0.18025553,-0.11690758,0.04856792,0.0731903,0.38452256,-0.33535576,-0.27807057,-0.26581168,-0.26859292,0.057080217,0.24462368,-0.5031732,-0.5237882,-0.6512566,0.15025286,-0.43447778,-0.5330989,0.25155900000000003,0.3718864,0.050359715,0.13153154,0.08474910000000001,-0.6303473,-0.16376035,-0.1673182,-0.07949338,-0.09545507,0.26696494,-0.24634929,0.16834289,-0.108044825,0.4002124,0.06600634,-0.3642997,-0.41414922,0.2993325,0.51153374,0.20690438,0.36785254,-0.3392355,0.48095834,-0.12500174,-0.030624192,0.17693591,-0.16286801,-0.35672270000000006,0.34710979999999997,0.14302446,0.054495838,-0.027287766,-0.38025987,-0.3474045,-0.15334854,0.100103416,0.16277277,0.12857808,-0.49587417,-0.48054045,-0.18330629999999998,-0.14111899,-0.20416985,-0.08590872599999999,-0.30313850000000003,0.41442183,-0.21867016,-0.024296042,-0.64678633,-0.07758427400000001,0.12278984,-0.2661635,0.11636841,-0.22388504,0.37415993,0.25228690000000004,-0.0035525879999999998,0.42011090000000006,0.20966970000000001,0.46947077,-0.15035610000000002,-0.086478405,0.049485594,-0.037735566,-0.41336036,-0.24365844,0.16289702,0.29918173,-0.5149560999999999,0.05926645,-0.09171547,0.20847757,-0.05283464,0.25438863,-0.14832917,-0.033151573999999996,0.45999873,-0.6438231,-0.12091232,0.594102,-0.26550928,0.25573295,0.18789761,0.22228666
hsa-miR-92b-3p,0.05519613599999999,-0.31283286,0.2895408,0.19057357,0.27657983,0.19292137,0.32061508,-0.11858121,0.29898095,-0.428245,0.11048862,-0.52967256,0.31588292,-0.29753605,-0.009352375999999999,-0.18884254,-0.5054678,-0.18158388,-0.5589754,-0.46333373,0.13812707,0.5946395999999999,-0.07248246,-0.051012047000000005,0.49400708,0.26029757,0.25436085,0.11325772,-0.6304736999999999,-0.16017574,0.066823795,-0.15101992,0.40562043,-0.46008766,0.12947258,0.20726715,-0.3620612,-0.062095042,0.37369767,0.13321318,0.04870171,-0.30807558,0.08846645,0.45145205,-0.30070123,0.2262056,-0.22727367,-0.013531363999999999,-0.024510757999999997,0.56247044,0.016252858999999998,-0.22686927,-0.13459739,-0.44199570000000005,0.24846731,-0.33826354,0.06754310000000001,0.15572332,-0.054377716,0.03178872,-0.14868811,-0.022517165,0.44165826,0.22009856,0.08891213,0.13940386,0.4067353,0.24402986,0.037888892,0.21425192,-0.26472402,-0.2570372,0.32228822,-0.33408946,0.48347970000000007,-0.37229118,0.23662691,0.05123271,-0.20011027,-0.05271797,-0.39129972,0.50796247,-0.14972958,0.11462535,0.62841386,0.11003175400000001,-0.38148522,0.3639301,0.6603856,0.030639102999999997,0.37939559999999994,0.072662614,0.01144131,-0.28554332,-0.10368755,0.14126928,-0.18270232,-0.4865992,0.20830084,0.32987073,0.22369039,0.08434503,0.17277409,-0.25228414,0.022782383,-0.5015076,-0.6035356,0.43410847,0.42812106,-0.33249384,-0.40379566,0.27773127,-0.15752003,-0.12842886,-0.5425613,0.11011749,0.35622042,-0.38727492,0.04484071,-0.44553903,0.098776385,-0.28066146,-0.4603688,0.48892105,0.25439855,-0.29634315,0.46675262,-0.45115259999999996
hsa-miR-19a-3p,0.010749671,0.16156277,-0.040245656,0.569101,0.1559738,-0.36486772,0.11513688,-0.41196167,-0.60658944,0.25053954,-0.65362465,0.42136404,-0.26595932,-0.11640511,0.17386068,-0.29537746,-0.103762954,0.12868758,0.06195338400000001,-0.06895627,0.20200603,-0.14456326,-0.1958136,-0.26141173,0.1394134,0.54691434,0.014504557,-0.020581795,-0.066079736,-0.6048591,0.084189445,0.40358645,-0.037976607999999995,-0.37526706,-0.40538844,-0.099726446,-0.30785695,-0.12589402,-0.41792467,-0.21937032,0.30236924,-0.35387763,-0.21920605,-0.31474194,-0.8038206,0.37718752,-0.18388844,-0.23230563,-0.5176521,0.10481544599999999,-0.27324486,0.40502605,-0.13334055,0.1494124,-0.276683,0.60873646,0.16608658,-0.18048935,-0.18700653,-0.15742336,0.12507226,0.06230448,0.14401612,0.13931395,0.26692244,-0.3074352,-0.02301868,-0.2886304,-0.53299,0.03400951,-0.43157014,0.33909684,0.41374445,-0.6295373000000001,-0.16669375,0.7161374,0.16977926,-0.23927012,-0.88655937,-0.07763291,-0.17808188,-0.17634611,-0.030506808,0.29016924,-0.3452103,-0.03684075,0.43199053,0.114781015,-0.11023347,0.16927360000000002,-0.35199812,-0.026807904,0.21106304,-0.039655823,-0.07033305,-0.5255837,-0.1459444,-0.50649446,-0.0816186,0.5939539,-0.07960623,0.023264576000000002,0.5922985,0.41456679,0.15058804,-0.08845646,-0.30505875,0.39902112,-0.17037348,0.12373454,-0.15965213,0.1388043,0.042893805,0.14693893,-0.44609708,-0.011432963999999999,-0.38242206,-0.13029145,0.24538758,0.045929625999999994,0.43172213,-0.04639395,-0.20953071,-0.08456112,-0.3058999,-0.7351572,0.07876448,0.13507883
hsa-miR-7106-5p,0.16366708,0.34653622,-0.3891598,0.21450993,0.55021346,-0.12252098,-0.23594387,-0.24176821,-0.012156412,0.22450463,-0.07560374,0.47533357,0.40378225,0.25767264,-0.045132782,0.463892,-0.16856983,0.44088155,0.019220937,-0.13070251,-0.23119827,-0.30317983,0.5087248999999999,0.15089002,-0.052468587000000004,0.37291625,-0.6323437,0.018663263,-0.12497271,-0.19634786,0.6224361999999999,0.10651923,-0.7108826,-0.49570927,-0.059739187,-0.17112212,-0.18931356,-0.21449481,-0.40599734,-0.2690288,0.18645646,-0.51183337,-0.08105115,0.07989329,-0.44404790000000005,0.30048114,0.15275119,0.000435083,-0.38598233,0.42478698,-0.17486171,0.37880352,-0.10805591,0.07021437,-0.30288148,0.02521877,-0.16043524,-0.13674557,-0.459214,-0.3201259,0.09353716,-0.6379578,0.008158017,0.63743645,0.22716142,0.02126869,0.28298175,-0.17808410000000002,-0.39759725,0.019080684,0.12629953,0.10609095,0.7647506,0.30845565,0.18836151,0.10801168,0.07992304,-0.34954804,-0.7640735,0.15399994,-0.06271425,-0.31634759999999995,-0.27423835,0.10934809,-0.39260674,0.23874913,0.06540625,0.54720837,-0.057657275,0.41793647,-0.39363223,0.059840143,-0.06931369999999999,-0.2901388,-0.060333475,-0.09786469,-0.0807932,-0.19262965,0.32414544,0.50492674,0.12671384,0.23647405,0.033359243999999996,0.73663855,-0.015495186999999999,-0.04281452,-0.20396346,0.23655905,-0.24981478,0.25815156,0.086412616,0.32040682,-0.24814653,-0.28976548,-0.1663704,0.2094854,-0.27702546,-0.38795802,0.3808184,-0.4146439,0.7414664000000001,-0.35260963,-0.22889645,-0.065796025,-0.21890058,0.022756772,-0.07958254,0.29316336
hsa-miR-24-3p,-0.05547697,0.25434320000000005,0.1133383,0.4127763,0.16877089999999997,-0.0362976,-0.09429910000000001,-0.21438769,0.087886885,-0.29120606,-0.3134479,0.47308059999999996,0.07310843,0.3445907,0.33057967,0.08631402,0.17862368,0.44188088,-0.87706983,0.28672713,-0.06712527,0.34680435,-0.45392013,0.4395203,0.29425862,0.43907976,-0.3168856,-0.06078221,-0.3676649,-0.27128005,0.19669025,0.05707866,-0.068155326,-0.47555676,0.08577864,0.24127214,-0.14585254,-0.5355161,-0.5998474,-0.24267161,0.10448656,-0.57303643,0.048100524000000006,0.28794125,0.002452847,0.7260576999999999,-0.010915666999999999,0.44873253,-0.5583765,-0.11848401,0.15851255,0.50616,-0.26873016,0.4460705,-0.13844235,-0.13752238,-0.66263795,0.25371048,0.23844913,-0.1388219,-0.17221794,-0.27406517,0.50131756,0.66868097,-0.0304445,-0.22749951,0.2635932,0.07838059,-0.45975623,-0.16610205,0.39082100000000003,-0.11828926,0.27409995,0.36569923,0.06915814,-0.11302023,0.0347272,-0.2620114,-0.3227731,0.5414689,-0.047225675999999994,-0.02980455,0.095534384,-0.74934,-0.425469,0.49725240000000004,0.06829221,0.22723746,-0.32126743,0.5288447,-0.1098953,-0.25132275,0.39659274,0.20714584,-0.5304765,-0.12409062,-0.15949601,0.17916135,0.6345191,0.32696375,0.6521526999999999,0.6560066999999999,0.46278793,0.44522768,0.05952380000000001,-0.23267466,0.3245987,0.09413731,0.07289413,0.15310584,0.19143220000000002,0.37682557,-0.8411023000000001,0.21247515,-0.33083335,-0.15506248,0.19911183,-0.20239633,0.014086588999999998,-0.025623156,0.6690758000000001,-0.14395410000000003,-0.03973736,0.017997017,-0.5915335,-0.4283509,-0.09404516,0.23328194
hsa-miR-34a-5p,0.2016304,0.27871493,-0.5257078000000001,0.5658954,-0.10458333,-0.31559795,0.27958249999999996,-0.38652295,0.16572043,-0.14125495,0.12621023,0.1778205,0.124600954,0.49714252,0.09184603400000001,0.11154491,0.17385302,-0.03571948,-0.12898378,0.45983446,0.43326366,0.04926842,-0.14494245,0.02444384,0.095060796,0.31265408,-0.4722202999999999,-0.3000865,0.2556292,-0.37390113,-0.1013058,-0.27473709999999996,-0.55320793,0.024730604,-0.07319236,-0.055090513,0.08645123,-0.19720979,-0.18039933,-0.21858574,-0.35812482,-0.24946935,0.46153679999999997,-0.025395859,-0.6122469,0.9200331,0.02807467,0.15565327,-0.6942902,-0.21546908,0.24304187,0.30125722,0.025463719,-0.11377096,-0.25804824,0.30951609999999996,0.018038925,0.3539328,-0.26290359999999996,-0.3680512,-0.102886185,-0.074697465,0.030552533,0.4338151,-0.16675031,-0.38462263,0.35257825,-0.18841228,-0.20399536,-0.34743762,0.28698814,0.17807911,0.18091469,-0.047325023,0.31274277,0.09175678,-0.026697876000000002,-0.22420649,-0.13439448,-0.004171482,0.38145655,0.12967385,-0.31109342,0.042113904,-0.29574144,0.1577225,0.53139615,0.22567147,0.08272061,0.11928071,-0.34488565,-0.029761688999999997,0.024316637000000002,-0.36039233,-0.00134091,-0.45401183,-0.10274498,-0.24220416,0.44588912,0.7877199,0.15711886,0.17953770000000002,0.7721296999999999,0.23029949,-0.25350928,-0.04699203,-0.469979,-0.058301117,-0.29288509999999995,0.20582134,-0.21275175,0.31014085,-0.4576228,-0.09905872,-0.70827055,0.10124661,-0.43681413,-0.21411616,0.26862574,-0.062364165,0.51896244,-0.32860303,-0.68620974,0.16838013,-0.7356121999999999,-0.083040684,-0.45583679999999993,0.16164826
hsa-miR-665,0.041524782999999996,0.047540966,0.23403014,0.53206885,-0.0700518,-0.094157726,0.34398490000000004,0.5240689000000001,0.33179364,-0.635446,-0.2151384,0.13824195,0.32237009999999994,-0.39542967,-0.32266527,0.07319207,-0.2647334,-0.09951825,-0.37152222,0.39395398,-0.11015188,0.22754934,-0.65438956,0.25536329999999996,-0.20216566,0.23810773,-0.3082824,0.25651982,-0.29159096,0.026243465,-0.5130204,0.29135957,0.038686517999999996,-0.10171989,-0.32166582,-0.18857597,-0.25153223,-0.66298527,-0.30514473,0.21104069,0.55609,-0.27950567,-0.107837595,0.39343444,-0.43993469999999996,0.40284503,-0.2808901,0.41259792,-0.15299228,0.16874774,0.2642498,0.13101545,0.37603372,0.040201522,0.45351383,0.5226991,0.099039055,0.21031776,-0.16954431,-0.031473555,0.18563586,-0.28961033,0.14220738,0.5090627999999999,0.11592961,0.41011673,0.1075733,-0.49800247,-0.09359376,0.6442333,-0.40986475,0.37449437,0.29461482,-0.43194443,0.32531983,-0.20330895,-0.18473499999999998,-0.27643532,-0.3460281,-0.09786247,-0.7675743,0.5720916,0.02240215,0.14256027,0.18461505,-0.21929179999999995,-0.86163515,-0.4508375,-0.11663902,-0.005816935,0.38475582,-0.2728895,-0.12477698,-0.48107457,-0.3208007,-0.046083897,-0.46161765,-0.44051369999999995,-0.41768238,0.8469098,-0.40708566,0.07015873,-0.24587435,0.017056963999999997,-0.66066915,-0.18760584,-0.31642777,0.15805113,-0.18657966,-0.6426141,-0.47634482,0.30210066,0.063100986,-0.218892,-0.41387197,-0.31613272,0.15410055,-0.6514064,-0.031479567,-0.28308740000000004,0.26187402,-0.29950482,-0.19611953,0.06576693,0.3973989,0.20250253,0.38975275,-0.19249539999999998
hsa-miR-193b-3p,-0.30515203,-0.23391867,0.32080546,0.03261766,0.11825763,-0.122476295,0.13359858,0.38902688,0.5493984000000001,-0.7916930999999999,-0.10056857,-0.25555837,-0.36681998,-0.52323014,0.08913175,0.030878771,0.46192262,0.08129011,-0.6077433000000001,-0.13426659,-0.01161985,-0.48798450000000004,-0.57778513,-0.010720813000000001,-0.27986294,0.03666415,-0.23551393,0.41317478,-0.36690474,-0.37984142,0.048971053,0.17342122,0.47359520000000005,-0.27136388,-0.30656743,-0.30796188,-0.86231506,-0.4935889,0.21354106,0.4585169,0.30324242,-0.30273318,0.1308502,0.26609427,-0.44958907,0.6567175000000001,-0.28028774,-0.051216707,0.1414966,0.5167210999999999,0.12891088,0.06849953,0.16808525,-0.10837229,-0.12301856,0.041941807000000005,-0.10837216,0.6134929,-0.50907165,0.05997467,-0.011277529,-0.5751466,0.4227822,0.4451254,-0.11399075,0.38968359999999996,0.0005837840000000001,-0.25735137,0.03528279,0.5801109999999999,0.034801014,0.39610696,-0.13548696,-0.14724046,0.28850296,-0.111923285,-0.087874725,-0.37941006,0.12958011,-0.46608895,-0.17745359,0.6153865,-0.14937979999999998,0.0254041,0.46752238,-0.20629945,-0.42594075,-0.5668769,-0.032060925,-0.33308792,-0.27712077,0.036737144,-0.22532772,-0.27345583,-0.041197445,0.21379001,-0.35299486,-0.13373245,-0.29913706,0.6190493,-0.29646525,0.3278449,-0.016768292,0.12697959,-0.0573136,-0.47315207,-0.17251329999999998,0.31930226,-0.06447661,-0.5230338,-0.8325059000000001,0.33622792,0.14584166,0.09244312,-0.41918156,-0.06087995,-0.12112355,-0.7951186,0.013960153000000001,-0.11492844,0.14859168,-0.26995912,-0.1782263,0.26312137,0.53157526,-0.29143968,0.41013268,-0.36886457
hsa-miR-6516-5p,-0.05395724,0.7081996,-0.23257357,0.30123422,-0.06998089,0.016504364,-0.10369245,0.36751488,0.020987865,0.1824897,-0.47396493,0.47525254,0.21834277,-0.1964996,-0.19447066,0.1675674,0.10005382,0.37888092,-0.2663373,-0.079001635,0.14994381,0.14530568,0.001437172,0.2986336,-0.19514416,0.5182352,-0.57548404,-0.017685216,0.20206162,0.033837184,0.24302220000000002,0.38923454,0.26709554,-0.11991644,-0.2310106,0.10897029999999999,-0.47801143,-0.22184442,0.11664268,-0.21137136,0.28756368,-0.7298585,-0.0501643,0.15584616,-0.043685082,0.3915599,-0.01772209,0.62754685,-0.41373718,0.12054201,0.014679306999999999,0.28561820000000004,-0.83395237,0.41629153,-0.43759090000000006,0.322815,-0.17218920000000001,0.032585707,0.1484778,-0.34903166,0.06889932,-0.09546661,0.5169607,0.5173767,0.13995454,-0.027334552,0.23493649,-0.19978401,-0.1560433,-0.12632069,0.23430869,0.07772556,0.12113155,0.3809015,-0.24516389,0.20857564,0.40585429999999995,-0.61124253,-0.49183553,0.27160645,-0.026801642,0.22443722,-0.1452417,-0.03889588,0.05404913,0.36894086,-0.11543441,0.039028488,0.22271948,0.4714144,-0.097732246,-0.16073835,0.08586213,-0.23653367,-0.5258472,-0.28878886,0.08415645,-0.11442456,0.4849942,0.65802884,0.16952527,0.7112063,0.41544709999999996,0.6824174,0.08355001,-0.22331083,-0.45148405,-0.12330254,0.20471723,0.32662943,-0.018165002,0.01294187,-0.54418033,0.15450242,-0.29584572,0.0631896,0.27641568,0.12559713,0.29901147,0.031192435,0.64716125,-0.17835842,-0.474137,-0.12821314,-0.7314921999999999,-0.09998399,-0.09837488,0.06286906
hsa-miR-21-5p,0.16083376,0.19733235,-0.67148185,0.22712871,-0.0967797,-0.62420624,0.059781734,-0.48006594,-0.13303284,0.050371747,-0.10242176,0.27078456,0.110964626,-0.28774264,-0.114694625,0.22437787,0.19742033,0.41201097,-0.12934127,0.20536748,0.72380996,-0.24793385,-0.05228109,-0.17096670000000003,0.18974560000000001,0.09304065,-0.38554242,-0.08955732,0.28737807,0.15447833,0.08036979,-0.20467676,-0.5138303,-0.34805137,-0.12981932,0.23746367,-0.057894062,-0.22712688,-0.33294863,-0.5674182,-0.22489192,-0.098377034,-0.36752298,0.19685921,0.2823935,-0.26081889999999996,0.2178475,-0.07563531400000001,-0.5451444000000001,0.034196947000000005,-0.10113296,0.68452185,0.136697,0.5210492999999999,-0.12547675,0.32259974,0.09609027,-0.14565986,-0.45660722,-0.21686736,0.13504098,0.022948307999999997,-0.028301949,0.15939407,0.09492484,-0.116982795,0.19778667,-0.021176003,-0.20374066,-0.43122458,0.024931997,0.078491256,0.45227042,0.20676564,-0.35183390000000003,0.40299162,-0.42650613,-0.12066307,-0.16329278,0.21691741,0.24484475,0.20281272,-0.29052123,-0.17277049,0.19605036,0.08943303,-0.05875872,0.18522324,-0.40396540000000003,-0.035984997000000005,-0.49093086,-0.35776937,-0.25687268,-0.08782162,-0.15929793,0.16454992,-0.04723733,-0.38464817,0.46236855,0.38409457,0.30348158,0.46318877,0.44334158,-0.025171112000000002,0.12736832,-0.16114828,-0.31460246,-0.25475207,-0.08897091,0.0556788,0.21344675,0.34920552,-0.020125061,0.06308332,-0.4961061,0.24990782,0.32748458,-0.25389037,0.5179511,-0.12102718,0.5811549,-0.22297984,-0.54126257,-0.13118935,-0.24699871,-0.2447746,-0.648567,-0.09662364
hsa-miR-484,-0.059649102,-0.35122326,0.10598175,-0.077621035,-0.0673803,0.2084653,0.27965890000000004,-0.4756281,0.20526235,-0.5092135,0.06501375,-0.1850427,0.3019349,0.43076012,-0.20431837,-0.34585845,0.042211052,-0.08682999,-0.80215037,-0.21368933,0.34590313,0.0016797720000000002,0.28156954,-0.40611896,0.10476011,0.8264135,0.38886732,0.17793922,0.13391592,-0.8541716,-0.25725275,-0.2875513,0.3008519,-0.6012303000000001,-0.31608105,-0.3502033,0.009670483,-0.33220533,0.21396464,0.04184953,0.26333255,-0.33376834,0.22818914,0.5089888,0.26878613,0.18256463,-0.08982038,0.02874808,0.44326434,0.6525498000000001,0.3645753,-0.09464910000000001,-0.058152366,-0.10872973,0.075110145,0.44303018,0.30318126,0.41892609999999997,-0.2747766,-0.13365766,0.10870255,-0.055198174,-0.2677717,0.6013076,-0.28335398,0.25237036,-0.069779485,0.07752855,-0.25258136,0.41159412,-0.2951375,0.12199307,-0.3477343,-0.43312144,0.32262227,-0.32751566,-0.7876566999999999,-0.33504125,-0.2742751,0.06046447,0.18903820000000002,-0.019778332,0.089960866,0.41488048,0.56648266,0.13979149999999999,-0.37659982,-0.19486448,-0.11856169,-0.2761038,0.40094033,0.17154369,-0.29916015,-0.36722955,-0.15882695,0.079054415,0.054891217,-0.3600078,-0.49848253,0.3969399,0.08585969,-0.047916163,0.20432034,-0.060296178,-0.37812132,-0.30268005,-0.5991841,0.51486343,-0.043306004,-0.5979866,-0.26037264,0.29687178,0.068497226,-0.46488857,-0.814591,-0.17192297,0.03771618,0.052413932999999996,0.4653782,-0.3691983,0.36213690000000004,0.26957345,-0.10295957,-0.01390561,0.38895053,0.1395344,-0.023638401,-0.083505705
hsa-miR-6849-3p,-0.079007566,0.2009912,-1.1783277,0.36512163,-0.14934108,-0.10828543,0.07267033,0.31592467,-0.29659559999999996,0.005799488,0.025896002999999997,-0.091398835,0.4732727,0.16131087,0.23488314,-0.19014743,0.6154430000000001,0.05018903,0.03273807,0.058499403,-0.24851903,-0.057721324000000004,-0.40498963,-0.0961717,0.11465273,0.024192393,-0.7614238,0.28453365,-0.24244425,0.18356015,0.15437579,-0.007563136999999999,0.5356399000000001,-0.36513963,-0.20047109,-0.13412736,0.23698269,-0.19357318,-0.28425208,-0.41976857,0.44228965,-0.35574368,-0.18368928,0.016991474,0.23827966,0.7234465,0.33084655,-0.29881606,0.13241313,0.26760086,-0.072172225,0.18026897,-0.46755815,-0.023703579,-0.29001322,0.117332146,0.11796717,-0.090693325,-0.07365228,0.15849598,-0.04531386,0.055963255,0.57960474,0.0068634790000000005,-0.008132855,-0.22657797,0.38942575,-0.30235619999999996,-0.34917329999999996,-0.08877845,-0.3908244,0.57194215,0.23676302,-0.076965995,0.009165946,-0.24035616,-0.07696268,0.14809431,0.18246457,0.09603702,-0.45503387,0.22210412,-0.33461106,0.1115154,-0.5470798000000001,0.13538429,0.03759169,-0.42617747,-0.17260534,-0.11850209,0.11467295,-0.16320214,0.08506267,-0.20834962,0.19949035,-0.4018339,-0.03483425,0.19920364,0.290531,0.2009247,-0.24590519,-0.21973574,0.37161297,0.053116515,0.25273186,0.31131458,0.055786885,-0.3256389,0.0027709859999999996,0.33377218,0.14223611,-0.22874664,-0.6403168,-0.10019278,0.019033711000000002,0.19656584,-0.08719450000000001,-0.16252144,-0.016870022,-0.109038725,0.6797173000000001,-0.08682904,-0.63158816,-0.31773865,0.1506369,-0.08242516,0.064693235,0.048830572999999995
hsa-miR-32-5p,0.3035167,0.6767890000000001,-0.1106935,0.4851934,0.37447593,-0.47379440000000006,0.09252359,-0.27470900000000004,0.18922606,0.5990949000000001,0.025484682999999998,-0.120452546,-0.2698055,0.22679867,0.59828436,0.35874242,-0.17270622,0.44783497,-0.19441858,-0.15812002,-0.08201126,0.15935194,-0.15259460000000002,0.6469301,0.28421482,0.6405534,-0.40365237,0.12884389999999998,-0.4850057,0.037553973,-0.12796597,-0.058115825,0.041408155,-0.13715667,-0.6455178,0.53667486,0.14784035,-0.39261875,-0.19388151,-0.5100452,-0.31294698,-0.275487,-0.10625111,0.36034109999999997,-0.5814615,0.24236947,-0.14335093,0.06238396,-0.6920945,-0.07122575,0.13130412,-0.12036957,-0.52761716,-0.16230755,0.4105021,0.08881345,-0.5190339,0.38826331,-0.28917074,0.13412122,0.01228123,-0.12126102,-0.22474776,0.098187834,0.20529594,0.16996439,0.14289981,0.09365377,-0.31976163,-0.32111785,0.24328513,0.13572274,0.040524445,-0.058553025,0.09139339,0.111174256,0.28318417,-0.25207594,-0.025560122,0.66843975,-0.07269646,0.14249812,-0.32736129999999997,0.06423803,0.01589998,-0.001687521,0.14559834,0.21173906,-0.6055396,-0.15345484,-0.33367023,0.18045183,0.03581996,-0.32804593,-0.40600482,-0.28707588,0.038440134,-0.13134293,0.2981827,0.5668786,0.094459265,0.33904698,0.45475528,0.3550478,-0.32184193,-0.39715528,-0.72814804,-0.01241434,0.19891246,-0.16769475,0.14748622,0.17957498,-0.092413425,-0.2095951,-0.2830402,-0.38519228,0.17636836,-0.12224897,0.12687017,0.15195589,0.9687007,-0.15359978,-1.0002798000000002,0.27473447,-0.4200725,-0.19784819,0.04114553,-0.07831124
hsa-miR-615-3p,-0.045084897,0.08255819,-0.20381653,0.18256009,-0.08031161,-0.5952661,0.04935443,0.33090702,0.04229201,-0.6932866999999999,0.078597814,-0.045737293,0.3828414,-0.3949454,-0.22175805,0.15641867,-0.14715397,-0.19952855,-0.47786158,-0.13130082,-0.21604206,-0.22451428,-0.29187470000000004,-0.37375593,0.04679713,0.18146951,-0.059438303,0.18037999999999998,0.021866267999999998,-0.60625875,-0.53505814,0.18450059,0.32789323,-0.24824782,-0.31036466,-0.05611549,-0.7730934,-0.056795977000000004,-0.1048808,0.061699085,0.07504594,-0.34118015,0.14953168,0.27096659999999995,-0.16739002,0.2866869,-0.52302057,0.0936936,0.27242753,0.60012645,-0.50078326,-0.40050304,-0.028181792999999997,0.48578706,0.16598262,0.28415963,0.16054684,0.12414229,-0.088298604,-0.21368389999999998,0.046551917000000005,-0.44393018,0.15787072,0.7551188,0.13592747,0.04695955,0.3061955,-0.12153204,0.15659323,0.3213198,-0.39330444,0.12910114,0.43170688,-0.5208723,0.41282344,-0.2075469,-0.44559008,-0.6455696999999999,-0.115270585,-0.73341775,-0.22258939,0.074446425,-0.064353704,-0.16908038,0.22521219,-0.16642383,-0.41249782,0.029657992,-0.2985369,0.08950782,-0.051413592,-0.3930254,-0.15061502,-0.33831188,0.000586794,0.65365046,-0.29083508,-0.3971712,-0.29384854,0.54428196,-0.037475225,0.081103325,-0.059232842,0.31980383,-0.26928379999999996,-0.02177956,0.09143912,0.031946745,-0.14900759,-0.79377097,-0.29750040000000005,0.45144406,0.36815542,-0.4005523,-0.5111293,0.006718386,0.6040484,-0.5933451,0.44373694,-0.6262441,0.60025775,-0.23510116,-0.27368647,-0.019523254,0.62745255,0.13444728,-0.2470574,-0.29925767
hsa-miR-218-5p,0.14728224,-0.039341233999999996,-0.091344215,0.43510896,0.39654014,-0.058796007000000004,0.19553906,-0.19320844,-0.12656699,0.21178722,-0.29142290000000004,0.09603007,0.11541865,0.020630746999999998,0.04177358,0.39050055,0.022712963,-0.07535151,0.30942586,0.5181905,0.36419153,0.019575686999999998,-0.101960465,-0.012877333000000001,0.48424336,0.35895485,-0.5530529000000001,0.31343284,0.46783832,-0.036354057,0.14865743,-0.20391439,-0.18661661,-0.2846743,-0.36662406,0.0986346,0.36146,-0.72077227,0.11582750000000001,-0.6019420999999999,0.5093304,0.14869621,0.0880311,0.45647904,0.03198266,0.6600783,-0.24340446,0.33712152,-0.64868253,0.33217004,-0.211716,0.16789426,-0.39432332,-0.27861255,-0.40594536,0.42063484,-0.12264695,-0.5074605,-0.38610163,0.22750027,0.51578975,0.06618417,0.37776986,0.546441,0.018015258,-0.040236045,0.23995627,-0.35269377,-0.036844,-0.028336487999999996,-0.15835874,0.23068723,0.54351467,0.07871395,-0.07420539999999999,0.49108887,0.27662256,-0.22471121,-0.78258365,-0.07720337,-0.15596128,0.41003406,0.37114957,-0.06872065,-0.64702386,0.0679587,0.09343099,-0.20074017,-0.19070181,-0.11367941,-0.039643686000000004,-0.17314011,0.22879885,-0.11680782,-0.260825,-0.36224413,-0.038747314,-0.12687536,0.33915427,0.13193038,0.16893157,0.20895834,0.14412823,0.2612809,-0.47352055,0.016398383,0.0753738,0.1665907,0.32442933,0.26135778,-0.11143078,0.08627813,0.07123176,-0.13361706,-0.5416024,-0.30902870000000005,-0.32321890000000003,-0.45115268,-0.023234677000000002,-0.21960567,0.6689329,-0.36863375,-0.35451758,0.1885606,-0.67232084,-0.33081046,-0.42639118,-0.50450957
hsa-miR-940,-0.08072974,0.38392020000000004,0.38201085,0.006605464,-0.25274402,-0.14569733,0.383802,0.36628047,0.46743549999999995,-0.15714777,-0.49834174,0.10820085,-0.6116501,0.098283745,-0.28123909999999996,0.42103398,0.11747705,0.1332884,-0.2667751,0.27760503,-0.10158003,-0.069860466,-0.15897617,0.21664001,0.12599964,0.2964294,0.09906003,-0.41251170000000004,-0.24688147,-0.38960767,0.21965264,-0.10086954,0.29372582,-0.42913398,-0.18133214,-0.24105309,0.06617214,-0.46412677,-0.46936130000000004,-0.05841664,0.22750394,-0.087432005,0.004612529000000001,0.44887415,0.38689137,0.5936704,0.306732,0.14293437,0.17073843,0.3233528,0.53952456,-0.13966472,0.17480052,0.0678664,0.24425913,0.8718503000000001,0.34578723,-0.21598725,-0.40328825,-0.17020807,-0.33899677,-0.12132429,0.10460221,0.43318862,0.39137235,0.4978701,0.48016359999999997,0.45801398,0.01929405,-0.13261195,-0.5787566,0.26742855,-0.14245641,-0.3200774,-0.14267182,0.34944840000000005,-0.24187015,-0.40981945,-0.33680722,0.0013762689999999998,-0.36425272,0.70113045,-0.45912582,0.6035268,0.27087325,-0.16887689,-0.59753084,-0.17475666,-0.47811905,-0.27790296,-0.053071387000000005,0.054368228,-0.56718564,0.5110233000000001,-0.42607263,0.2790641,-0.75964206,-0.39026365,-0.84528035,0.93837625,0.031213395,0.77127665,0.17579094,0.5539236999999999,-0.44581512,-0.54655904,-0.29611170000000003,-0.26986724,-0.36061046,-0.5044844,-0.32011345,-0.2282223,-0.64975715,-0.5819946,-0.5403291,-0.49918586,0.41594672,-0.34465903,0.42313540000000005,-0.15100709,0.051909495,-0.29598220000000003,-0.11013659,-0.34558526,-0.13541909,0.21970637,-0.21773502,-0.45548190000000005
hsa-miR-130b-3p,-0.059340215999999994,0.15884638,-0.15226492,0.061977125999999993,0.02137134,0.05364653,0.20637275,0.039389767,-0.15533887,0.050146222000000004,-0.22803608,-0.18266784,0.3108293,-0.48555770000000004,0.19045164,0.34628505,-0.042046577,0.45522696,-0.14717264,0.15677533,0.35645184,0.26901284,-0.16881300000000002,0.4927126,-0.26581043,0.64100116,-0.3828694,-0.19320008,-0.12364041,0.006806492,-0.10414169999999999,0.27929065,-0.51631224,-0.5513988000000001,-0.24253412,-0.06989624,-0.037387203,-0.41899437,-0.12641782,-0.4295518,-0.24824478,-0.48450616,0.36183313,0.22359237,-0.43634388,0.1544385,-0.1523165,0.15147394,-0.6140014,0.32679424,0.17360768,0.4430321,-0.089053705,0.5298213,0.08915321,0.50958484,-0.26253694,0.047572304,-0.2225261,-0.15443754,-0.02944028,-0.20421176,-0.16036148,0.17683807,-0.034095675,-0.5919909999999999,0.17649338,-0.11162967,-0.26674414,-0.6135586,0.16244036,0.083326966,0.17902374,0.08531357,-0.07066306,-0.20455424,0.11646803,0.13371605,-0.20686693,0.09112223,0.03141859,0.35549465,-0.43189645,0.005976715,-0.033138644,0.5187265,0.4479276,-0.13846149,-0.3707581,0.64029336,-0.24782255,-0.17085257,-0.41234884,-0.264955,-0.26339465,-0.17650929999999998,-0.22221678,-0.54263526,0.11141857,0.22505964,-0.07855079,-0.07847354599999999,-0.041197702,1.0332296,-0.032368936,-0.046405457000000004,-0.41856408,-0.18568854,-0.15868539,0.1719899,0.15596071,0.07918325,-0.48940742,0.008341039,-0.18907902,-0.23697996,0.32704183,-0.25462204,0.026237056,-0.24434665,0.90583175,0.17627720000000002,-0.39280504,-0.08888266,-0.8518726999999999,-0.053406585,-0.15634555,0.32180765
hsa-miR-186-5p,0.3826136,0.19990455,-0.16895698,0.058385793,0.25278836,-0.20359424,-0.12447999400000001,0.3874022,-0.109005824,0.28288266,0.13269982,0.002324553,-0.30928037,0.550912,0.100676775,-0.24464037,-0.069063425,0.45361292,-0.17376098,0.0973696,-0.37999320000000003,0.49041986,-0.051591568,-0.38859233,0.35439283,0.24654317,-0.49223775,-0.16675302,0.18194649999999998,0.11473107,0.1715337,0.047821913,-0.37594306,-0.6869603,-0.64231974,-0.029748205,-0.1453761,-0.30442446,0.004517255,0.19106929,0.28243655,-0.27510852,-0.046201564,0.29514384,-0.44711918,0.48369989999999996,0.000449144,-0.051993965999999996,-0.54880327,0.029981432000000002,-0.20203991,0.014976818000000001,0.22500464,0.13067132,0.32970577,0.15539014,0.16141604,0.11484283,-0.041405447000000005,-0.20473275,0.27679795,-0.08572859,-0.0964979,0.06380343,0.4474746,-0.42972058,0.20803997,-0.19359379,-0.24140085,-0.26773253,-0.28034282,0.11601201,0.4720657999999999,0.09310728,-0.07281085,0.14345436,-0.17728529999999998,-0.31264645,-0.6497616999999999,-0.18498707,-0.1581253,0.020881638,-0.24062055,-0.08353282,-0.37447318,0.5485009,0.21990924,-0.061041715999999996,-0.21488181,0.3961631,-0.07426617,0.009889716,-0.16887607,0.28714034,0.08675664,-0.4153688,0.14330956,-0.23390256,0.38406799999999996,0.2629862,0.14910427,0.43910038,0.2117828,0.24569210000000002,-0.07161659,0.37874025,-0.13420622,0.097752795,0.028164283999999998,0.04131918,0.41357625,0.5472616,-0.045311302000000005,-0.3239322,-0.79005355,-0.05422937,-0.23799166,-0.33490929999999997,-0.16128191,0.36712807,0.47080255,-0.16618504,-0.08263137,0.32426137,-0.6524163000000001,-0.30316246,0.5680664000000001,0.05085789
hsa-miR-574-5p,-0.22617686,-0.31232387,-0.07916431,0.3850578,0.41121098,0.009546681999999999,0.02734653,-0.395927,0.47130278,-0.17686525,-0.2206402,-0.08861426,-0.29092740000000006,-0.24222034,0.6068962,0.45241309999999996,-0.5275718,0.09853572,-0.52026045,-0.24455789,-0.22352503,0.19794805,0.16239668,-0.16431613,0.697599,0.1706635,-0.09374671,-0.12488032,0.21692297,-0.5144233,-0.014204898999999998,-0.2935397,-0.38111296,-0.46613765,0.32158947,0.6315470000000001,-0.36086553,-0.08830772,-0.13620329,0.035903513,0.15169549,-0.021025902000000003,-0.006130086999999999,0.092841156,0.07183732,0.23940258,0.12933098,-0.21254763,0.11976115400000001,0.25677952,-0.44410703,0.07814369,-0.11163785,-0.5798385,-0.22600764,-0.1337805,0.06778539,0.000883735,-0.23976853,-0.19796208,-0.16110675,-0.30453476,0.33753774,-0.31020337,-0.2832595,0.09609493,0.4297723,-0.20242672,-0.21704320000000002,-0.10564232,-0.37710485,0.07646498,0.17396818,-0.29334423,0.43070656,-0.26373379999999996,-0.21121055,-0.07473357,0.43778908,0.38417697,-0.021062855,-0.013273051000000001,-0.14915073,0.20565097,-0.00622085,-0.16751671,-0.06447211,-0.46427163,-0.35786107,-0.40895116,0.1205056,0.01435338,-0.332815,-0.34586954,0.24242005,0.50815964,0.004847138,-0.23985925,-0.5395039,-0.29369542,-0.11330678,0.12946892,0.04662417,0.38556975,-0.3944946,-0.29934198,-0.23081763,0.038827714,0.079185724,-0.48401815,-0.1261158,-0.29265684,-0.042029627,-0.30063987,-0.55815667,0.42790088,0.1693681,0.014539961,0.17852496,-0.13753878,0.23017100000000001,-0.21625684,0.38500127,0.37706724,0.021463142999999997,-0.15340853,0.17277741,-0.28993964
hsa-miR-30a-5p,0.35996416,0.026811564,-0.56938285,0.39295363,0.08653328,-0.080981866,0.12545398,-0.14699820000000002,-0.086189955,0.14037295,-0.01549528,0.13534078,0.34138343,0.10614882,-0.16394997,-0.17437235,0.24433091,0.41300666,-0.23577863,0.5837143,0.42937937,0.17060624,-0.027734706,-0.23316910000000002,0.05821259,0.20570877,-0.08390260000000001,0.31351948,0.10427481,0.22793765,-0.24485257,-0.14071916,-0.37210166,-0.009815278,-0.31178504,0.22075170000000002,-0.8270021999999999,-0.15462445,0.11337411,-0.3936545,-0.14965597,-0.15422279,-0.004705346,0.14109796,-0.5723326999999999,0.66522306,0.34709784,0.09558277,-0.8295877,-0.32057959999999996,-0.16160916,0.40680109999999997,-0.051642437,-0.013069727,-0.021506877999999997,0.34446928,0.13787495,0.47798368,-0.04628793,-0.64751863,-0.044260282000000005,0.22625452,0.31254926,0.43241355,0.11701804,0.026838407,0.48863935,-0.33633509999999994,-0.56584865,-0.32175177,-0.20854029,0.5806965000000001,0.30974840000000003,0.16331293,-0.4858687,0.13960052,-0.5904212,-0.10085674,-0.25671563,0.019153059,-0.28987852,0.17141303,-0.14611006,-0.08091754,-0.50391245,0.4495991,0.26861430000000003,0.45903879999999997,-0.18196173,0.43392047,-0.17225449,-0.051660538,-0.054220762,0.14283817,-0.4025396,-0.38967186,0.07522541,0.04408031,0.037140573999999996,0.26864296,-0.39474204,0.17911029999999997,0.3648349,0.52411383,-0.23532408,-0.11665718,-0.56268746,0.25115174,0.03330299,0.043390155,0.020544605,-0.20456228,-0.44809505,0.37868658,-0.44068706,0.06349105,0.50690293,-0.22180113,0.1833499,-0.21998008,0.35093325,-0.2868482,-0.27120029999999995,-0.09529552,-0.41126925,-0.21509625,-0.06685362,-0.37677985
hsa-let-7a-5p,-0.15716942,-0.24166027,-0.54053885,0.20678164,0.46430725,0.21299827,0.4033395,0.182014,-0.06579538,-0.16466005,-0.106002785,0.055894822000000004,0.02358367,0.48306224,0.24679548,-0.30800694,-0.08660204,-0.06534407,-0.51012516,-0.839442,0.07160725,-0.1929865,-0.56607896,0.18974619,0.47294503,0.3914867,-0.5856401,0.574858,0.00773795,0.32009366,0.087824136,-0.2162663,0.23130842,-0.3054014,-0.37824494,-0.14421056,0.48207018,0.3589166,0.18116878,-0.7036719,-0.15124676,0.32565954,-0.29878718,-0.031565253,0.36488944,-0.005225021,-0.18369617,-0.17924672,-0.08552007,0.5699356,-0.20196886,0.55668396,0.054473728,0.13304001,-0.024271467999999997,0.5169348,0.012930895,-0.11666509,-0.20738101,-0.07941501599999999,-0.34082127,-0.35979720000000004,0.5374375,0.5486769,-0.09867057,0.002480692,0.14696398,-0.37948522,-0.18462852,0.24425584,-0.08224597,0.60986763,-0.19399260000000002,0.07824738,-0.5079663,-0.47517496,-0.011458603999999999,-0.60680664,-0.2899982,0.22520739,-0.21568671,0.4927724,-0.13328900000000002,-0.15586598,-0.015064103999999998,0.08287264,-0.5517562,-0.2561152,-0.12469737,-0.24182306,0.5391444000000001,0.22697833,-0.11928715,0.333868,-0.07370954,0.27932772,-0.06901739,-0.22143297,0.14260463,-0.33159626,0.03565021,0.16355331,-0.20648818,0.16658520000000002,0.35865116,0.34167892,0.055568412000000005,0.25525308,-0.65410554,0.3778229,0.046300235999999995,0.07056816,-0.08516841,-0.17515017,0.18683618,0.43960136,-0.09451962,-0.07355136,0.6180326999999999,-0.03738104,-0.21690132,-0.32137692,0.30877918,0.3397099,-0.69942194,-0.6851429,0.015161801,0.117366925
hsa-miR-424-5p,0.32194927,0.21053204,-0.5928302,0.18913794,0.57180065,-0.6520305999999999,-0.11875765,-0.22733593,-0.46550086,0.29541472,-0.41670015,-0.05210601,-0.119532526,0.27552497,0.27893957,0.26727214,0.30126965,-0.19953874,-0.009854453,-0.2858507,-0.029416242999999998,0.68074995,-0.12566721,0.18111263,-0.48540208,0.53839874,-0.55290824,-0.057656374,-0.08307527,0.242222,0.31963196,0.7588573000000001,0.047160525,-0.5337758,-0.17992163,0.38154040000000006,0.16479845,0.19482905,-0.5239842,0.10553361,-0.021876786000000002,-0.6535286,-0.19572207,0.20503960000000002,-0.53971374,0.33922353,-0.17509738,-0.07278857400000001,-0.39322767,0.12702015,-0.033647228,0.18672946,0.60852265,0.10391697,-0.16728295,0.07014762599999999,-0.42540398,-0.09273575,0.42231670000000004,-0.10070694,0.014835685,0.025989031,0.07615685,0.16623318,0.2922464,0.06649603,-0.042413287,-0.64804536,0.17297928,-0.017122604,0.15338965,0.055839084000000004,-0.74856716,0.042675592000000005,-0.014532018,-0.17952007,0.6044138000000001,-0.3557215,-0.05252465,0.5647194999999999,-0.037979677,0.27055377,-0.31962642,-0.09309506,0.39073876,0.69376546,0.33829492,-0.2864241,-0.36590412,-0.056749895,0.49855414,-0.6831508000000001,-0.07722716,0.21576278,-0.42971703,-0.21949078,-0.010375736,0.1844284,0.28211364,0.24190421,0.07514597,0.26060787,0.21371777,0.35893579999999997,0.14632409999999998,0.10653567,0.45189333,-0.13294674,-0.25064152,-0.17873578,-0.32790738,-0.0796077,0.008525231999999999,-0.38685542,-0.7534679,0.046070043,0.540035,0.6905895000000001,0.3013706,0.35735103,-0.042570572,-0.14102653,-0.8684038000000001,0.4043636,-0.33240506,-0.67346275,-0.18013257,0.40607572
hsa-miR-6808-5p,-0.04432194,0.088366136,-0.015253073999999998,-0.2249196,0.2614784,-0.2920728,0.42307118,0.30702140000000006,-0.78125435,-0.024516222999999997,0.011226968,-0.33144808,0.22530383,0.25161928,-0.08751319,0.045974232000000004,0.047950957,-0.19861887,-0.009231354,-0.107538454,-0.19376571,0.49320158,-0.16915697,0.45284408,0.14928088,0.7477969,0.23088741,-0.021230726000000002,0.11314274,-0.34138012,0.13760947,0.28728154,-0.08161596,0.11777119999999999,-0.25331074,0.37593183,0.6512435000000001,0.26679240000000004,0.13569301,-0.52942735,0.029477764,-0.100828074,-0.21859369,-0.32549807,-0.19949013,0.35264470000000003,-0.19509491,-0.25163516,-0.009076401999999999,-0.17809070000000002,0.24567229999999998,0.15927643,0.1897853,0.18477282,-0.35589109999999996,0.34072113,-0.28436622,0.56625515,-0.18229038,-0.027189171,-0.20319474,0.022161402,0.43515098,0.18473464,-0.35577159999999997,-0.025206813999999998,0.41379958,0.24791189,-0.56368643,0.15837763,-0.45089367,-0.12434328,0.091297634,0.5781065,0.11127971,0.020794248,-0.15459476,-0.4251139,-0.30797383,0.14871985,-0.097879626,-0.14119923,0.5697587,-0.32734922,0.067812875,-0.02494966,-0.8258757,-0.49461812,-0.26567367,-0.6064063000000001,0.43793267,0.06467406,-0.74118596,0.48833004,-0.52783436,0.20343804,0.11586956,-0.34038433,0.010579844,0.17169227,0.5079826,0.19679539,0.8052465,0.011114345,0.07733125,0.14375335,0.27214512,0.06760102,-0.110096015,-0.011593576999999999,0.6796755999999999,-0.08473539999999999,0.014154189,-0.05429814,0.11278204,0.19165824,0.31633762,0.11479375,0.5862715000000001,0.20039466,-0.29734644,-0.42040515,0.025059917999999997,0.33673057,-0.5997744,-0.13348106,0.48385584,0.11307438
hsa-miR-497-5p,-0.029482252999999996,-0.18410234,0.47195104,0.20650898,-0.13422106,-0.05956945599999999,0.40568465,-0.13182734,0.40429834,-0.65116066,-0.3862452,-0.42540112,-0.41743073,-0.007759541,0.12994294,-0.000605256,-0.48580796,-0.36823140000000004,-0.59555227,-0.11751685,0.00371002,0.26570764,0.002921118,0.10780769,0.64187443,0.21957484,-0.27708882,0.052170184,0.08407279,-0.44492683,0.24991906,0.020444078,-0.29178059999999995,-0.36875176,-0.015739726000000002,0.30737382,-0.24894965,0.04440159,-0.033314496,-0.006648951,-0.00135061,0.08895987,0.22885662,0.69709146,-0.12571475,0.17176756,-0.33025673,-0.14482665,-0.02318339,0.45457846,-0.056758594,0.16281445,0.16135542,-0.21163762,-0.08646416,-0.10334115,0.31190586,0.14062667,-0.5126213,0.67878264,0.19736151,-0.49869278,0.5177898,0.71092397,-0.1858013,0.5411682,-0.017273055,-0.49874473,0.70279175,0.19734849,-0.51357245,-0.1765401,0.42965978,-0.5830430999999999,0.016995829,-0.12124341,-0.16531062,0.15280706,0.016548384,0.000206607,-0.56516033,0.053582214,-0.07205139,-0.008718718,-0.1689344,-0.10127492,-0.51317614,0.1697,0.18751125,-0.41091135,0.29553896,-0.006189995,-0.8531082,-0.46943533,-0.35526028,-0.15638532,0.41561338,0.2839156,-0.36217782,0.31952554,0.14410247,-0.17050295,0.15908667,0.19901443,-0.18468902,-0.38683229999999996,-0.49053097,0.5463906,-0.044374894000000005,0.046916495999999995,-0.34716135,-0.05913313,0.5086574,-0.33908325,-0.6403264,0.100948155,-0.13672622,-0.06771505,-0.07396803,-0.005957528,0.0880054,-0.08766449999999999,0.051663954000000005,0.6286394000000001,0.19860868,-0.11631868,-0.09971451,-0.036933582
hsa-miR-6893-5p,0.13184915,-0.2103861,-0.16313368,-0.28678188,0.5286691,0.019789286,0.31196094,-0.2936051,-0.3750785,-0.0993006,-0.3269748,0.24558681,0.34658268,-0.08746848,0.17527829,0.21401696,0.1488985,-0.41393542,-0.016303515,-0.44579855,0.26360476,0.25811726,-0.48810294,-0.21318536,0.35396275,0.058110394,-0.28848287,0.017962271000000002,0.33268878,-0.07799829,0.38666248,-0.050871234,0.15804218,-0.25264195,-0.5833679,-0.15266196,0.08725672,-0.058963854,-0.23290578,-0.47361055,-0.10127897,-0.17529772,-0.2067119,0.41093704,0.2642482,0.13656665,0.107659884,-0.44037753,-0.19776142,0.6694127,0.30627859999999996,0.7329873,0.63639194,-0.27849928,0.34485188,-0.05901945,-0.09537595,-0.28908187,-0.013125188999999999,-0.0242447,-0.31673512,0.037724163,-0.16807020000000003,-0.26832175,0.20492078,0.37758909999999996,0.0972807,0.07239269,0.49406314,-0.19209458,0.13192339,0.2349951,-0.12145339999999999,-0.2865258,-0.10100792,-0.3617188,-0.13558011,0.06516186,0.2735517,0.36549565,-0.23663777,-0.036662400000000005,-0.60152715,0.11055677400000001,0.13834383,0.15260246,-0.49771404,-0.380952,0.04948903599999999,-0.20057459,0.48665366,-0.13396660000000002,-0.20119815,-0.13164331,0.20838694,0.45331132,0.219608,-0.2645618,0.051595718,0.15149415,-0.10619547,0.21273561,0.06606381,0.4955617,0.28086376,-0.25762853,0.4187919,0.6019208,-0.33072382,-0.008806986999999999,0.46342763,-0.6231478,-0.09077591,-0.24305415,-0.10132987,0.44193990000000005,-0.011972425,0.004350555999999999,0.021487564,-0.054317515,-0.09829769,-0.05191985,0.2186702,0.10093147,-0.82522357,-0.56339306,0.061348747,-0.05361996
hsa-miR-6779-5p,0.45741940000000003,0.72848797,-0.5162318,0.27726409999999996,0.46991858,0.10688583,-0.30251142,-0.29321697,-0.84972143,-0.2655566,-0.13760868,0.262782,-0.045504272000000005,0.015068763999999998,0.5421312,-0.06825017,-0.010141281,0.24423045,0.21040012,-0.0730553,0.22448795,-0.06502624,0.1150153,0.12570554,0.15004551,0.35622686,-0.21984786,-0.24677323,0.15602922,0.020562112,0.45335272,0.22950198,-0.45602676,-0.23704517,-0.34297517,-0.28172773,-0.1433973,0.20272018,-0.052563194,-0.10121943,-0.20613033,-0.07557789,-0.13859813,0.35745895,-0.17427465,0.31296748,0.100650765,-0.31346262,-0.0869956,0.009104679000000001,0.31049985,0.12725630000000002,-0.003354416,0.09043776,0.23423001,0.40056586,-0.27970029999999996,0.56840914,-0.15998757,0.0022129529999999997,0.13706304,-0.24175173,-0.20248702,-0.049112514,0.26708588,-0.27215683,-0.61169994,0.057866715,0.015497016,-0.41329023,-0.21768247,-0.0248825,0.4371608,-0.3080627,0.15934509,-0.24866623,0.032169685,-0.28932768,-0.29986334,-0.45402542,-0.012470553,0.23903361,0.20489920000000003,-0.08796854,-0.16771856,-0.066109814,0.19062679999999999,-0.2786071,-0.19539589,0.4818081,0.16882104,-0.37925349999999997,-0.27321258,-0.33288717,-0.5518246,-0.2219995,-0.10013150000000001,-0.5964696999999999,0.102823965,0.77540666,0.28001177,0.46043423,0.14827429,0.5232773000000001,-0.15547359,-0.25919744,-0.13605109,0.6172274999999999,-0.21691543,0.30014798,0.008214761999999999,0.20813299999999998,-0.39029777,-0.14674729,-0.014731091000000002,0.06317575,0.7685002,-0.35912627,0.68024415,0.010919992,0.25944442,0.214758,-0.25544453,-0.012030723,-0.8969254000000001,-0.21706279,-0.21397705,0.15653637
hsa-miR-3941,-0.101579554,-0.22361062,-0.31137919999999997,-0.24848409999999999,0.60629886,-0.12563539,-0.14899592,0.30947867,0.79073006,-0.06819339,-0.3184189,-0.52854216,0.38408118,-0.3976298,0.5292347,-0.34530708,0.22651279999999996,0.30466205,-0.5323492,-0.31146604,-0.28588185,0.046188314,-0.119378865,-0.30398083,0.92541665,0.5224691,0.33482507,-0.054661765999999994,-0.14363596,-0.63531166,-0.42657079999999997,-0.15251462,0.04395985,-0.08565475,-0.001909315,-0.020518225,-0.12555712,0.08607091,-0.006087149,-0.14675577,0.08240915,0.2546974,-0.25935033,0.63214046,-0.004720677,-0.08447964,0.53691924,-0.26211685,0.07879377,0.09430401,0.384361,0.21614915,0.2319339,-0.43317574,-0.43719319,0.45125950000000004,0.5307273,-0.13311173,0.04754755,0.12847902,-0.383269,-0.616744,0.12004033,-0.19904996,-0.40001798,0.6221798000000001,0.39550808,-0.25386020000000004,-0.015755951,0.046728692999999995,-0.84732604,0.26647719999999997,-0.42956239999999996,-0.03313179,0.24461509999999997,-0.41624343,-0.0770736,0.11678829,-0.12224443,0.12876959,0.14949562,0.13928463,-0.099633835,-0.019165019,0.36098137,0.12253108,-0.017891685,0.67674226,0.4027917,-0.4594715999999999,0.08192864,-0.024633601,-0.48793837,-0.6446703,-0.17067894,-0.21078496,0.28643432,0.10138411,-0.8427146999999999,-0.040464576,0.33293197,0.17463107,0.14811051,0.460028,-0.26959187,0.27017078,-0.46965754,0.243267,0.33121312,-0.26602265,-0.32123956,0.17586471,0.22253446,-0.33632085,-0.9353357,0.56590295,-0.03723887,0.2338594,0.3461714,-0.18226235,-0.05608987,-0.4398712,0.07372358400000001,0.012366776000000001,0.13144921,-0.07935,-0.027332488,0.16933937
hsa-miR-30b-3p,-0.24087846,0.16414605,-0.48562120000000003,0.45963714,0.9203368000000001,-0.76637876,-0.016771805,-0.3371415,0.071443126,0.20137227,0.22222857,-0.34136912,0.24011593,0.4303268,0.17507945,0.16615021,-0.47104365,0.46923473,-0.18449396,-0.03894277,0.24250948,-0.015216887,-0.07071792,0.28133187,-0.16735612,0.41860175,-0.9216259,0.33746618,-0.32210454,0.08171659,0.0031222159999999997,0.11331635,-0.24436773,-0.88589627,-0.25422943,0.030336099999999998,-0.19390257,-0.34035447,-0.30990526,-0.46142963,-0.10208060000000001,-0.68993795,0.7946436,-0.00666568,-0.41482553,0.11542099,0.11010771,-0.12529385,-0.039712667,0.20895913,0.22302008,0.088482365,-0.27492434,0.5474898,-0.081751235,0.43588859999999996,-0.1292836,0.39416954,-0.56452936,0.3300105,-0.32207173,0.025675364,-0.09363907,0.092476,0.284829,-0.26631248,0.29006872,-0.24725237,0.036359407,-0.3250696,-0.019295383,0.16295488,0.50623244,0.41930175,-0.36924613,0.1549874,-0.46494353,-0.1958297,-0.25869343,-0.18375795,-0.14494501,0.26874018,-0.20084445,-0.14778025,-0.10976887,0.403413,0.23894042,-0.26169705,-0.3455897,0.9985156,-0.079562284,-0.042221233,-0.03307552,-0.056074977000000005,0.4145365,-0.14939219,0.22985299,-0.16234651,-0.10494896,0.32001063,0.009820677,0.14791015,0.12142268,0.46948567,-0.13323936,-0.17216809,-0.2505057,-0.25466776,0.00298623,-0.03125101,-0.114100516,-0.103397295,-0.21916874,0.047453813,-0.45028415,-0.04236134,0.3022901,-0.06607233,0.14514874,-0.017082844,0.54805714,-0.39416093,-0.69220096,0.25138736,-0.6785198,-0.26469153,-0.009761548,0.1337221
